{
  "version": 2,
  "featureNames": [
    "bias",
    "move.c2c",
    "move.c2s",
    "move.s2s",
    "move.cycle",
    "move.flipDeck",
    "source.pounce",
    "source.deck",
    "source.solitaire",
    "source.stackHeight",
    "source.bottomValue",
    "source.exposesCard",
    "source.exposedValue",
    "source.exposedCenterPlayable",
    "source.exposedCanPlaySoon",
    "source.exposedMatchesPounceParity",
    "source.exposedPounceConnectorCloseness",
    "source.exposedOwnSolitaireDestinationCount",
    "dest.center",
    "dest.solitaire",
    "card.value",
    "card.isRed",
    "card.stackParity",
    "card.matchesPounceParity",
    "card.pounceConnectorCloseness",
    "card.isAce",
    "card.isFace",
    "dest.isEmpty",
    "dest.topValue",
    "dest.bottomValue",
    "dest.stackHeight",
    "dest.centerHeight",
    "move.cardCount",
    "own.pounceCount",
    "own.deckCount",
    "own.flippedCount",
    "own.wasteCanPlaySoon",
    "own.wasteOwnSolitaireDestinationCount",
    "own.wasteOwnSolitaireConnectorForPounce",
    "own.wasteMatchesPounceParity",
    "own.wastePounceConnectorCloseness",
    "cycle.revealsCard",
    "cycle.revealedValue",
    "cycle.revealedCenterPlayable",
    "cycle.revealedCanPlaySoon",
    "cycle.revealedOwnSolitaireDestinationCount",
    "cycle.revealedOwnSolitaireConnectorForPounce",
    "cycle.revealedMatchesPounceParity",
    "cycle.revealedPounceConnectorCloseness",
    "cycle.resetsWaste",
    "cycle.stockFractionAfter",
    "cycle.cardsAdvanced",
    "own.emptyStackCount",
    "own.currentPoints",
    "own.pointDifferential",
    "board.ticksSinceMove",
    "board.ticksSinceNonWaitMove",
    "move.immediatePointDelta",
    "move.immediatePointDifferentialDelta",
    "move.clearsPounce",
    "center.ownCanFollowAfter",
    "center.opponentsCanFollowAfter",
    "center.opponentsCanPlaySameNow",
    "center.opponentPounceCanFollowAfter",
    "center.opponentDeckCanFollowAfter",
    "center.opponentStackCanFollowAfter",
    "center.opponentPounceCanPlaySameNow",
    "player.index",
    "player.botIndex",
    "board.playerCount",
    "board.isHeadsUp",
    "card.canPlaySoon",
    "card.centerPlayableDestinationCount",
    "card.ownSolitaireDestinationCount",
    "card.ownSolitaireConnectorForPounce",
    "center.ownCanFollowSoonAfter",
    "center.opponentsCanFollowSoonAfter",
    "solitaire.isTuck",
    "solitaire.deckMoveHelpful",
    "solitaire.destTopCanPlaySoon",
    "solitaire.makesPouncePlayable",
    "solitaire.exposesCenterPlayable",
    "solitaire.exposesCanPlaySoon",
    "solitaire.movesFullStack",
    "solitaire.postTopConnectorCount",
    "solitaire.postTopConnectorCloseness",
    "solitaire.postTopConnectsPounce",
    "solitaire.postTopConnectsStackRoot",
    "solitaire.deckStockFraction",
    "solitaire.sourceCenterLowerDistance",
    "solitaire.destTopCenterLowerDistance",
    "solitaire.sourceCenterAboveCount",
    "solitaire.destTopCenterAboveCount",
    "cycle.resetRevealsCard",
    "cycle.resetRevealedValue",
    "cycle.resetRevealedCenterPlayable",
    "cycle.resetRevealedCanPlaySoon",
    "cycle.resetRevealedOwnSolitaireDestinationCount",
    "cycle.resetRevealedOwnSolitaireConnectorForPounce",
    "cycle.resetRevealedMatchesPounceParity",
    "cycle.resetRevealedPounceConnectorCloseness",
    "cycle.lookaheadCenterPlayableReach",
    "cycle.lookaheadCanPlaySoonReach",
    "cycle.lookaheadOwnSolitaireDestinationReach",
    "cycle.lookaheadOwnSolitaireConnectorForPounceReach",
    "cycle.lookaheadPounceConnectorReach",
    "own.stockLookaheadCenterPlayableReach",
    "own.stockLookaheadCanPlaySoonReach",
    "own.stockLookaheadOwnSolitaireDestinationReach",
    "own.stockLookaheadOwnSolitaireConnectorForPounceReach",
    "own.stockLookaheadPounceConnectorReach",
    "own.pounceCenterPlayable",
    "own.deckCenterPlayable",
    "own.stackCenterPlayableCount",
    "own.stackTopCanPlaySoonCount",
    "own.stackNextCenterPlayableCount",
    "own.stackNextCanPlaySoonCount",
    "own.stackNextPounceConnectorCloseness",
    "own.stackBottomPounceConnectorCloseness",
    "own.pounceCanPlaySoon",
    "opponent.pounceCenterPlayableCount",
    "opponent.deckCenterPlayableCount",
    "opponent.stackCenterPlayableCount",
    "opponent.pounceCanPlaySoonCount",
    "own.stockFraction",
    "own.wasteFraction",
    "own.pounceValue",
    "own.pounceStackParity",
    "opponent.minPounceCount",
    "opponent.maxPouncePressure",
    "center.ownPounceCanFollowAfter",
    "center.ownDeckCanFollowAfter",
    "center.ownStackCanFollowAfter",
    "center.opponentFollowPressureAfter",
    "center.opponentPounceFollowPressureAfter",
    "center.opponentSameNowPressure",
    "cycle.ownPounceCount",
    "cycle.ownCurrentPoints",
    "cycle.ownPointDifferential",
    "cycle.opponentMinPounceCount",
    "cycle.opponentMaxPouncePressure",
    "move.wait",
    "move.premove",
    "card.centerDistance",
    "own.wasteCenterDistance",
    "own.handHoldingCard",
    "own.handCenterDistance",
    "own.handCanPlaySoon",
    "opponent.handVisibleCount",
    "opponent.handCenterPlayableCount",
    "opponent.handCanPlaySoonCount",
    "opponent.handMinCenterDistance",
    "opponent.handMaxPouncePressure",
    "center.opponentHandCanFollowAfter",
    "center.opponentHandCanPlaySameNow",
    "premove.centerDistance",
    "stuck.noVisibleCenterMoves",
    "stuck.ownVisibleCenterPlayableCount",
    "stuck.opponentVisibleCenterPlayableCount",
    "stuck.ownClosestCenterDistance",
    "stuck.opponentClosestCenterDistance",
    "stuck.closestCenterDistanceAdvantage",
    "stuck.moveCycleLike",
    "stuck.movePremove",
    "stuck.moveSolitaire"
  ],
  "inputSize": 165,
  "hiddenLayerSizes": [
    192
  ],
  "layerWeights": [
    [
      [
        0.007168563437972062,
        -0.010874151496099264,
        -0.02184826974090321,
        0.09331724478560764,
        0.0017795723304184178,
        -0.009277567061798019,
        -0.06241062802166895,
        -0.018558282596714576,
        -0.018180373994877715,
        0.00008679705898570926,
        0.00018509680459664326,
        0.00010802553442959552,
        0.00011017770345345357,
        0.00002745512915307491,
        0.00014908170036549915,
        0.00004219317878091828,
        0.00003578665176869281,
        -0.000009775288992282531,
        -0.0748026497566493,
        0.040440239312654835,
        0.05352386456074845,
        -0.0069787362463754245,
        0.0002442810479231611,
        0.00005619982591031958,
        0.00008278042080806414,
        0.009513688999431693,
        0.019818611118789888,
        0.04407132449295927,
        -0.0025106237948872077,
        0.00012124633667663488,
        -0.04056584163550878,
        0.032401760997355845,
        0.10623886110273327,
        0.003740888588696994,
        -0.056798490323328815,
        -0.06377758323736706,
        -0.00009652398345738356,
        -0.0000036983552881679375,
        -0.000008635441896267602,
        0.000006065685401817132,
        0.000017320238261262055,
        0.00022063692858249553,
        0.000053278370571186144,
        0.0000501125493137743,
        0.00009727301869217731,
        -0.000008130988621176383,
        0.000017490681342778773,
        0.00021769783602856768,
        0.00009522454358077675,
        0.00014169836200487806,
        0.00023204613103794966,
        0.0002365352968087281,
        0.06760454163703739,
        -0.002469009743171088,
        0.000020325035316361136,
        -0.04232654839138475,
        0,
        0.02619621888713126,
        0.004733127168900925,
        -0.02887949311821838,
        0.026022886624251878,
        -0.06870983579734731,
        0.013843059297907927,
        -0.00001317952997572151,
        0.000002200825364237126,
        0.000016618157301979635,
        -0.000005162026171401141,
        -0.049941768667784145,
        0.04165868018072774,
        -0.02796209785157571,
        0,
        0.08218205169500156,
        -0.00010153359701146264,
        -0.000006932909480090255,
        0.0000036061382232597265,
        0.004198855312641643,
        -0.05445796185338291,
        -0.055835496624936906,
        -0.10867236851950988,
        0.003595884202908972,
        -0.10097561806122035,
        -0.08335495929640067,
        -0.14428166960572647,
        -0.06954290051586459,
        0.00004493961418364749,
        0.00011111174442896034,
        0.00010760123794547614,
        0.0000681812125833037,
        0.0000032147446925946885,
        0,
        0,
        0,
        0,
        0.00014169836200487806,
        0.00008028728352419913,
        -0.00001335947797954317,
        0.00010085303501399301,
        0.000010974456230258462,
        -8.827224039438486e-7,
        0.000003834415828371086,
        -0.000014733461087331013,
        0.00006077086438588205,
        0.0001950827511136512,
        0.0000017371846765369174,
        0.000006429090411256559,
        0.00013164813025905324,
        -0.000015923680549265426,
        -0.00001710445805314528,
        -0.000006022539776838985,
        -0.000023840614587695774,
        -0.000011897403469179383,
        0.00024100666369503184,
        -0.00009530727678781917,
        -0.0000023694729442644497,
        -0.000024123944910638137,
        -0.0000013364617748736044,
        -0.000004126594460087106,
        -0.00006146561305479402,
        -0.0000691155113088071,
        0.00008768588633267827,
        -0.000005182735522308417,
        -0.000002697879952669968,
        -0.0000013757342146506276,
        -0.00001891698963389664,
        -0.0000028899990413883257,
        -9.72027606134455e-7,
        -0.00003588034112540754,
        0.000006853887166414191,
        0.000011538087629860849,
        -0.000016683457133830406,
        0.000006188736690365683,
        0.00001685118762320488,
        0.0000026213917598346293,
        0.000011078219040370014,
        -0.00003493938703853484,
        0.00004517634478199754,
        0.0001574159362535209,
        -0.0000547339123657578,
        -0.000016383270740652515,
        0.00012201538416385274,
        0.000118081160377986,
        -0.00019107831193156547,
        -0.0002949790230348495,
        0.00001971155921986788,
        2.0718314088148015e-7,
        -1.2849501023917672e-8,
        -1.9933436099487908e-8,
        -1.2872227627926555e-8,
        -6.810629019298827e-8,
        -6.008925486055825e-8,
        -6.810629019298827e-8,
        -4.878740210785082e-8,
        -1.915046455724828e-7,
        -0.00000158198062088878,
        0.0000029117094259988363,
        -0.00006824893329024075,
        0,
        0,
        0,
        0,
        0,
        0,
        0,
        0,
        0
      ],
      [
        -0.036319503094052845,
        -0.1435080046306677,
        -0.10861227961227628,
        0.29038753057006794,
        0.0530205830917762,
        0.031083070301428026,
        -0.042387240494409055,
        0.005531648054330186,
        -0.002330795617484381,
        -0.00026984310387543,
        -0.00008498749805072233,
        -0.000688786929334521,
        -0.00013294978215802817,
        0.0008548710519270359,
        -0.00013398761453801956,
        0.0002067039654879256,
        -0.00046955484438920765,
        0.0001648472175119236,
        -0.10619989974106481,
        0.19100617117286622,
        0.11438694873507,
        0.006017992533972749,
        0.0032766148398052876,
        0.0057933744290645794,
        -0.0006993903979458628,
        0.0896467302863083,
        0.05914321736905308,
        0.12556706278983987,
        0.012710961530946334,
        -0.0022763649236429216,
        -0.04316339030226958,
        -0.0469383641630986,
        -0.03325537077189264,
        0.01329035119581028,
        0.011196114272250339,
        0.0038329997760137968,
        -0.0002846485321730643,
        -0.000006458477092071294,
        -0.000008185726937500931,
        -0.000025217444950560642,
        0.000026029936635795715,
        -0.010093782383837936,
        -0.007494899994668078,
        -0.00011849651016959404,
        -0.0036580120900916936,
        -0.000031350542107821086,
        0.00014244844480674974,
        -0.003925445839768351,
        -0.0013294142075966615,
        -0.0002868485635941343,
        -0.00503136790040242,
        -0.010069656832147143,
        0.13091987660526377,
        0.10880684371006515,
        0.000034509962083840354,
        0.029717693767248317,
        0,
        -0.0873486841981395,
        -0.07149611805193724,
        -0.043385549479226154,
        0.01100717661830356,
        0.046238056424316665,
        -0.0014095107655461938,
        0.00007420958418408577,
        0.000019488500176638917,
        0.00014335908996721583,
        0.00003720545609240319,
        -0.022308674314935464,
        -0.024699675086365645,
        0.005806974984331601,
        0,
        0.1702571662652546,
        -0.0006584320569934392,
        -0.000609596736041432,
        0.00018740134883449207,
        0.05156376672050172,
        -0.05870268171369704,
        -0.38949513109117173,
        -0.2067921002108431,
        -0.13852216557146227,
        -0.08199486171660667,
        -0.17789377446021243,
        -0.31070425001300267,
        -0.41043316447062134,
        0.00019488299528404218,
        0.001895507201448404,
        0.0002445468935061017,
        0.0002647355340276797,
        -0.0007892756335540481,
        0,
        0,
        0,
        0,
        -0.0002868485635941343,
        -0.00016634918480969534,
        -0.00004216267315888081,
        -0.00009201489372081279,
        0.000015864041733822543,
        0.000007871864219864049,
        -0.00012011439528858966,
        0.00010262064732946282,
        -0.0019762470442901236,
        -0.006088927418397092,
        -0.0003668206040136246,
        0.00018892126821563196,
        -0.0031120025952127,
        -0.000039415034765486416,
        -0.00008065415864651585,
        0.000009898406231814208,
        0.00001685357168754043,
        -0.00011897103489058486,
        0.0016134795733415484,
        -0.0007769223244854321,
        0.0001471268369334377,
        0.0000401881065532665,
        -0.000028935924439539902,
        0.000045639477723878395,
        -0.00021308175334932563,
        -0.0003790946004862975,
        0.0008453938152136582,
        -0.0000033460787438069193,
        -0.000007451065009782986,
        -0.0000014194652455056079,
        0.000008461876567526697,
        -0.00012115850842315432,
        -0.00004781126269868071,
        -0.00034536487051151115,
        -0.000044192339552713325,
        -0.00009142314377054668,
        -0.00008400884629722495,
        0.000004214722770058947,
        -0.00010328805787905327,
        -0.000027534890792198168,
        0.0001315197513034732,
        0.0002759087373426321,
        -0.0002523675064554872,
        -0.0076522649894850015,
        0.0024892162868833737,
        0.00039514382357141417,
        -0.0060701545803674714,
        -0.005316494193863559,
        0.006167956784653638,
        0.00886006278911618,
        0.0006396827301297833,
        -0.00004880859446421777,
        -0.000005735960125715502,
        -0.000001727864647009968,
        -0.000005733908051191009,
        -0.000012858682683659267,
        -0.00001233423581891539,
        -0.000012858682683659267,
        -0.000005581145131852956,
        -0.000033585825897468136,
        0.00002450954749131409,
        -0.000046452601045600756,
        0.0020710566176722948,
        0,
        0,
        0,
        0,
        0,
        0,
        0,
        0,
        0
      ],
      [
        -0.017574705354707898,
        0.10746807308638338,
        0.04652989672764442,
        -0.1769999494816029,
        0.011337326257759201,
        0.0500676914378462,
        0.010203068949448746,
        -0.020129837440568888,
        -0.05111291105989866,
        0.00042396440674283823,
        0.0005446952244208313,
        0.0009526747098090951,
        0.00042234647925460593,
        -0.0003900123144319046,
        0.0006782038050907634,
        0.00018202108638253178,
        0.00043088393152945087,
        -0.00011330938519256023,
        0.07162088663141271,
        -0.0723434578419681,
        -0.07173813000169667,
        -0.005291286481373294,
        -0.002103775518150274,
        -0.005168149208752264,
        0.000646530847548651,
        -0.09260927904416659,
        0.015805898555339634,
        -0.03385885867141813,
        -0.01011937399956321,
        0.0025101906468896684,
        -0.04595186492680336,
        0.03458912473563415,
        0.03587235228300032,
        0.04978991450967029,
        0.02574985773426344,
        0.05618511329788891,
        -0.000028958683299468483,
        0.000009903464192408598,
        -0.0000026352786846732575,
        -0.00009615105162691961,
        -0.000050865622186759763,
        0.008496949058966127,
        0.00603735755597027,
        0.0002298289997083543,
        0.0029275687903161304,
        0.00008256276707676243,
        -0.0000637865375508193,
        0.003348841366401515,
        0.0011299452387920161,
        0.0008082428045489843,
        0.00484655979599849,
        0.00832715264744424,
        -0.008459831242309958,
        0.01832376708264109,
        -0.000004859458092113255,
        -0.023034811887286413,
        0,
        -0.020672092825345354,
        0.07814835522892222,
        -0.017635951643860056,
        -0.047011308206892574,
        0.027498655248727237,
        -0.025602664779417455,
        -0.00005395902807144363,
        -0.00001916921657711228,
        -0.00007626667470483277,
        -0.000024092920592094586,
        -0.03359521826504916,
        0.0330758684388049,
        0.018810602890402598,
        0,
        -0.09082031404387365,
        0.00037350597698670654,
        0.000781795295283058,
        -0.0001382124459992648,
        0.034042916384378986,
        -0.05145930356852799,
        0.32379767999536707,
        0.05296964208818015,
        0.11877843654109276,
        0.10894932793749186,
        0.09923306581635793,
        0.16063249484028838,
        0.24286675763904808,
        -0.000028959754111923546,
        -0.0009275164140124537,
        0.000023715306207714244,
        0.00010178575787890281,
        0.0009734564908759417,
        0,
        0,
        0,
        0,
        0.0008082428045489843,
        0.000510851374705205,
        0.00006072018337556636,
        0.00031521260024276683,
        0.000003697761229266199,
        -0.000008959615302803295,
        0.00029360724229114194,
        0.00003527230368156671,
        0.001655215212779829,
        0.0051801445789350815,
        0.0003583869201524137,
        -0.00008399029094327881,
        0.002726233079510268,
        -0.000011360098874944597,
        -0.000038405275736231275,
        -0.00002017486280103825,
        -0.000029254990752505754,
        0.000029413839692071298,
        -0.0008248248056717507,
        0.00003070991390510678,
        0.000007673903528570908,
        -0.0000981008693057222,
        -0.00000692906641970776,
        -0.00009954900008890022,
        0.00003987814222156383,
        0.00011358357496101391,
        -0.0005695585679348994,
        -0.000006242744636560911,
        -0.00002625764148849616,
        0.000001310324210464927,
        -0.000069571979663652,
        0.00005036966966128159,
        -0.000054633786896858536,
        0.00010655285297298564,
        -0.000009480931702631259,
        0.00002079252075952521,
        -0.00002714469116136161,
        -0.000010223166010757633,
        0.0000695075167697084,
        0.000015026999491139345,
        -0.0001291427924122377,
        -0.00019089960146779827,
        0.00017481990693064129,
        0.006698686166013875,
        -0.0021750466178430835,
        -0.00037554734643750184,
        0.005307520804611615,
        0.004696718000836185,
        -0.005663817995371324,
        -0.008174658185659689,
        -0.00047288456431822406,
        0.0000030727890778132064,
        0.000001461664309068861,
        2.487893244858444e-7,
        0.0000014609916355904795,
        0.000002170630813427208,
        0.000002323136031016887,
        0.000002170630813427208,
        3.20669926663043e-7,
        0.0000067916644107060214,
        -0.000024802383748087713,
        0.00004730594558508004,
        -0.0019134889172144618,
        0,
        0,
        0,
        0,
        0,
        0,
        0,
        0,
        0
      ],
      [
        -0.0559476540530941,
        -0.06675019842291237,
        -0.07715580196813857,
        0.2406657919748187,
        -0.022987250349616344,
        0.06604832261295335,
        0.024316444740339838,
        0.06095774061380654,
        0.07219813457170571,
        -0.0005380631293640195,
        -0.0009634487142803054,
        -0.00123557196439432,
        -0.0006962257995310555,
        -0.00008120619917737886,
        -0.0011312613737776442,
        -0.0006036273608579654,
        -0.00040206621152577316,
        0.00005958756804068412,
        -0.15972545667679108,
        0.04501986339770021,
        -0.0016297304490286875,
        0.01423385040846689,
        0.000964333342081016,
        0.005359207040756136,
        -0.0005785106845923267,
        0.024600048420448554,
        -0.003907576217804136,
        0.05863633071816628,
        0.007636757970263512,
        -0.003008920470534918,
        0.03549644801871981,
        -0.06273400673326472,
        -0.057339717747992,
        0.009110556397107169,
        0.017695371755280465,
        -0.018025470991192737,
        -0.00013983380545351247,
        0.00002438429928815229,
        0.000027315877176321984,
        0.000023088817347750543,
        0.00005050764441913033,
        -0.007695985566644955,
        -0.005229042442393061,
        -0.00037606684648145897,
        -0.002391812017564785,
        -0.00018783314791667976,
        4.272052515265009e-8,
        -0.0027678327772540532,
        -0.0008887275702073589,
        -0.0013818279921876681,
        -0.005136532223709941,
        -0.0073178762341821945,
        -0.060474409577227335,
        0.024291340681178556,
        0.00003247783423538978,
        0.06979324177411127,
        0,
        -0.0892486085882412,
        0.021464154607365782,
        0.035154326173974085,
        -0.059212044571766806,
        -0.0174761349095268,
        0.03879113930063742,
        0.00001966738567498176,
        0.00001870380784998438,
        0.000038833332105824983,
        0.000004338829245178843,
        -0.07565415680241885,
        0.058348731778941634,
        0.06125413317422181,
        0,
        0.13126792335721219,
        -0.00034393896695003,
        -0.0010575538179045882,
        0.00009756632212060277,
        -0.08192895203425814,
        0.09141438238717871,
        -0.1895183576118421,
        -0.20030961725170968,
        -0.06875577502195761,
        -0.1716371449595142,
        -0.18186586105192284,
        -0.28911397495552293,
        -0.27287922168526296,
        -0.00009542250196623351,
        0.00006599813133600819,
        -0.00015699492229744478,
        -0.0004337058020017429,
        -0.0012285875854624307,
        0,
        0,
        0,
        0,
        -0.0013818279921876681,
        -0.0008986678087364386,
        -0.00010602681007997678,
        -0.0005174235854589526,
        -0.000009323151960279389,
        0.000011089635350574989,
        -0.0005494366330872716,
        -0.00022667196258341034,
        -0.001506760032390192,
        -0.004681489194369426,
        -0.0004202865418465316,
        -0.000017656134825659174,
        -0.002504576992967803,
        -0.000013114413029347789,
        -0.000009699276379130815,
        0.000011483323836526535,
        0.00003967580083661699,
        -0.00009528590698457588,
        0.0010105321614796066,
        -0.0003715228621882117,
        0.00002941902411262984,
        0.00008328689859184946,
        0.00001928944922723775,
        0.00009650155321147028,
        -0.00011146670310155353,
        -0.00025998185215840347,
        0.000630048735284826,
        0.000007826259565993849,
        0.000027172248037682204,
        -2.982730487523444e-7,
        0.00008539993553466243,
        -0.00014091047903558228,
        -0.000014194710752446447,
        -0.0002035240638566739,
        -0.000051522041133198605,
        -0.00014289734070092012,
        -0.00001322516984436575,
        0.00003051242147583302,
        -0.000018508178166097862,
        0.000002751843285345338,
        0.00015675790011031383,
        0.00007642068792807772,
        -0.00006113371356427287,
        -0.006327445678688912,
        0.002047939000782624,
        0.0003945296723678317,
        -0.00500516215826269,
        -0.004487931146916364,
        0.005680428530169294,
        0.007888738609006777,
        0.000267834785952994,
        -0.00006642348022435389,
        -0.0000033128805013432546,
        -7.37979438826672e-7,
        -0.0000033108483019103075,
        -0.000007893683168869846,
        -0.000007118068995954769,
        -0.000007893683168869846,
        -0.000004125283590110774,
        -0.0000189539934390724,
        0.00002751768335882117,
        -0.00005270493734321272,
        0.0018484147401281376,
        0,
        0,
        0,
        0,
        0,
        0,
        0,
        0,
        0
      ],
      [
        0.0026316705536846177,
        -0.04758153068044565,
        0.04817423665348183,
        -0.04909307164690381,
        -0.01756450356976079,
        -0.03542967269919194,
        -0.1017817617860392,
        -0.04491573620116797,
        -0.022909512851077903,
        0.0002894317186383666,
        0.0005765844722178516,
        0.0006965356147287859,
        0.0004007465144324773,
        0.0000741225572776679,
        0.0006832006392483165,
        0.0003886023057042394,
        0.00022709550553515534,
        -0.000027311893851072325,
        0.0994616832527493,
        0.004991423510192466,
        -0.049325858656857235,
        -0.0046764395101950565,
        -0.00035013840621681295,
        -0.0023574229048863595,
        0.0003027001777883551,
        -0.04247024091248387,
        0.02177770503167642,
        0.039805729612765614,
        0.06166625289775738,
        0.001603443740643374,
        -0.05159515193197195,
        0.046865024635533666,
        -0.03449909980970339,
        -0.05083876284600649,
        0.005115410152178841,
        0.029803398355778558,
        0.0000832903289184676,
        -0.0000012390267211866996,
        -0.00001201889377383721,
        0.000024543082966387333,
        0.000005779770930497569,
        0.0035430096817538324,
        0.002428244911718129,
        0.0001095960917415851,
        0.0010360887000945428,
        0.0000767665763802588,
        -6.699616850124109e-7,
        0.0012623328223782583,
        0.00040049756601041625,
        0.0007531088932268841,
        0.0025103728039456794,
        0.0033451829010067505,
        -0.0004291447485169871,
        -0.06833105570850523,
        -0.000016824181222032474,
        -0.08235749619064799,
        0,
        0.06920408828855008,
        0.027365151528501802,
        0.06454609214112818,
        0.018502545341457014,
        0.08840386290475491,
        0.06671137142220007,
        -0.000005237739090137031,
        -0.0000068897288635770205,
        -0.000018914507387309138,
        -0.0000042980127765089244,
        0.036088915682949044,
        -0.02696193743357273,
        0.04792305033177185,
        0,
        -0.05183358526410424,
        -0.000052638973006277796,
        0.0006004990469721587,
        -0.00003877804820175303,
        0.012607086398505237,
        -0.07846676861540708,
        0.07422727797223992,
        -0.06407168355195828,
        0.0065853809190500375,
        0.06876297101464549,
        0.051752808760637606,
        -0.02882235017803401,
        -0.05385620084199591,
        0.0000818325125374084,
        0.00009769740439892473,
        0.00014022303040366494,
        0.0003131978636439818,
        0.0006402545220521625,
        0,
        0,
        0,
        0,
        0.0007531088932268841,
        0.0004936336012643198,
        0.00005485521515193232,
        0.0002660927070965658,
        0.000007215239340072702,
        -0.000006374874661075373,
        0.00029535493336694944,
        0.00012919444233756456,
        0.0006116167973996101,
        0.0021412704107559616,
        0.0001774724885258366,
        0.000008936325767739579,
        0.0011676792710881652,
        0.000023498190688159715,
        0.00004540524392860635,
        0.000003833748249085038,
        -0.00001229725471760338,
        0.00003802434985918873,
        -0.00009091468779887199,
        0.00013309720081513144,
        -0.00006695102708391037,
        0.00002890453066102782,
        0.000008730913329007521,
        0.000027546811148458755,
        0.00005036894784333829,
        0.000052279403744314964,
        0.00006812629993513618,
        0.0000013474197841648832,
        0.000004791014871868273,
        -0.0000012677388690417414,
        0.000016019952206528748,
        0.0000778676368005962,
        0.000022427065807516023,
        0.000049732741871607865,
        0.00003506371049438667,
        0.00005321912501495728,
        0.000050998542392581304,
        -0.000018927201740233165,
        0.000002805874540069878,
        -0.0000021161748858934372,
        -0.00007493846685992039,
        -0.00002277908104434548,
        0.000019310021309241867,
        0.0030061867637443413,
        -0.0009729614907667889,
        -0.00020317413868705634,
        0.002372230441819312,
        0.0021511342516180657,
        -0.0028290067858356147,
        -0.003862385916525032,
        -0.00006503592540592092,
        0.00003849252839174124,
        0.0000017797488347438455,
        5.842303989204347e-7,
        0.000001779589311309497,
        0.000004148474516015674,
        0.0000037922244919562916,
        0.000004148474516015674,
        0.000002215693890872372,
        0.00000937385425292308,
        -0.000014862455302157295,
        0.00002846403861398186,
        -0.0009042049006342744,
        0,
        0,
        0,
        0,
        0,
        0,
        0,
        0,
        0
      ],
      [
        0.05313093701111006,
        -0.10837082393822924,
        -0.08949689385736188,
        0.2562677497057073,
        0.060262112167422735,
        -0.00037455600286985107,
        0.006986659829971774,
        -0.017666235533422916,
        -0.01164398036288175,
        0.00003620216793991663,
        0.00034700331840887736,
        -0.00007595196893886911,
        0.000234202526515772,
        0.0007694201762262739,
        0.00031039767573250057,
        0.00032152423051077367,
        -0.0002216232578446375,
        0.00009068922917376124,
        -0.03238124347459631,
        0.03747266732125236,
        0.0924204074106972,
        0.010416202148911391,
        0.002089554535478509,
        0.0021951639296143104,
        -0.00026798399289820285,
        0.007312628949792004,
        0.025010556018241835,
        0.12783247101030484,
        0.0705173222855219,
        -0.00036273020417572973,
        -0.0827296035415786,
        0.0480720312745657,
        0.0953704438218606,
        -0.03853735521198146,
        -0.0003716568685365104,
        0.026128494747941804,
        -0.00016157925758889327,
        -0.000009125939712957688,
        0.000007963809214408403,
        -0.00002472995835096984,
        0.0000029891475397583715,
        -0.004036073745122584,
        -0.00340000961392289,
        0.0002686824251219461,
        -0.0015205418714858995,
        0.00008159911936854999,
        0.00013970273545041662,
        -0.0015097198811727236,
        -0.0004932768525125311,
        0.0004305626767381854,
        -0.0014497978670095545,
        -0.004153062794211609,
        -0.01676913721599702,
        -0.024403350880822232,
        0.00002072359187667951,
        0.08197563279525492,
        0,
        -0.06546198054423505,
        -0.09345960967833769,
        0.012662744699713907,
        -0.07285633933450861,
        -0.039196710591339376,
        0.07474028945356884,
        0.00002440647308987823,
        0.0000042915102464245046,
        0.00010096014526530167,
        0.00001937065026108819,
        -0.010992465195224605,
        -0.005940881577238069,
        -0.08141533967359237,
        0,
        0.1006582712101759,
        -0.000436139283373478,
        -0.00002424443749825125,
        0.0001036797233638975,
        -0.04201608896423973,
        0.029102200635854652,
        -0.2943451159164176,
        -0.07106372000951022,
        -0.00737483264528571,
        -0.03457412291326285,
        -0.17322176050992136,
        -0.17654828372584644,
        -0.2639114565055818,
        0.00024953924641849575,
        0.0016379213270956378,
        0.00033402767862957656,
        0.0005196257238806797,
        -0.0000823219958085158,
        0,
        0,
        0,
        0,
        0.0004305626767381854,
        0.0002776709368427257,
        -0.000005238468860351472,
        0.00025680176165632056,
        0.000026226820657222892,
        0.000001958593798591984,
        0.00010621397570900261,
        0.00013423297711243103,
        -0.0006186092532599632,
        -0.0023066138273062416,
        -0.00005123100625072252,
        0.0001716885161215735,
        -0.0011172196813615358,
        -0.00002132843646191715,
        -0.000021534561054470187,
        0.00001201443739265582,
        0.000034743129437137436,
        -0.0000685152373633965,
        0.0009576386796856283,
        -0.0004657402668345593,
        0.000019285600019484703,
        0.000014916566898665461,
        0.000005062918642486908,
        0.000057477061078909216,
        -0.00013204695839401796,
        -0.0002325009931327115,
        0.0005270560134414494,
        -0.000001544545610962935,
        -0.000001312387034706322,
        -0.000001685356612608441,
        0.000001056700372445197,
        0.000008317263154005855,
        -0.00004381605223649911,
        -0.00015867623512995767,
        -0.000008919111282287293,
        -0.000024347438742163388,
        -0.000012080629535356512,
        0.00000759500586420634,
        -0.000044947832121187136,
        -0.000008904079471800609,
        0.000039840811027504,
        0.00013110286627156714,
        -0.00012206565349272681,
        -0.0028825350166873337,
        0.0009384579266652474,
        0.00013520009662070415,
        -0.0022882910908582975,
        -0.001984715252547082,
        0.002232381684658765,
        0.003267219519402236,
        0.0002829934406357381,
        -0.000010257797388306148,
        -0.0000021289938487556317,
        -6.411259816021523e-7,
        -0.0000021302500721661814,
        -0.000003134150660196597,
        -0.000002995437931922315,
        -0.000003134150660196597,
        -0.000001470304813386101,
        -0.000007588470148376036,
        0.000007882952522879487,
        -0.000015177697197117337,
        0.0007649568578468569,
        0,
        0,
        0,
        0,
        0,
        0,
        0,
        0,
        0
      ],
      [
        -0.025519346780786555,
        0.08127353440241145,
        0.04404361170035013,
        -0.10136198993637621,
        0.062144297210848555,
        -0.062236582618482805,
        0.016031555833722805,
        0.036421881551292744,
        0.02299632508935017,
        0.0003083624525636411,
        0.0004341839313918118,
        0.0006605293960973113,
        0.0002702964661618857,
        -0.00019167898234621363,
        0.0005343704470552288,
        0.0001630522064655332,
        0.00026329585623574575,
        -0.00006591289930170423,
        -0.021277092203834683,
        -0.0930801371859092,
        0.059801330802339216,
        -0.01634693061542733,
        -0.001028799363515758,
        -0.003268051830520224,
        0.00041318447629766486,
        0.029351125101817914,
        0.013024319915223988,
        -0.0593971265740879,
        0.044502003090802135,
        0.0016315675405762383,
        -0.0030742915391965527,
        -0.037654337911858245,
        -0.02435547863561037,
        -0.049132463615552784,
        0.02775550233494012,
        0.057082470886342024,
        0.00004438617002381165,
        -0.000014365659736383392,
        0.000007013544841575202,
        -0.000029868670433363664,
        -0.000024443854663591217,
        0.005191245372963297,
        0.003727514698301007,
        0.000117049765777396,
        0.0016708525322678145,
        0.00006964396293941324,
        -0.00004181888486230915,
        0.0018987739180255547,
        0.0005758741841466498,
        0.0006022254762326594,
        0.0031195493810290058,
        0.005054943100138091,
        -0.05706489830264516,
        -0.09340951853928321,
        0.000001843464661657288,
        -0.08972410380364969,
        0,
        0.03642667937086808,
        0.048323314396637874,
        -0.05094679731349514,
        -0.045760850664491905,
        -0.06675256666850465,
        0.05358371657023793,
        -0.000025451814757966,
        -0.000007469321153594208,
        -0.00003669562968907638,
        -0.000011916207709636206,
        0.011127327714039766,
        -0.013159494632001481,
        -0.06449713116007254,
        0,
        -0.05711650572565707,
        0.00005423464408507487,
        0.0005618139886487016,
        -0.00007395167533075369,
        0.06649004698494336,
        -0.0006428725199514194,
        0.12534250440003583,
        0.02394656078849277,
        0.06408248088766814,
        -0.0096452440280394,
        -0.016232677771827637,
        0.077376118220196,
        0.13149318957419587,
        -0.00001893965517664126,
        -0.0005013406825663243,
        0.000011998364967403043,
        0.00008092176163890966,
        0.0006248401764321854,
        0,
        0,
        0,
        0,
        0.0006022254762326594,
        0.00038313586903320195,
        0.00005008648425127007,
        0.00022068578704244676,
        4.990764813441595e-7,
        -0.000006605005364169856,
        0.00023761623884036153,
        0.000053592099628989816,
        0.0009757117132439496,
        0.0031313058152896197,
        0.0002292849111151857,
        -0.00005061915808898903,
        0.0016167578195649065,
        0.000018203611773234463,
        0.000009284597761795377,
        -0.000002189752185002136,
        1.1170575393216193e-7,
        0.000027933867705919945,
        -0.0003968197399048318,
        0.00009333153281623585,
        -3.064892392658252e-7,
        -0.000002276475173291182,
        0.000006809883150163516,
        0.000003754551687950914,
        0.000049948960965501804,
        0.00007421206671998057,
        -0.00022176316675680865,
        -0.0000012972200457088688,
        -0.000009787450314312675,
        8.195302799749476e-7,
        -0.000007081608909416538,
        0.00004999922900924003,
        -0.0000150109666303727,
        0.0000706286886762969,
        0.00001466046747804505,
        0.000013811766828287255,
        0.00002294120351312887,
        -0.000006164467433344288,
        0.000039043060039607216,
        0.000007424108890654554,
        -0.00007748846670598232,
        -0.00010313580017188303,
        0.00009976715441445748,
        0.004193041196120852,
        -0.0013626513060476146,
        -0.0002486768775750181,
        0.0033183103500891275,
        0.002953725962685331,
        -0.0036288076990492225,
        -0.00525383647063989,
        -0.00024236040372845155,
        0.000016753469046983847,
        5.331567116994605e-7,
        1.172316420759597e-7,
        5.312867883687574e-7,
        0.0000010078821867393896,
        9.807969498998626e-7,
        0.0000010078821867393896,
        3.220752913626812e-7,
        0.0000026025142278548215,
        -0.000017005856028989973,
        0.000032280861967769076,
        -0.0012300881191556828,
        0,
        0,
        0,
        0,
        0,
        0,
        0,
        0,
        0
      ],
      [
        0.5386616074396989,
        -0.29179749742360284,
        -0.27588362587498316,
        0.3533982993655755,
        0.5732357210624531,
        0.08774913720507505,
        -1.8076283313895254,
        2.3023139408154916,
        -0.5959246387600059,
        -0.018576443689879225,
        -0.021744737187572118,
        -0.052398402721144245,
        -0.025447045049891235,
        -0.02303468952689694,
        -0.05453812491299355,
        0.00040965543738161956,
        -0.021093976040885254,
        0.003710394875770479,
        -0.3783552236659703,
        -0.0005842052591102842,
        0.022721150577581492,
        0.13047031400628215,
        0.11031579231491677,
        0.15488752988575813,
        -0.042042284735648826,
        1.0006952842404881,
        0.08397056848014943,
        1.004603121218544,
        -0.11947734875701739,
        -0.02540565198587029,
        -0.1086890116864435,
        -0.2619430943796831,
        0.1561047029064484,
        0.5827002479540228,
        0.5648983931770005,
        -0.08467598618614985,
        0.026931971168972117,
        -0.008892601589352244,
        -0.0013912366686492197,
        0.041477253666494227,
        0.007078479526300612,
        -0.01629898342850045,
        -0.026039465669900643,
        0.007811746827534896,
        -0.0005926881152663523,
        0.0020526977846915518,
        0.001460444730498146,
        -0.00021816558368978486,
        0.006210084273098824,
        0.015566019189185883,
        0.0033222785021900436,
        -0.022562885249192834,
        0.3974771656101813,
        -0.25234090223187156,
        0.003802639560513086,
        0.07164341956286648,
        0,
        -1.492340605613958,
        -1.3619451223777883,
        0.0634182516772826,
        -0.0725640028633773,
        0.13232025347255558,
        0.010836021019802843,
        0.002185754528204837,
        0.001410323373024363,
        0.003515578577230794,
        0.0013565807081727652,
        -0.07979381886567188,
        0.011801763578695728,
        0.3287132235725788,
        0,
        -0.014812683472306725,
        -0.004596321760842734,
        -0.014634376551130578,
        -0.00014101148250086605,
        -0.0009409670037685843,
        0.04856786908360167,
        -0.6851326095477497,
        -0.10839164634644392,
        1.015754378720721,
        0.21419061700237932,
        -0.7546304654914757,
        -1.4681537590929652,
        -0.11177573308721749,
        0.004423227057042852,
        0.022799573445434873,
        0.006846641616075755,
        0.01067594570725185,
        0.0006676775081319425,
        0,
        0,
        0,
        0,
        0.015566019189185883,
        0.01057941316996112,
        0.0004996540572382649,
        0.0068237623360478524,
        0.0005609976988831562,
        -0.000011908973741789183,
        0.005376964797482853,
        0.004008915361700379,
        0.004175174586069701,
        -0.001133634177759491,
        0.0009447925347368166,
        0.0018814027955679586,
        0.004505923647744053,
        0.040211095264060054,
        0.09657586399392872,
        0.009984801758929395,
        -0.0031289653074830334,
        0.06264728877102457,
        -0.005568154740253729,
        -0.04557784908926431,
        0.006925398582403081,
        0.09292104217793595,
        0.0008152742282557435,
        0.034426718726020614,
        0.05034169167394349,
        0.07043701586265744,
        0.1364856933620688,
        0.005244618965550719,
        0.010938076272211803,
        0.005147160161958645,
        0.02791493884769058,
        0.08199390485670793,
        0.07669195764112538,
        0.0694775854768818,
        0.0804677763725811,
        0.09082794910923433,
        0.07351273950431053,
        0.00019370203087182178,
        -0.0021969833604413127,
        -0.0007773274084663522,
        -0.0009449294221000763,
        0.00703507834703245,
        -0.012768304748070107,
        -0.011371690732149713,
        0.003197830210923666,
        0.00012703151048743734,
        -0.009142151809148112,
        -0.009560623195166037,
        0.02261657040361272,
        0.23743229530269255,
        0.032786056319323735,
        0.07636756657791359,
        -0.0012079159869117725,
        0.0010427300875693985,
        -0.0012095053650656468,
        0.011405690432639809,
        0.010142780886803161,
        0.011405690432639809,
        0.006510587054455954,
        0.025015440170654612,
        0.0005576099038196933,
        -0.001351538445176592,
        0.054563609267833484,
        0,
        0,
        0,
        0,
        0,
        0,
        0,
        0,
        0
      ],
      [
        -0.031030192752622532,
        -0.0652686363771754,
        -0.04129290930079162,
        0.09662818175625758,
        -0.008011591902745389,
        -0.06585588101368096,
        0.04651330286701976,
        0.04826275577424044,
        0.05992430343830624,
        -0.00021264429144020254,
        -0.0003129130685280406,
        -0.00043941546967341487,
        -0.00020422688094984818,
        0.00006221389699281489,
        -0.00035542954826624755,
        -0.00011693707242017212,
        -0.00017311505909893546,
        0.00004088517750126771,
        -0.057606426848525565,
        0.04723051616234998,
        -0.08268855459780261,
        0.013271619354857385,
        0.0007193398721778991,
        0.002672895271702188,
        -0.00027793268738257674,
        0.0046112323725835385,
        0.020287373286068375,
        0.06219923810174524,
        0.061895669207308525,
        -0.0013734738682032303,
        0.01287836308762277,
        -0.022480432129915743,
        0.06201800092181435,
        -0.06910062048785792,
        0.051918933471702323,
        0.023808284804165292,
        0.0000034231304826064427,
        0.000022597187846371085,
        0.00001684794767792836,
        0.00007611107309377869,
        0.00004108022293648599,
        -0.003961410707081067,
        -0.0027585429836390605,
        -0.00020132082797250672,
        -0.0013105920222714236,
        -0.00008381749228994698,
        0.000015735761537400893,
        -0.0014507091808971685,
        -0.00047246379614300586,
        -0.0004914363032413389,
        -0.002406633874057125,
        -0.0038254224173728366,
        -0.0740592350460149,
        -0.01872931815153011,
        -0.000047771118655270865,
        0.020966406534879172,
        0,
        -0.01693304700602489,
        -0.04271647155677324,
        0.0864411212540634,
        0.04505523037925102,
        -0.0810051805395052,
        -0.08882456648098365,
        0.000018872286660660322,
        0.000010656605499515867,
        0.00003365043921235831,
        0.000005418537338252121,
        -0.03321454527711148,
        0.02902984783412432,
        -0.02043610008611079,
        0,
        0.09037394835653433,
        -0.0002481543439802858,
        -0.00044633277219600253,
        0.00005253804947355004,
        0.00752775958501454,
        0.06273250890433274,
        -0.05576612834988912,
        -0.07434788950194425,
        -0.04961121920883121,
        0.03349069915130392,
        -0.12840248552236114,
        -0.06693979350484018,
        -0.1799510984768252,
        -0.000009460665033697945,
        0.0002353397152716662,
        -0.00002951480514760397,
        -0.00011610720454799708,
        -0.0005350443075859654,
        0,
        0,
        0,
        0,
        -0.0004914363032413389,
        -0.0003159814228122886,
        -0.00004181787128241327,
        -0.00019093525226855605,
        -1.4846338319221137e-7,
        0.000004366502371905382,
        -0.00019576609792702393,
        -0.00006295640922441335,
        -0.0008310372485993991,
        -0.0024103078195978345,
        -0.00020970076605452664,
        0.000015721899765067094,
        -0.001263558045167698,
        0.000008815821539499281,
        0.0000646337837321625,
        0.00001623446274283304,
        0.000033379793065095914,
        -0.000007505159446701273,
        0.0004601239007235821,
        -0.00003489865724950728,
        0.000023474189153913547,
        0.00010112698183659813,
        0.000014472379264165884,
        0.00007652394512467378,
        0.0000015626564844756662,
        -0.000029535689264941205,
        0.0003649317182910718,
        0.000009879010136161258,
        0.000028785873702561664,
        0.0000019779975155890876,
        0.00007083696605207765,
        -0.00003793028344204937,
        0.00005777997820840486,
        -0.00004430225328155716,
        0.00000992109633099191,
        -0.00002184802566887217,
        0.000045172530471500264,
        0.000010748763576838861,
        -0.000021113663897827473,
        -0.0000060562205404178025,
        0.0000723894877921869,
        0.00006648779045031516,
        -0.00005364910325240251,
        -0.003238138548594644,
        0.0010489266449390372,
        0.00018268407639885416,
        -0.002566373830236345,
        -0.0022722505496232622,
        0.002747656795325574,
        0.003967871332405422,
        0.00022686287246237444,
        2.484073185431645e-7,
        1.6477975522634405e-7,
        5.3825742786857826e-8,
        1.6497401207306522e-7,
        1.4765912699401491e-7,
        7.967014495944598e-8,
        1.4765912699401491e-7,
        2.457736103421841e-7,
        -4.581928180185481e-8,
        0.000011944239071414083,
        -0.000022842425898679916,
        0.0009297529949361658,
        0,
        0,
        0,
        0,
        0,
        0,
        0,
        0,
        0
      ],
      [
        -0.03959244388875955,
        0.0005065447519867005,
        0.00002185267714290353,
        0.2588938531771963,
        0.06312887342466694,
        -0.04621738347263062,
        0.04943160737547641,
        0.022661807806494683,
        0.03220300900347873,
        0.00005374375331675533,
        0.0005653316175894701,
        0.0002780844076936154,
        0.00041453032937280293,
        0.0008107292067678711,
        0.000569427811897828,
        0.000670537443159067,
        -0.00011409559757283236,
        0.00010882013120217784,
        -0.039544463035097746,
        0.11923232652133048,
        -0.04559380088479427,
        0.005844303480101452,
        0.002189935564635136,
        0.0022018288845066904,
        -0.0002126224536651166,
        -0.02373215118609545,
        -0.0036604612570463606,
        0.09717975795149893,
        -0.020620346972992334,
        -0.00020170716509633227,
        -0.0384306455831392,
        -0.03308213045975114,
        -0.020088510956782085,
        -0.015787065863295858,
        -0.019422962911097654,
        -0.03203331262376653,
        -0.000026187851121150628,
        -0.00002608766672694302,
        -0.000014117535294515018,
        0.00007710110884202776,
        0.00004183052164505393,
        -0.004621582853793022,
        -0.0035628367569143626,
        -0.00008788901695951911,
        -0.0019372836553019591,
        0.000028049703326341064,
        0.00010132959310568064,
        -0.0019189395228305752,
        -0.0006472600774848399,
        0.00046646334806768874,
        -0.001628235756407281,
        -0.004822163260160807,
        0.08974944588011041,
        -0.001733537922867153,
        0.000029830405244884356,
        -0.0786987655379869,
        0,
        -0.07631407610039842,
        -0.06805671892468357,
        -0.008120867683686339,
        0.0077250081603464004,
        0.08814858157948986,
        0.04453950366595148,
        0.000060213829309853626,
        0.000006751567187811937,
        0.00008270453417805688,
        0.000024572652795174668,
        -0.00625792419320577,
        -0.01880589633439771,
        0.0770555125842973,
        0,
        0.03087699540910085,
        -0.0004474369948236322,
        0.00010467380481838403,
        0.00012392334136874015,
        0.005834895201196289,
        0.02624003726017623,
        -0.3002274318932352,
        -0.018130340403567483,
        -0.05397948462398805,
        -0.1743049317051661,
        -0.1733967553896598,
        -0.1345768869414993,
        -0.13486359875252527,
        0.0002303350040913866,
        0.001586242431557649,
        0.0003018832620609117,
        0.0005345085693084496,
        0.000041143918140069346,
        0,
        0,
        0,
        0,
        0.00046646334806768874,
        0.00033889778024935,
        0.000024927906252099254,
        0.00012275918962839148,
        0.0000163440647899892,
        -5.430459811201296e-8,
        0.00019868553818985673,
        0.00021393168263134983,
        -0.0010913200915182325,
        -0.0028350833551703527,
        -0.00014818105545100736,
        0.00015370321353566508,
        -0.0013497590640237241,
        0.000013303589716753716,
        0.0000491312835544525,
        0.000006527683799954061,
        -0.0000031445945875956157,
        -0.000032699552047154314,
        0.0007537616348393274,
        -0.00021496583276514166,
        0.00006932555865242322,
        0.00011906384003916688,
        0.000010041511503618369,
        0.00009985120364977306,
        -0.00004832961232866099,
        -0.00013774555787678455,
        0.0005564422037098932,
        0.000009453769423295331,
        0.000020282555444674616,
        0.0000019595116335688074,
        0.00006694792614106748,
        -0.000020270847414293495,
        0.000026504827061527133,
        -0.00008818940403991207,
        0.0000028079905512533698,
        -0.0000301056808123033,
        0.000039367965497831395,
        -0.00001888232913718127,
        -0.00009077757535474155,
        -0.000024883941838131505,
        0.000017604561720711808,
        0.00022213852139171318,
        -0.00021297655021290597,
        -0.0031475184727838283,
        0.0010325313229019055,
        0.00011219426331990123,
        -0.0025071050032385083,
        -0.002120340600397987,
        0.002118872310521653,
        0.0034073280424445217,
        0.000443455009450528,
        0.000003520773517111089,
        6.275335823929266e-7,
        1.4428308216427212e-7,
        6.267843904689906e-7,
        6.973563355379336e-7,
        5.932992380671863e-7,
        6.973563355379336e-7,
        4.682827815392514e-7,
        0.0000014746824689077758,
        0.000004856114020994282,
        -0.000009295363542734216,
        0.0007974855959343766,
        0,
        0,
        0,
        0,
        0,
        0,
        0,
        0,
        0
      ],
      [
        0.02940977244414036,
        0.04433443760350271,
        0.04926928098664083,
        0.14198888589472047,
        -0.018070015616850874,
        -0.04332130968820079,
        0.08608226998462024,
        -0.018744466405642368,
        -0.010367797781902433,
        -0.00015416434933873712,
        -0.00019718278039952076,
        -0.00030739588115446945,
        -0.00015209470502093554,
        0.0001983904677109594,
        -0.00024265362255524792,
        -0.00003179245820932174,
        -0.00017514910918418647,
        0.00004811940448981624,
        0.039806385514916984,
        -0.0026510074926391534,
        -0.07685551892702971,
        0.013141430149744482,
        0.0006152166256522434,
        0.0014132233703977766,
        -0.0001754422297531297,
        0.01749831128147447,
        0.07291613208095475,
        -0.013072666243111576,
        0.004498896118078177,
        -0.0006556130156585072,
        0.012657785523353756,
        -0.047167114089312,
        0.06909612394006065,
        0.03069429337922933,
        -0.057110467303969716,
        -0.054083499075677395,
        0.000015938904708556615,
        0.000002986429416706409,
        0.000005115074022946343,
        0.000047437563570972137,
        0.00002443514199503523,
        -0.002534484969559495,
        -0.0018161688179191182,
        -0.000015889105001435467,
        -0.0009301679544218197,
        0.000013376516514183817,
        0.000023771352555484698,
        -0.0011031608741532124,
        -0.00040564218838983943,
        -0.00021155986162675066,
        -0.0013923165015018338,
        -0.0025357078763172986,
        0.06357010477789674,
        0.02369115185635892,
        0.000035890161184209626,
        -0.03681278704578766,
        0,
        -0.08813948280114481,
        -0.0944812662596359,
        -0.06283680795584276,
        -0.006389585165992919,
        -0.07175934994644047,
        -0.09228272327749529,
        0.00002726313934205432,
        0.000006388003723146697,
        0.000032765352285761674,
        0.000014947801550744636,
        -0.011416024674493926,
        0.012091887164003164,
        -0.0009083438316935166,
        0,
        -0.030542025286678997,
        -0.00008146677336456683,
        -0.00015440684596139547,
        0.00007637358939465049,
        0.07824227576816409,
        0.027920666425746168,
        -0.05168002681524264,
        -0.04211657481174658,
        -0.005784611881981165,
        -0.10187775665867846,
        -0.05254717484149743,
        -0.0166306697201015,
        0.012533550257012818,
        0.00003467630013168992,
        0.00047954192248303174,
        0.00002227040975719951,
        0.00007053192887065648,
        -0.00017221505698046175,
        0,
        0,
        0,
        0,
        -0.00021155986162675066,
        -0.00012730836412845514,
        3.7280049026098904e-7,
        -0.00009937588528813654,
        -0.000005839849478439637,
        0.000003158926446442302,
        -0.00003800992753363016,
        0.000029104116707335915,
        -0.00046062232781616234,
        -0.0015767737307183843,
        -0.00006967674750040743,
        0.000046068873619811095,
        -0.0008421110833150947,
        0.000012413410697664231,
        0.00003440981354482363,
        0.000005454716245414332,
        0.000005235069926037698,
        -0.000007796675105421264,
        0.00024493602200118013,
        -0.00011097624474512677,
        0.00003124787171579915,
        0.000030764242105349175,
        -3.670311274226843e-7,
        0.000023988052671238635,
        0.000004142398446901165,
        -0.000013425411572583495,
        0.00017042979451708625,
        0.000004039133704664545,
        0.000005820826768051413,
        0.000001998061256301539,
        0.000021156468853261752,
        -0.0000017983230508569633,
        -0.0000019643752906524095,
        -0.000026029536597565827,
        -0.0000070036162911418484,
        -0.000006090232184112903,
        0.000002521494996153782,
        -0.0000014931719460910798,
        -0.000032658618913970284,
        -0.000010927749550213481,
        0.000026923089347912972,
        0.0000843145956952279,
        -0.00008747103907934958,
        -0.0019138834824687344,
        0.0006230568769545895,
        0.00011511944112599373,
        -0.0015145431948716554,
        -0.001349451648253009,
        0.0016733081402922065,
        0.0024275084694994876,
        0.00010448444522155464,
        -0.0000035323713821039254,
        -3.253152347852255e-7,
        -1.2246574332668917e-7,
        -3.252355245534192e-7,
        -6.152378748967932e-7,
        -5.629290976619261e-7,
        -6.152378748967932e-7,
        -3.2580259269348885e-7,
        -0.0000014450543938680053,
        0.000007968817040673242,
        -0.00001510465982180622,
        0.0005677321304523144,
        0,
        0,
        0,
        0,
        0,
        0,
        0,
        0,
        0
      ],
      [
        0.004258684979199706,
        0.010334448146582145,
        0.026531823310420675,
        0.017176207913791593,
        0.06304146457549625,
        0.05674765213019478,
        -0.09898217172222114,
        -0.05578874293442414,
        -0.03303174370104372,
        0.0003162907041973669,
        0.0006866642858478678,
        0.0007558175152465303,
        0.0004412591977063603,
        0.00005826198179075427,
        0.000720507156676893,
        0.00041679258607377136,
        0.00024825418137383115,
        -0.00002792241796879731,
        -0.030667104599079762,
        0.052743090198787534,
        0.0729821885540587,
        -0.005541701990226648,
        -0.0001303576035717073,
        -0.00189633736519673,
        0.00033057500289877204,
        0.03551957650207469,
        -0.043211469272230095,
        0.014591747390051727,
        -0.031511375295905794,
        0.001672719719561609,
        0.05124871352174691,
        0.036713495611255975,
        -0.025248366821374248,
        0.03726200048138055,
        -0.03213008245777958,
        -0.03837915622620683,
        -0.00010946722923266425,
        -0.000018024639127645304,
        -0.000009890332915231244,
        -0.00002824308278712142,
        -6.887952987761969e-7,
        0.0027042584908513905,
        0.0019644406869253343,
        -0.00008535524506452648,
        0.0005851761899186268,
        0.000020401405407942463,
        -0.000006590053083140041,
        0.0008521005751799479,
        0.00025355753954559794,
        0.0007089616401419317,
        0.0021070017743806853,
        0.0025349931472780324,
        0.013539918907545826,
        0.08842589231699999,
        -0.0000164004174544092,
        -0.008562902299349317,
        0,
        -0.01773150515509302,
        0.03819910657670959,
        0.06369001741441646,
        0.03125767601831542,
        0.014092532560813144,
        0.03030857392935459,
        -0.00000912619077699205,
        -0.0000028185002975045897,
        -0.00002200060358225913,
        -0.00000668993185400014,
        -0.06201516127925237,
        0.058492585355337884,
        0.06724409958837219,
        0,
        0.040110478272771956,
        -0.00009374792067757154,
        0.0006226644335860257,
        -0.00003552594417862354,
        -0.009533596797420113,
        0.036327396319906544,
        0.028286513691675803,
        -0.07813244622630912,
        0.0060413734474376755,
        -0.07547068337619339,
        -0.0693348659924473,
        0.05320895297145778,
        -0.09970349628160789,
        0.0000778151199644587,
        0.00005250176470941091,
        0.00013975887297318232,
        0.0002946069438967174,
        0.0006377290130149283,
        0,
        0,
        0,
        0,
        0.0007089616401419317,
        0.0004671978966350163,
        0.000041570653330033957,
        0.00022854720873697438,
        0.000005639103032946457,
        -0.000007485401476526684,
        0.00027682377358029,
        0.00011244015981767784,
        0.0002344911011111665,
        0.00151634147447033,
        0.00008041639439717666,
        -0.000010771914098995045,
        0.0008703266843544234,
        -0.00005599041125019614,
        -0.00009300711953402698,
        -0.000004651066987714977,
        -0.000014786014895571688,
        -0.000025481204779955138,
        0.00025795577637573175,
        -0.000023862230514230164,
        -0.000057426087392518774,
        -0.0001383531301059118,
        -0.000016018135750846448,
        -0.00006826176649944938,
        -0.00010564202976153287,
        -0.00012776919827891316,
        0.000037494118028421425,
        -0.000015239567433117699,
        -0.00001978893565793289,
        -0.00000668280538778675,
        -0.00008314766745359585,
        0.000017056691342155057,
        -0.000014203740034399137,
        -0.00005249525585889255,
        0.000008058275617537653,
        0.000046133710183653036,
        -0.00004688748878221928,
        -0.00001503912897968005,
        0.000009331187343756173,
        -0.000001475606695781225,
        -0.00007275014835619868,
        -0.00003222652701548327,
        0.000032827041824504,
        0.002530517682088922,
        -0.0008198638754817427,
        -0.00019993808201640144,
        0.0019900945902703742,
        0.0018469361895011977,
        -0.002619959624008817,
        -0.00359850345171047,
        0.00003094017651389342,
        0.0000016983147330316128,
        1.5084762154017398e-7,
        -2.7360059041389207e-8,
        1.5159087833474854e-7,
        -4.7246604214381845e-7,
        -3.9777845106231584e-7,
        -4.7246604214381845e-7,
        -3.2379447670977676e-7,
        -0.0000013271601333972444,
        -0.00001585202439859158,
        0.000030209372593190735,
        -0.0008414547082248051,
        0,
        0,
        0,
        0,
        0,
        0,
        0,
        0,
        0
      ],
      [
        0.048909948857508066,
        0.00618984935484713,
        0.010000202281456445,
        0.009680325306013574,
        -0.009445193314933046,
        0.007644464191443562,
        0.018275262959547605,
        0.002902353803703185,
        -0.02227228791282511,
        -0.00012289324133600137,
        -0.0003905518324539257,
        -0.0003099967324686312,
        -0.00025994360190363306,
        -0.0002903455615145834,
        -0.00039528391206805223,
        -0.000310504493188151,
        -0.000015372531763394716,
        -0.00002480868662812265,
        0.03884095065788571,
        -0.022328591812873513,
        0.04874414147252616,
        0.0019171719594111697,
        -0.0006337924959178226,
        0.00006718611117209803,
        -0.000010061693508783768,
        -0.012192681312178119,
        0.000804428708600509,
        -0.05223937984581945,
        -0.07056071394302628,
        -0.00032849656364780606,
        -0.05972876558430844,
        0.025809206269634878,
        -0.007275120482211688,
        0.008956065264055723,
        -0.03151761570815734,
        -0.018745908794649012,
        -0.000026977976243693696,
        0.000022129102915625445,
        -0.000006144770045034997,
        -0.000030772534161115184,
        -0.000005902861694177428,
        0.0002461756132872092,
        0.00034417411781447415,
        -0.00006305884146020612,
        0.00024482744272545263,
        -0.00005136956509222474,
        -0.00003546039528516928,
        0.00017332445624378544,
        0.00009668931954075176,
        -0.00042758890435977203,
        -0.0003518322627468288,
        0.00037165239148364583,
        0.07889008811203996,
        -0.07277863678989245,
        0.000036466881843650124,
        0.05398942493219874,
        0,
        -0.06065186860386421,
        0.07565788883270971,
        0.06178411116894252,
        -0.07787067976223302,
        0.028568675770404013,
        0.01659566471041946,
        -0.000017643738398229903,
        -0.000004448727236978153,
        -0.00003617544053759359,
        -0.000007405498605219953,
        -0.04679320738096605,
        0.052417145514011186,
        -0.053211188879219266,
        0,
        -0.018111202296472152,
        0.00023134652631993222,
        -0.00019188495010364446,
        -0.000025089026872391285,
        0.04170136179565375,
        0.05467977649327199,
        0.15508134971711104,
        -0.038303934835454266,
        -0.025118942809391403,
        0.052744924297924545,
        0.050984670457887196,
        0.12169818886855102,
        0.02650051283056398,
        -0.0000915209840598183,
        -0.0005488254232361563,
        -0.00011611076977755451,
        -0.0002558376164563015,
        -0.00011801482802500143,
        0,
        0,
        0,
        0,
        -0.00042758890435977203,
        -0.000283798555798251,
        -0.000026955731984080156,
        -0.0001631959317117192,
        -0.000010718885863241963,
        0.0000018320454640552341,
        -0.00016147573436565063,
        -0.00010414275541584863,
        0.00007326373929287668,
        0.00012573256967858204,
        -0.00003206657876801592,
        -0.000054226335350114654,
        0.00004512242714167259,
        0.000028009616502840273,
        0.000024123091259693303,
        -0.000010120343990967572,
        -0.000023721537624015025,
        0.000015443166642647473,
        -0.000298159034989333,
        -0.00010288286229904774,
        0.0000181770740855427,
        0.000043413441892542854,
        0.000005326162201013397,
        -0.000007672035522446486,
        0.000022303533555506783,
        0.000050007277369645756,
        -0.00014042544841727584,
        0.000004488724178594365,
        -0.000005697381581800244,
        0.000003652847440647512,
        0.000011571419192111027,
        0.000011165213326461595,
        -0.00002068813135716536,
        0.00003179690318285727,
        -0.000009771807224109486,
        -0.000009244176901321355,
        -3.0196955683036453e-7,
        0.00000122569332607479,
        0.000018946262948124267,
        0.000006008320945571756,
        0.000005062272284232582,
        -0.000051696907829221046,
        0.000044298731479317223,
        -0.0000028396923355605536,
        -0.000003026565728546999,
        0.000027958290896317186,
        0.0000034289371120857268,
        -0.00003771435810270978,
        0.00023191244698053432,
        0.0002075451830493064,
        -0.00009477160982660232,
        -0.0000011901423121925833,
        -2.910057426771561e-7,
        -1.849246421564415e-8,
        -2.910111088924611e-7,
        -2.939596469277684e-8,
        -2.713618533296352e-8,
        -2.939596469277684e-8,
        -2.8899883331076204e-8,
        -6.741108726674169e-8,
        0.0000029207120994103487,
        -0.000005520124017782591,
        0.000048613942665318576,
        0,
        0,
        0,
        0,
        0,
        0,
        0,
        0,
        0
      ],
      [
        0.003522447373725056,
        -0.05254384460478799,
        -0.14922891948473477,
        0.27857781955052124,
        -0.046249009632579614,
        -0.05329592038681517,
        0.02091107901232589,
        0.03127395983913397,
        0.013505152845859866,
        -0.00043075221815788153,
        -0.0006995992771253812,
        -0.0010181028956545157,
        -0.0005051297376232771,
        0.00031621711498796494,
        -0.0007195672208411312,
        -0.0002730627948000058,
        -0.0004624026115098853,
        0.00011128724253731538,
        -0.19202863608747045,
        0.09685652737408366,
        -0.010534611226042368,
        0.02413180410961243,
        0.0017506705229035047,
        0.0053362551004142176,
        -0.0006550252108474552,
        0.11095704044261705,
        -0.0027358927978747595,
        0.060850072932059865,
        0.07701949114812462,
        -0.0025299409031520298,
        0.06391020550371547,
        0.05595895909768158,
        0.006251195338634495,
        -0.061662148170956076,
        0.06513338461293393,
        0.0345546074696832,
        -0.0002443578304264215,
        0.000028734551249845328,
        0.00002963911770518333,
        0.00002040550927253032,
        0.00006617217265057553,
        -0.008537775614382938,
        -0.0060164390784467866,
        -0.00022308721123057542,
        -0.0029640241276361577,
        -0.0000779830298999421,
        0.00005925501677396961,
        -0.0034001233300950443,
        -0.0011820187725249932,
        -0.0009175325480257487,
        -0.0049537398630168745,
        -0.00834865257378323,
        -0.028752280857173566,
        0.06937522578476989,
        -0.00003764451298050111,
        -0.024418966257148362,
        0,
        -0.1113372630065999,
        -0.07108471258628452,
        0.0660485655307112,
        0.06807235459949694,
        -0.04780971059964605,
        0.04964799345935127,
        0.00005219467867261647,
        0.000018728982510963078,
        0.00008661591081631738,
        0.000024827948911453653,
        0.011215136442442432,
        -0.03214781342237121,
        0.10806691452573296,
        0,
        0.062412909044056684,
        -0.0004105012138065526,
        -0.0007414125668442059,
        0.00014384721657079272,
        -0.004086635381375974,
        0.005337005057702561,
        -0.2696588396579785,
        -0.2151008081717864,
        -0.121426812711485,
        -0.11170091735214127,
        -0.28157412534599935,
        -0.1421111048651882,
        -0.2283101880543077,
        0.00003170059336756012,
        0.0009169838192299434,
        -0.000037621706837472773,
        -0.000057081514116934244,
        -0.0009272063054662484,
        0,
        0,
        0,
        0,
        -0.0009175325480257487,
        -0.0005863220998018158,
        -0.00006412514122805014,
        -0.00035309947863818394,
        -0.000007022857681640514,
        0.000009840482810299757,
        -0.0003310330609183078,
        -0.00006078243657458944,
        -0.001648624849110376,
        -0.005239387802008892,
        -0.0003526922423430873,
        0.00007473260153857023,
        -0.00277714989632112,
        -0.000037319000862852324,
        -0.0000353450032424425,
        0.000015941028505793245,
        0.0000634679119723599,
        -0.0001042850005891631,
        0.0013364934538248267,
        -0.0007647136104512968,
        0.00010636853106088976,
        0.000031843882570770766,
        -0.000005970026772181445,
        0.000055033634457784575,
        -0.00019849598480669545,
        -0.00031852437911561085,
        0.0007247170157368604,
        -0.00000139576651923673,
        -0.000005973124553652649,
        -0.0000017899137901089086,
        -0.000014983053354597643,
        -0.00009484589616419672,
        0.000027381549401145252,
        -0.00021210643062006558,
        -0.000053992031406116044,
        -0.000033509930146798004,
        -0.000036783951334272376,
        0.00001577552363523127,
        -0.000060956825995364436,
        -0.000015292356698849286,
        0.00012359548488567214,
        0.00017709420882998868,
        -0.00016425579532017517,
        -0.0066095261968134415,
        0.002146475522420396,
        0.00038520654374965156,
        -0.00523333465740877,
        -0.00464505691536942,
        0.0056712897044845076,
        0.008051386641558207,
        0.0004377656349329334,
        -0.000004232010567488232,
        -0.000004343733443350196,
        -0.000001181871023742275,
        -0.000004332904351597091,
        -0.000007337607216386428,
        -0.000007489727576319335,
        -0.000007337607216386428,
        -0.000002026039173684613,
        -0.000019304278664342425,
        0.00002567790653320307,
        -0.000048889255002225714,
        0.0018857888326243076,
        0,
        0,
        0,
        0,
        0,
        0,
        0,
        0,
        0
      ],
      [
        -0.018370069031217413,
        -0.144103831003765,
        -0.08702512720940522,
        0.11056438701284871,
        0.00904975943839032,
        0.07086421753470534,
        0.0028535007566401036,
        0.06465225657748495,
        0.07146863668972085,
        -0.00015382949112782593,
        -0.000003768189907078131,
        -0.00035260595586065466,
        -0.000008339016606301784,
        0.0005315104138263164,
        -0.00010449172529854315,
        0.0001478181281785353,
        -0.000269643553577918,
        0.00009692679553664688,
        -0.07760106164639768,
        0.021587391801932535,
        -0.0565680506205805,
        0.022918471657006525,
        0.0018295994683704083,
        0.0032986978001677903,
        -0.00037593188642731916,
        0.00530212647284946,
        0.013526237842277853,
        0.0599772945938027,
        0.07526849244282353,
        -0.0012302733617911394,
        -0.07923900643626278,
        -0.04886073097757845,
        0.018326282860765264,
        -0.08216169919400176,
        0.03187135834651402,
        0.04652244775523016,
        -0.000018627389426119857,
        0.000005484902604599779,
        0.000012403927284933895,
        0.00006280798625742993,
        0.00003447081600249904,
        -0.00590243106044404,
        -0.00438183926756475,
        -0.00007354977594446177,
        -0.0021501404565256324,
        -0.000010809454932734761,
        0.00008735491519606335,
        -0.002344930675845159,
        -0.000792218897285569,
        -0.00017340321360253573,
        -0.002954001322934031,
        -0.005891531555761592,
        -0.0174434238785054,
        -0.054884942155615964,
        -0.000018415666776390072,
        -0.05036657505683176,
        0,
        0.015304357135249377,
        0.024078167990361464,
        -0.028045624602027364,
        -0.05520927167771361,
        -0.014756117598108548,
        -0.06960544522753537,
        0.000043375498181132845,
        0.000009159240184653218,
        0.00008181814322773282,
        0.000023943896850693128,
        -0.031316527206865716,
        0.02326715631064851,
        -0.0237922097710662,
        0,
        0.09379580694159488,
        -0.0002678134742599684,
        -0.00032076436827676306,
        0.00011402370375860519,
        0.013202922226938113,
        -0.03914309017542726,
        -0.22387313591354788,
        -0.016575987530444834,
        -0.04901496228256691,
        -0.0654061018275877,
        -0.10438967820574602,
        -0.031364314505727776,
        -0.09382082347646821,
        0.00013170618789730835,
        0.001181015519891179,
        0.00013940256703488918,
        0.00022612736353466194,
        -0.00041831690047311633,
        0,
        0,
        0,
        0,
        -0.00017340321360253573,
        -0.00010203232747145836,
        -0.000023301382435285194,
        -0.000052125022349479885,
        0.0000074320455867787334,
        0.0000045008884457407675,
        -0.00006760345601472524,
        0.00005682754573005191,
        -0.001169457864961069,
        -0.003574238165903263,
        -0.00021074590687137818,
        0.00011474586948499912,
        -0.0018314813367998745,
        0.000027014774889280098,
        0.00007180111453129639,
        0.000017076875276842464,
        0.000031032526512771,
        0.0000012625170475647472,
        0.0004593880487212829,
        -0.0001362921676303991,
        0.00006209089406669414,
        0.00009801975262542517,
        0.000010348206116306521,
        0.00007871432224564716,
        -0.000014827138011841752,
        -0.000022728013411864914,
        0.00031069724546146287,
        0.000007908937950049051,
        0.000016212084673936923,
        0.00000327272709130775,
        0.000050041540869152814,
        0.00001828519279385052,
        0.0000025964792854142188,
        -0.00003980729125302666,
        0.000006082666919185146,
        -0.0000032680510281998484,
        0.00002616220003308576,
        0.000006685514057895136,
        -0.00006002229581062585,
        -0.00001320130778555735,
        0.0000685816546944412,
        0.00016206030154915062,
        -0.00015109287363563966,
        -0.004518016246581629,
        0.001470455318777782,
        0.00023050604752418392,
        -0.003584375584552265,
        -0.00313604439370429,
        0.003626889954401784,
        0.005361123021552819,
        0.00039962378637465267,
        0.0000028497672356879488,
        -3.7202808720402453e-7,
        -1.061168694917596e-7,
        -3.712099847439435e-7,
        -8.601335137824364e-7,
        -0.0000010067688170580407,
        -8.601335137824364e-7,
        7.331877241828725e-8,
        -0.0000020292145281983588,
        0.000014243418010491192,
        -0.000027100524577956826,
        0.0012554964857078832,
        0,
        0,
        0,
        0,
        0,
        0,
        0,
        0,
        0
      ],
      [
        -0.06251328581306693,
        -0.0038940698084442274,
        0.060216474040388386,
        0.03374124175029532,
        0.05499086629458183,
        -0.005864136103630457,
        0.020975839620042624,
        0.01616302444799363,
        -0.02048033551842789,
        0.0002912397860900401,
        0.0004697995745085235,
        0.0006123064901678476,
        0.0003356775645557395,
        -0.000008862018883666357,
        0.0005671033519916837,
        0.0002334542663358555,
        0.00019087764100757238,
        -0.00003905376498547702,
        0.032183105042502574,
        -0.07739532971440445,
        0.024121985685493414,
        0.013262297834913185,
        -0.0007015399123379319,
        -0.002374534104506787,
        0.000351723162181063,
        0.017576743032253834,
        0.06724653979390989,
        -0.018777958247163787,
        0.0006378094915099876,
        0.0013406787470320032,
        0.002797726960864089,
        0.04278517331264618,
        0.05180567797000992,
        0.031994653837914576,
        -0.04321149107209748,
        -0.042845220705533885,
        -0.00005036971482961618,
        0.000003786505422044023,
        5.110175894501722e-7,
        -0.000045161547951346145,
        -0.000005265647896959079,
        0.003753137009913027,
        0.0025380134679007854,
        0.00018369015708334674,
        0.001218897844960655,
        0.0000724831631494097,
        -1.912775852121632e-7,
        0.001474706952600435,
        0.00047329493753260333,
        0.0006162568739807776,
        0.0024319017801497536,
        0.0036186815852226246,
        -0.04843802139597679,
        -0.02017852677178087,
        0.00003519686676400831,
        0.09116749725776845,
        0,
        0.01868779579661631,
        -0.009878401927254117,
        0.044982960182454124,
        0.024194408064669885,
        0.0654513480336423,
        -0.02879372226670853,
        -0.000022364834642488835,
        -0.000007306139122777141,
        -0.000009739106587040529,
        -0.000006802195512641597,
        -0.0034767924715343058,
        0.0135705173983148,
        0.02070166971597631,
        0,
        -0.01951559587592971,
        -0.000007785651771034818,
        0.0004713094234107807,
        -0.000043532574554614344,
        -0.03878602495518839,
        -0.01853030488667029,
        0.07303237427093458,
        -0.08076427566112535,
        0.04659293165289397,
        0.07891022180105063,
        -0.05768206306649058,
        0.027186065802673017,
        0.019069559216336494,
        0.0000606783265421485,
        -0.00004148350160472807,
        0.00012685847175718685,
        0.00023566147177944607,
        0.0005583409722806135,
        0,
        0,
        0,
        0,
        0.0006162568739807776,
        0.00039081221100453826,
        0.00003874619959814274,
        0.0002606140315434399,
        0.000009637969399862884,
        -0.000005019275857751168,
        0.00021956931804573935,
        0.00006850519709814371,
        0.0007613191210072134,
        0.002325741612191438,
        0.00019225303042567292,
        -5.196145295853687e-7,
        0.001241148083631376,
        0.0000031274514443901037,
        -0.000004475305369905271,
        -0.0000010152175798483987,
        -0.000001305380599115386,
        3.8728453955492915e-7,
        -0.00015433032058556812,
        -0.00009989516188052012,
        0.0000638901551618347,
        -4.923497121015801e-7,
        5.199392443435904e-7,
        -0.00001331913756817051,
        -0.000004216718789205625,
        0.0000010111699358700914,
        -0.00011441627164649342,
        0.0000016499510506261432,
        -0.0000032693862648420585,
        0.000002939858111502835,
        -0.000009586663808539758,
        4.065533287385281e-7,
        -0.00002815465668934223,
        0.0000031112531824126075,
        -0.000019366423540165576,
        -0.000010292485859228454,
        -0.000018910252293156693,
        -0.0000010465290804735207,
        0.00002873598377961639,
        0.000005173829231861022,
        -0.00006199408670647315,
        -0.00007052053598623845,
        0.00007093063114575374,
        0.003092253826599598,
        -0.0010067724777873556,
        -0.00018349366809562595,
        0.0024456200860111014,
        0.002178415839755378,
        -0.002706551062168426,
        -0.003936312704389863,
        -0.0001772096881582233,
        -0.000008805394107068879,
        5.4857868657619147e-8,
        -5.757423032354635e-9,
        5.374181825540188e-8,
        -7.646856916368842e-9,
        -9.581609718843488e-10,
        -7.646856916368842e-9,
        -1.9857931986444687e-8,
        1.324079755600724e-7,
        -0.000012734382593404505,
        0.000024210453816746576,
        -0.0009207692367691853,
        0,
        0,
        0,
        0,
        0,
        0,
        0,
        0,
        0
      ],
      [
        0.01611242367660597,
        0.10282847486638295,
        0.13877240410143507,
        -0.12908194939765696,
        -0.011666523579177303,
        0.09098653644406102,
        0.016345274846632712,
        0.0008363594836402726,
        0.050802824806498004,
        0.0002730048949802903,
        0.00022708324365202628,
        0.0007450904149821612,
        0.0002696980130238574,
        -0.0005381377220259132,
        0.000480839102002482,
        0.00017360909043443858,
        0.00042226137652110184,
        -0.00010231404996085203,
        0.06297345592370755,
        -0.06291731958464623,
        -0.06966484041541941,
        -0.04255974714334703,
        -0.0017896092345402095,
        -0.004630583953144643,
        0.0005640946726675895,
        -0.07429480924111616,
        -0.03410686937726669,
        -0.044686377811541084,
        -0.07269779710732012,
        0.0021577960452420645,
        -0.07106042465026781,
        0.07587259427429983,
        0.024015711920906496,
        0.04094902659373818,
        -0.05754589427650048,
        0.06088355451540364,
        0.00006062659364043384,
        0.000003471413110693316,
        -0.000039931477464904224,
        -0.00009582786776169033,
        -0.000045765445241093,
        0.007203746313361388,
        0.005360251488138478,
        -0.00004597302547973115,
        0.002414075599673613,
        0.000010778320296428703,
        -0.00009142133755850749,
        0.0027599441297911508,
        0.0009452930779433857,
        0.000536099992342061,
        0.004019446733105567,
        0.007071434737643856,
        0.015505881469462184,
        0.027681261408458335,
        -0.0000035439123611044696,
        -0.044854720701823426,
        0,
        0.06060141737488233,
        0.07196707406908852,
        -0.03421193660478679,
        -0.03735765014531885,
        0.012891005441212001,
        0.07592181030037394,
        -0.00003906844951233433,
        -0.00001957666646898781,
        -0.00009204548266493732,
        -0.000025782937911138665,
        0.028870395975998935,
        -0.02367849774410264,
        0.044717654201358266,
        0,
        -0.1263196916671994,
        0.0004976722934270612,
        0.0006803159366954315,
        -0.00014042786600258037,
        -0.0012650147762282619,
        -0.09391189000035255,
        0.3383382150295959,
        0.03579743793816966,
        -0.027291265500243665,
        0.13971301337834868,
        0.10582500037777735,
        0.24114319585730418,
        0.2884520794685543,
        -0.00008661895369510211,
        -0.0011594914643594993,
        -0.00007754014017852082,
        -0.00004661931997048735,
        0.0009031440472076402,
        0,
        0,
        0,
        0,
        0.000536099992342061,
        0.0003536907000334848,
        0.00004852889572356305,
        0.00011899268201458584,
        -0.000008080308055531866,
        -0.000008808252008745241,
        0.00022630365225018202,
        0.000024029378205743934,
        0.0011809903850462915,
        0.004260987951579389,
        0.0002344398230097598,
        -0.0001146758393034667,
        0.0022761689483786797,
        -0.000015708931549813307,
        -0.00007647870453000325,
        -0.00002232565787753225,
        -0.00006221375287626212,
        0.00008119199007176961,
        -0.0010757483125111193,
        0.0003371175192685712,
        -0.00012363358669558692,
        -0.00017127214377635585,
        -0.000021497933754183127,
        -0.00015448960165344303,
        0.00005123217189562374,
        0.00017663457189946423,
        -0.0007506137617409984,
        -0.000019441530900144402,
        -0.00005037597616903293,
        -0.000007239293583407558,
        -0.0001505094253128417,
        0.00018374646751047463,
        -0.00012432957526776244,
        0.00017546769250471924,
        0.000028777873853100997,
        0.00009687847627281055,
        -0.00004058338269928554,
        -0.000022621501573451053,
        0.00004244710968755191,
        0.00001053459685766166,
        -0.00013377748617454953,
        -0.0001413367597933982,
        0.00012146036154458162,
        0.005726196180426311,
        -0.0018578434073364045,
        -0.000338237123786994,
        0.0045330195701421125,
        0.004035597668288271,
        -0.004974805651973597,
        -0.007032608507023219,
        -0.00031196812320691904,
        0.00004712540823312987,
        0.000001090812862080005,
        4.661749865479929e-7,
        0.000001090077394896709,
        0.00000690113990538229,
        0.000006203471096640533,
        0.00000690113990538229,
        0.0000039814667193708895,
        0.000017510017816578748,
        -0.000022747899997450695,
        0.00004364199857090745,
        -0.0016457163353950774,
        0,
        0,
        0,
        0,
        0,
        0,
        0,
        0,
        0
      ],
      [
        0.004544652153399831,
        -0.006026012487857262,
        0.01744368399590517,
        -0.012659755632724954,
        -0.01182717197681174,
        -0.03569429806774881,
        0.03323070916624332,
        -0.012760293886817153,
        0.026710712027400982,
        -0.0002484033014209556,
        -0.00045928446022612643,
        -0.00045967730085118297,
        -0.0002564232882289373,
        0.000005536745311391044,
        -0.00039116807577419644,
        -0.0001207273651906359,
        -0.0001549329462709299,
        0.000033698597939638776,
        0.06087671543212465,
        0.03663528343534589,
        0.055674866515765226,
        -0.012463415188811989,
        0.0003232173159033111,
        0.0016499374530600439,
        -0.00027485880266816333,
        -0.006561740701602686,
        -0.000071192575586087,
        0.023588315073779342,
        -0.05312519291598696,
        -0.0012531021112744704,
        -0.0017601330834888045,
        -0.08186225251220783,
        -0.05748230548730574,
        0.03769664342218002,
        -0.023686613934882646,
        0.01563693204741743,
        0.00006017094814189229,
        -0.000011197101811185284,
        -0.00001194406978627056,
        -0.000015110680926428376,
        -0.000011169261777093725,
        -0.0025989420826521012,
        -0.0017983609198221786,
        -0.00012174703300529888,
        -0.0007532100936102094,
        -0.000056567112449487854,
        -0.000003234163031317851,
        -0.0008367808347578388,
        -0.00025189810015431347,
        -0.0004498543889547322,
        -0.0017189272529018803,
        -0.0025227017480666082,
        -0.04935069313006981,
        0.047756367162496545,
        0.000020002552081375644,
        -0.01635751400247222,
        0,
        -0.04871573546407638,
        -0.029748524720467198,
        0.066288863048233,
        -0.00036854501744697335,
        -0.07019300718895505,
        -0.06143881374015349,
        0.000023007009325232073,
        0.00000414389200502587,
        0.000019453777322053386,
        0.0000025466616565117163,
        0.04721845468174547,
        -0.05794065615875722,
        0.049651023489258546,
        0,
        -0.03681532954672666,
        -0.00007217417594292028,
        -0.000411441579640024,
        0.000038508523707483316,
        -0.037929237586204326,
        0.06093582008493481,
        -0.0693977374697203,
        0.08390228059769737,
        -0.08239578065329908,
        -0.010185823177769717,
        -0.06601761704503162,
        -0.05786233913876754,
        0.07005949618470168,
        -0.00005026908149184276,
        0.00003682245364562693,
        -0.00008402234738037778,
        -0.00019509671473436709,
        -0.00041935800206094006,
        0,
        0,
        0,
        0,
        -0.0004498543889547322,
        -0.00027660793985354243,
        -0.000022362535008605283,
        -0.00021464155519053908,
        -0.000002908318919562644,
        0.0000044183464159598595,
        -0.00015921995394104827,
        -0.00003521319458046194,
        -0.00048299097208197355,
        -0.0015537977318297164,
        -0.00012912940123122,
        0.000008541970341980029,
        -0.0008093703219733911,
        -8.266351106678983e-7,
        -0.0000019604467163097578,
        0.000005797659283300816,
        0.000007714480536237683,
        -0.0000060753957449358555,
        0.00017794750818814578,
        0.00001217641276284513,
        -0.00003327112763791048,
        0.000021613128917350625,
        0.0000032426584594258933,
        0.000025626303009175102,
        0.000016921354084160788,
        -0.000021867830862790443,
        0.00015391952458955675,
        4.7676682823633636e-7,
        -0.000001039498299212948,
        -0.000002320002017161584,
        0.000007302309745802559,
        0.000029403964629559433,
        -0.000038094885942144114,
        -0.000023615782098750553,
        -6.12720603310095e-7,
        -0.000019249635178395515,
        0.000011438606687964245,
        5.463604750399277e-7,
        -0.000032152615064851264,
        -0.000004931108397838431,
        0.00004575932886064081,
        0.0000807389840675507,
        -0.0000793018513194037,
        -0.0021578677267286676,
        0.0007024239076282978,
        0.0001408862288579247,
        -0.0017025699879546735,
        -0.0015382094738152206,
        0.0019921540259723015,
        0.0028586085435040333,
        0.0000753869028047365,
        0.0000015048707980773048,
        1.9819828371057542e-7,
        2.4109018650782888e-8,
        1.9806847096397395e-7,
        -2.10749998120065e-8,
        -8.322785513504716e-8,
        -2.10749998120065e-8,
        6.588657590497374e-8,
        -2.494140960805365e-7,
        0.000010407632990129873,
        -0.000020008695952386936,
        0.0006683873540512401,
        0,
        0,
        0,
        0,
        0,
        0,
        0,
        0,
        0
      ],
      [
        0.5798888435077577,
        -0.07014378609475733,
        -0.13661042332123707,
        0.17895623360202997,
        0.49309897639552086,
        0.06811358854361184,
        -1.517730354743308,
        1.153365544970482,
        0.531894704846421,
        -0.005503662107671475,
        -0.015146521297066475,
        -0.017496429410868385,
        -0.008628357415345629,
        -0.0035708894043747002,
        -0.0048029061207289225,
        0.0028801773420380965,
        -0.00691338212057559,
        0.0026914711068758155,
        -0.07368381328860876,
        0.025385241471354555,
        0.5541524866317158,
        0.09691346347978112,
        0.04583009008985685,
        0.13261756934241187,
        -0.01492443247685182,
        0.08623130425475393,
        0.415790862636451,
        0.38393184593472285,
        0.27910205149741474,
        0.026736135646802255,
        -0.09815210744547999,
        0.07800244100345131,
        0.1958923426869262,
        0.4304387132709191,
        0.02345168046501309,
        0.305269616446063,
        0.022596675839719277,
        -0.0073551647677215955,
        -0.01787220342041813,
        0.0514122027402125,
        0.028402719530302788,
        -0.018415066152265958,
        -0.016695508626480657,
        0.0025079846554110154,
        -0.00593232636068432,
        0.0012389793785198347,
        0.000658475480490189,
        -0.005918002811069486,
        -0.000004016801256585041,
        0.003318296967612514,
        -0.004369165154789488,
        -0.020105748560016224,
        0.2592894008813739,
        -0.2072763337318096,
        -0.00016241949218908196,
        0.0191301991020224,
        0,
        -1.120446954678012,
        -1.156896904936612,
        0.03304081683557209,
        -0.09243811904902406,
        0.06627812931338367,
        0.07847963147418247,
        0.0013248145513195906,
        -0.00014742301053703987,
        0.0035839313853851702,
        0.00083896669452836,
        -0.03660726448876377,
        0.03855484118148688,
        0.4700295932662027,
        0,
        0.07086219083883183,
        -0.001510894741960535,
        -0.008705650223960481,
        0.004930038613088779,
        -0.019444749263459554,
        0.04992468974282321,
        -0.7483377386503376,
        -0.24571330745767722,
        -0.904895088150665,
        -0.42306612045318653,
        -0.41558000471252843,
        -0.13224463763437033,
        -0.8737178432233824,
        0.020580702442186953,
        0.09518400679614969,
        0.010382708044564745,
        0.07305910346742472,
        -0.003600563017743353,
        0,
        0,
        0,
        0,
        0.003318296967612514,
        0.0023701460419831254,
        0.00011159486531456638,
        0.0013716555331419963,
        0.00007754236302524314,
        -0.000002681601711932809,
        0.0012997893767691413,
        0.0009771393886367312,
        -0.0015878654327695608,
        -0.009183222513270025,
        0.0003058062154878077,
        0.0009947229448254832,
        -0.00313374430393802,
        0.02142179501063343,
        0.06529905241132224,
        0.007435219554927764,
        -0.006745867300044996,
        0.035080742318429545,
        -0.0023746634016274487,
        -0.023294546794355633,
        0.004349507851485684,
        0.051917210677473624,
        0.006832071342396633,
        0.031152331664856852,
        0.014699752409890597,
        0.05570991079762406,
        0.10169943407485392,
        0.0016588560656609049,
        0.00693690248297924,
        0.0022971990374979568,
        0.01093156552082841,
        0.07956113245640584,
        0.045756519870714635,
        0.04360099777717461,
        0.04494956401531804,
        0.08979186635559554,
        0.03848626813581915,
        0.00030278000125832184,
        -0.0023121015642295567,
        -0.0007446365231496412,
        0.0008729094827386758,
        0.004259829802159114,
        -0.0024484118904501318,
        -0.010721465380419005,
        0.003171547745482426,
        0.00022301918965394037,
        -0.008708610748707211,
        -0.008411322149601575,
        0.01944863443007226,
        0.1528275110791945,
        0.027143667898225806,
        0.04985372434618017,
        0.0035994738187979064,
        0.0005875349023139132,
        0.003597291395063046,
        0.006383732573613874,
        0.005813375832402307,
        0.006383732573613874,
        0.003394955866282728,
        0.013796492212142112,
        0.000041577861249053376,
        -0.000029216420151673526,
        0.034391631512533494,
        0,
        0,
        0,
        0,
        0,
        0,
        0,
        0,
        0
      ],
      [
        0.037461838776696586,
        -0.18565769390376127,
        -0.1676320337767984,
        0.3007470937905946,
        0.026884546221792968,
        -0.08932030911250809,
        -0.07814613938609168,
        0.03004194801135298,
        0.01377472478302225,
        -0.0001299708460959951,
        0.00025663056929934105,
        -0.00026381825439370166,
        0.00012059570567660059,
        0.0009601248299307773,
        0.0002096554670700182,
        0.0004515382647220815,
        -0.0003578217559514959,
        0.00015457617956736282,
        -0.10872012081777556,
        0.15225606998452612,
        -0.038763429292786034,
        0.0038412501117902047,
        0.003069249744539672,
        0.004743815193772296,
        -0.0005460622531921671,
        0.016904518276542622,
        0.061716072590620875,
        0.13175789225714626,
        0.03577349174694644,
        -0.0012462946130143314,
        -0.06623177659147488,
        -0.03919416265627283,
        -0.009783635549683931,
        -0.038516784481569574,
        0.027722220548396764,
        0.014703738026041795,
        -0.00036201071907015944,
        -0.000009564626645143836,
        0.00003205370866130785,
        -0.000009618417147378304,
        0.00004866362469263713,
        -0.008116873925166065,
