{
  "featureNames": [
    "bias",
    "move.c2c",
    "move.c2s",
    "move.s2s",
    "move.cycle",
    "move.flipDeck",
    "source.pounce",
    "source.deck",
    "source.solitaire",
    "source.stackHeight",
    "source.bottomValue",
    "source.exposesCard",
    "source.exposedValue",
    "source.exposedCenterPlayable",
    "source.exposedCanPlaySoon",
    "source.exposedMatchesPounceParity",
    "source.exposedPounceConnectorCloseness",
    "source.exposedOwnSolitaireDestinationCount",
    "dest.center",
    "dest.solitaire",
    "card.value",
    "card.isRed",
    "card.stackParity",
    "card.matchesPounceParity",
    "card.pounceConnectorCloseness",
    "card.isAce",
    "card.isFace",
    "dest.isEmpty",
    "dest.topValue",
    "dest.bottomValue",
    "dest.stackHeight",
    "dest.centerHeight",
    "move.cardCount",
    "own.pounceCount",
    "own.deckCount",
    "own.flippedCount",
    "own.playedDeckCardThisCycle",
    "own.wasteCanPlaySoon",
    "own.wasteOwnSolitaireDestinationCount",
    "own.wasteOwnSolitaireConnectorForPounce",
    "own.wasteMatchesPounceParity",
    "own.wastePounceConnectorCloseness",
    "cycle.resetsWaste",
    "cycle.stockFractionAfter",
    "cycle.cardsAdvanced",
    "own.emptyStackCount",
    "own.currentPoints",
    "own.pointDifferential",
    "board.ticksSinceMove",
    "board.ticksSinceNonWaitMove",
    "move.immediatePointDelta",
    "move.immediatePointDifferentialDelta",
    "move.clearsPounce",
    "center.ownCanFollowAfter",
    "center.opponentsCanFollowAfter",
    "center.opponentsCanPlaySameNow",
    "center.opponentPounceCanFollowAfter",
    "center.opponentDeckCanFollowAfter",
    "center.opponentStackCanFollowAfter",
    "center.opponentPounceCanPlaySameNow",
    "player.index",
    "player.botIndex",
    "board.playerCount",
    "board.isHeadsUp",
    "card.canPlaySoon",
    "card.centerPlayableDestinationCount",
    "card.ownSolitaireDestinationCount",
    "card.ownSolitaireConnectorForPounce",
    "center.ownCanFollowSoonAfter",
    "center.opponentsCanFollowSoonAfter",
    "solitaire.isTuck",
    "solitaire.deckMoveHelpful",
    "solitaire.destTopCanPlaySoon",
    "solitaire.makesPouncePlayable",
    "solitaire.exposesCenterPlayable",
    "solitaire.exposesCanPlaySoon",
    "solitaire.movesFullStack",
    "solitaire.postTopConnectorCount",
    "solitaire.postTopConnectorCloseness",
    "solitaire.postTopConnectsPounce",
    "solitaire.postTopConnectsStackRoot",
    "solitaire.deckStockFraction",
    "solitaire.sourceCenterLowerDistance",
    "solitaire.destTopCenterLowerDistance",
    "solitaire.sourceCenterAboveCount",
    "solitaire.destTopCenterAboveCount",
    "own.pounceCenterPlayable",
    "own.deckCenterPlayable",
    "own.stackCenterPlayableCount",
    "own.stackTopCanPlaySoonCount",
    "own.stackNextCenterPlayableCount",
    "own.stackNextCanPlaySoonCount",
    "own.stackNextPounceConnectorCloseness",
    "own.stackBottomPounceConnectorCloseness",
    "own.stack0BottomPresent",
    "own.stack0BottomValue",
    "own.stack0BottomSuitHearts",
    "own.stack0BottomSuitSpades",
    "own.stack0BottomSuitDiamonds",
    "own.stack0BottomSuitClubs",
    "own.stack0BottomStackParity",
    "own.stack1BottomPresent",
    "own.stack1BottomValue",
    "own.stack1BottomSuitHearts",
    "own.stack1BottomSuitSpades",
    "own.stack1BottomSuitDiamonds",
    "own.stack1BottomSuitClubs",
    "own.stack1BottomStackParity",
    "own.stack2BottomPresent",
    "own.stack2BottomValue",
    "own.stack2BottomSuitHearts",
    "own.stack2BottomSuitSpades",
    "own.stack2BottomSuitDiamonds",
    "own.stack2BottomSuitClubs",
    "own.stack2BottomStackParity",
    "own.stack3BottomPresent",
    "own.stack3BottomValue",
    "own.stack3BottomSuitHearts",
    "own.stack3BottomSuitSpades",
    "own.stack3BottomSuitDiamonds",
    "own.stack3BottomSuitClubs",
    "own.stack3BottomStackParity",
    "own.pounceCanPlaySoon",
    "opponent.pounceCenterPlayableCount",
    "opponent.deckCenterPlayableCount",
    "opponent.stackCenterPlayableCount",
    "opponent.pounceCanPlaySoonCount",
    "own.stockFraction",
    "own.wasteFraction",
    "own.pounceValue",
    "own.pounceStackParity",
    "opponent.minPounceCount",
    "opponent.maxPouncePressure",
    "center.ownPounceCanFollowAfter",
    "center.ownDeckCanFollowAfter",
    "center.ownStackCanFollowAfter",
    "center.opponentFollowPressureAfter",
    "center.opponentPounceFollowPressureAfter",
    "center.opponentSameNowPressure",
    "cycle.ownPounceCount",
    "cycle.ownCurrentPoints",
    "cycle.ownPointDifferential",
    "cycle.opponentMinPounceCount",
    "cycle.opponentMaxPouncePressure",
    "move.wait",
    "move.premove",
    "card.centerDistance",
    "own.wasteCenterDistance",
    "own.handHoldingCard",
    "own.handCenterDistance",
    "own.handCanPlaySoon",
    "opponent.handVisibleCount",
    "opponent.handCenterPlayableCount",
    "opponent.handCanPlaySoonCount",
    "opponent.handMinCenterDistance",
    "opponent.handMaxPouncePressure",
    "center.opponentHandCanFollowAfter",
    "center.opponentHandCanPlaySameNow",
    "premove.centerDistance",
    "stuck.noVisibleCenterMoves",
    "stuck.ownVisibleCenterPlayableCount",
    "stuck.opponentVisibleCenterPlayableCount",
    "stuck.ownClosestCenterDistance",
    "stuck.opponentClosestCenterDistance",
    "stuck.closestCenterDistanceAdvantage",
    "stuck.moveCycleLike",
    "stuck.movePremove",
    "stuck.moveSolitaire"
  ],
  "inputSize": 184,
  "hiddenLayerSizes": [
    192
  ],
  "layerWeights": [
    [
      [
        0.0076112791409169885,
        -0.015424717856132442,
        -0.018856187524644148,
        0.09472095810148097,
        0.005676712748817116,
        -0.011372375538284461,
        -0.06414612123538817,
        -0.018635359644017534,
        -0.017449474012281013,
        0.00019880566075742404,
        -0.00008587507031785076,
        -0.0005554333853252119,
        -0.0005499888325342826,
        -0.00033180467380568757,
        -0.00012579810641671113,
        -0.00021523641308061366,
        -0.00010889791474930103,
        -0.00011431308128129272,
        -0.07935321611668297,
        0.04483603484478406,
        0.053604383401708935,
        -0.006723190647064272,
        -0.00009278445028817496,
        -0.00024772843850124834,
        0.00009066256669831557,
        0.006651670004753893,
        0.020951243163266707,
        0.04140693234180239,
        -0.0014061226905696983,
        0.0030668253486599403,
        -0.03971561990166916,
        0.031087183547602683,
        0.1070089432999889,
        0.004084789851169834,
        -0.05656300758212136,
        -0.06360466954684325,
        0.0002749256186997973,
        0.00015101777709447802,
        -0.000011024782033378831,
        -0.00003474125243193817,
        0.00018726587588530227,
        0.00007450963011880398,
        0.00012344238356144208,
        0.0014198329381799517,
        0.0021953084248091262,
        0.0675998985633901,
        -0.0026165070896982993,
        0.000017839409278078825,
        -0.04231943790843835,
        -9.335849825421933e-18,
        0.023912930741791856,
        0.002449839023561514,
        -0.028898818672939416,
        0.02612734504235093,
        -0.06878134224785704,
        0.013707758534267174,
        -0.0000880794574864704,
        -0.00006972252854432622,
        -0.000052983103008031044,
        -0.0001285029127015026,
        -0.049685640012111634,
        0.04191480883640025,
        -0.027666954049607072,
        0,
        0.0798587254970056,
        -0.0018045208047851866,
        0.0007159431634790565,
        0.00013286392862450652,
        0.0041203387959939455,
        -0.054822808721750216,
        -0.055388405261860646,
        -0.10677768275487842,
        0.006341945278363597,
        -0.09985576322105078,
        -0.08326573737133981,
        -0.14393906424892014,
        -0.06853247357894734,
        0.0004450721026551066,
        0.0014708474413109478,
        0.0006308396100640948,
        0.001428405774182639,
        0.001421243153242415,
        0.001312469529285203,
        0.0012091334489746225,
        0.00008287022855593191,
        0.00003685459990792661,
        0.0005314003564210707,
        0.00019347329889708725,
        0.0000436130460380958,
        0.00015258941856599703,
        0.000004953434893621821,
        0.00004878822234048278,
        -0.000013307064847952495,
        0.00009616371976480218,
        0.00046956066258161446,
        0.0002890970626168795,
        0.0001736383566087584,
        0.00011326627465114901,
        0.0000750395023421707,
        0.00010761652897952734,
        0.000256755658000504,
        0.000447402294643501,
        0.0002703286575524031,
        0.00013126789698605183,
        0.00010512875747489185,
        0.00010893043572627891,
        0.00010207520445627057,
        0.00028226854045993366,
        0.00043785649589916015,
        0.00027534825790732784,
        0.00009476344959298311,
        0.00011143871991031852,
        0.00011611314060181099,
        0.00011554118579403994,
        0.00019068738256762573,
        0.0004346156532784521,
        0.00026373730998402505,
        0.00011435380654986313,
        0.00012666131231448588,
        0.00009805529476575362,
        0.00009554523964834175,
        0.00020861848179214086,
        0.00038457549409508235,
        0.000006378817588074218,
        0.00002326459904919417,
        0.0000067303490403113504,
        0.000051637574678283565,
        0.0002487950640885625,
        0.0001900586122079259,
        0.00010171650935717746,
        0.00021770837458798278,
        0.0003142132265113471,
        0.0001350271539339172,
        0.0003766529658542502,
        0.0004497804946077245,
        -0.000041539365128452284,
        -0.0005446571855003625,
        0.000010679212241125229,
        -0.001136849538710912,
        0.0010446224638084717,
        -0.00008208685816601018,
        0.0000029652088540616523,
        0.0007227990642521432,
        0.0014197584440198967,
        -0.0004690242724723314,
        -0.0012218784735556546,
        0.0007603902305503958,
        0.00006501247246027802,
        0.0001969885686892523,
        0.00001569995737004772,
        0.00019122678152203883,
        0.0000473982447093441,
        0.0000183664657766901,
        0.000028610964525643286,
        0.0000586195296912811,
        0.00005698540748288145,
        -0.00021032440769742596,
        0.0006099883263109305,
        -0.00028999622508849005,
        -0.000022490971750110304,
        0.0001271840573900655,
        0.000017487091283023712,
        0.000019252177157953642,
        0.00004594132167963977,
        0.000026689144521684894,
        0.00038842982177869444,
        -0.00022827290904974153,
        -0.00010373365435621802,
        -9.425627282001426e-9,
        1.5486225362236462e-8,
        9.44410841102363e-9,
        7.265999362490122e-10,
        -4.644596778658508e-9,
        1.1790373285693853e-8,
        8.819818488330615e-9,
        -2.060117967774006e-9,
        4.225969355896751e-9,
        1.099638698478667e-8,
        1.2580544620324467e-8,
        5.4157833597533105e-9,
        -8.208181101136978e-10,
        -4.100468370007346e-9,
        1.4094922851333375e-8,
        1.0704467276493015e-8
      ],
      [
        -0.036056717767403504,
        -0.13092591220077598,
        -0.11659847956436947,
        0.2877125132635844,
        0.04166751786929472,
        0.03784406799735981,
        -0.03654442476620922,
        0.005529419509061601,
        -0.004001294711618038,
        -0.0006162755589462922,
        0.00043702797440300684,
        0.0007227564146498114,
        0.0013141961710025445,
        0.001452174093521311,
        0.0003263079123878236,
        0.0007515899513239942,
        0.00010708882106492746,
        0.00052937788833235,
        -0.09361780731117327,
        0.18034495391429856,
        0.11427460550805424,
        0.005296564804209788,
        0.004097712122532302,
        0.007796793118413531,
        0.0000768575399196414,
        0.09705209278800223,
        0.05622740735835703,
        0.132692246944359,
        0.009869664730954096,
        -0.009356196675835095,
        -0.04522901414150865,
        -0.04396390400883951,
        -0.03527634657423222,
        0.013446152216598143,
        0.01119898838166667,
        0.0039894402946541434,
        0.00021791689116455062,
        -0.00040942560002970023,
        0.00006307377120127502,
        0.00006095221273571718,
        -0.00005176704706571583,
        0.00005305536004451727,
        -0.0002518154592581327,
        -0.008873435723645212,
        -0.015189455854972212,
        0.1309914043674099,
        0.1087873650181583,
        -0.000009626017258480338,
        0.02970932063167632,
        -1.1053342407249052e-16,
        -0.08022244639262978,
        -0.06436988024642755,
        -0.043321184930635935,
        0.010721261780846363,
        0.046450506842053325,
        -0.0009788263388908658,
        0.0002592321176720958,
        0.00032960687073120163,
        0.0003206894734192932,
        0.00046715372813543497,
        -0.02203838437617478,
        -0.02442938514760496,
        0.005982165202103268,
        0,
        0.17714171600421819,
        0.0039031590246296254,
        -0.0021539032142118436,
        -0.000026759898677148772,
        0.05184879232685095,
        -0.05759013542337827,
        -0.3903708894168729,
        -0.2109637839635386,
        -0.14516478083649778,
        -0.0836308503267873,
        -0.17811622873112004,
        -0.3117353785058843,
        -0.4119544251388639,
        -0.0005757965127450703,
        -0.0006072259597834204,
        -0.0005588210492923775,
        -0.002341594442784167,
        -0.0045406140112692304,
        -0.0032924723787162978,
        -0.0028781236913028884,
        -0.0001849750378880389,
        -0.00007482645297159996,
        0.0023235695004375353,
        -0.0009635529693059707,
        0.0003613957280723169,
        0.0003119318756040892,
        0.0000263108323322934,
        0.00019170547817224775,
        -0.00024225021212575875,
        -0.00038031434591308765,
        0.0001597089408543743,
        0.00012567204453992723,
        0.00015697626107533165,
        0.00004167702128167698,
        -0.0000906482678600455,
        0.00005170392635742931,
        0.00013183985301904667,
        0.000150049835883905,
        0.00008554571884396696,
        0.00008209284561235083,
        -0.00016550123985760023,
        0.00008101987939871786,
        0.0001524383507304605,
        0.00007877509062386731,
        0.0002119065461507832,
        0.0002445028296595263,
        0.00001913307781021618,
        -0.00006412833000119836,
        0.0001392064233896754,
        0.00011769537495210919,
        0.00002954427752148394,
        0.0002433649350960921,
        0.00018887422326429101,
        0.00009543548059622258,
        0.00013918091758399127,
        0.00011867426887909985,
        -0.00010992573196320534,
        0.00007653402397749902,
        0.0012564741936849676,
        0.00001729245431866074,
        0.000034580824439607747,
        0.000026947264248592674,
        0.0001430548043122274,
        -0.0000774474028365407,
        0.00017126295837355496,
        -0.0004659968461337696,
        0.00016414842198814926,
        -0.00010301190416122513,
        0.0002132297480064346,
        -0.0011035202221651049,
        -0.0012347174368360118,
        0.00010338393399501735,
        0.001966933999651758,
        0.00014994924896277612,
        0.00316765967526415,
        -0.009694156938361662,
        0.0023831676343693932,
        0.0002939233731601457,
        -0.007426278049543132,
        -0.008822100256016773,
        0.006852721549061805,
        0.011109275706581398,
        -0.0011482023589218938,
        0.0001432567271786679,
        0.001264941158765915,
        0.00023439695851569135,
        0.0009496867206802849,
        0.000008519798498955444,
        0.000020882322222539108,
        0.000022232986174777524,
        -0.000006047053052968353,
        0.00008012948898793444,
        0.0007938516199610797,
        -0.001826784264853132,
        0.002607790643498842,
        -0.00012709203850610497,
        0.0002300891411385216,
        0.000044034335122060784,
        -0.000028620487815505635,
        0.000008263406289970285,
        0.00003688389410547681,
        -0.0007631605199908364,
        0.0005715462597424793,
        -0.0001326821976255078,
        5.674219445297487e-7,
        -9.062405524038935e-7,
        -8.121092768633895e-7,
        6.313210913485819e-8,
        -4.896906284085732e-7,
        -0.0000014609371854641478,
        -8.548986891613871e-7,
        -2.086908844315381e-7,
        -1.0480941419260895e-8,
        -8.95462034336351e-7,
        -7.403666940429325e-7,
        -3.305379544494653e-7,
        -8.451431497407524e-7,
        2.1996690640192598e-7,
        -6.959931219315604e-7,
        -2.4830465653336905e-7
      ],
      [
        -0.016842349007315238,
        0.08383368863561258,
        0.061508995648511075,
        -0.17210738128069755,
        0.029609012206948285,
        0.041142685409075924,
        -0.0010460087070327847,
        -0.020365555072354387,
        -0.04700776805647587,
        0.0012722082606117038,
        -0.0005298108206444663,
        -0.0009663048999594073,
        -0.0021782328864929194,
        -0.0020863984604060936,
        0.0004071901953691192,
        -0.0008063245139970276,
        -0.00011255405016710018,
        -0.0006968021726707921,
        0.047986502180641065,
        -0.052471790720201306,
        -0.07115789548103521,
        -0.0046845176451653404,
        -0.004418229291496237,
        -0.009516700945537514,
        -0.00023324926968061672,
        -0.1088650064756157,
        0.02171001816052409,
        -0.04992295130463523,
        -0.004691550118040128,
        0.015969114601174984,
        -0.04201523818129699,
        0.028973751543285145,
        0.03929314144449417,
        0.050351562793172946,
        0.0262425162331913,
        0.056367166499371145,
        0.00045528398496425297,
        0.0007035891336603663,
        -0.00005138653299548057,
        -0.000057773267241730336,
        0.00035604147994272464,
        0.000030113367287971807,
        0.0006864990477389293,
        0.010100027779566225,
        0.018732949359218085,
        -0.008566488879724532,
        0.01808775337422264,
        0.00000811895414954819,
        -0.023017272604727117,
        1.542906006923974e-15,
        -0.03457744182191433,
        0.06424300623235436,
        -0.017732972171785263,
        -0.04637656148358411,
        0.027097201166495277,
        -0.026415327361223356,
        -0.000503375812298377,
        -0.0004594588886207405,
        -0.00043432161103372084,
        -0.0007814079861300184,
        -0.033183106712948586,
        0.03348797999090548,
        0.019298840455331524,
        0,
        -0.10306900214232532,
        -0.009312067500796224,
        0.0037423206274908734,
        0.0005261313167198573,
        0.03368512379332822,
        -0.0534818792785551,
        0.32590790219238297,
        0.06272273126348937,
        0.13135802739807684,
        0.11230035813377032,
        0.09944075592595253,
        0.16243316521521206,
        0.2457725328593356,
        0.0015891570461695871,
        0.00471467729949113,
        0.0018286490200835534,
        0.005582123857141081,
        0.008489428805904227,
        0.0059161879265268065,
        0.005404440116102476,
        0.00040002653907842073,
        0.00015400319799370606,
        -0.0007621199418075532,
        0.0007617727845443651,
        0.00010891968647934324,
        0.00021861128476845815,
        0.000008412525077762157,
        -0.000013975880526715635,
        0.00014025714089513006,
        0.00039320819315379724,
        0.0009193525450667194,
        0.0005973970936407363,
        0.00020686795795670014,
        0.00021073600734355688,
        0.00032693310596364997,
        0.00017481547380280316,
        0.0004897740158279086,
        0.0008588521164734584,
        0.0005463860066106266,
        0.00013690843563519235,
        0.0002864142659872981,
        0.0002951417334381448,
        0.0001403876814128092,
        0.0004452765195138681,
        0.0008276495000596403,
        0.00042408992959596433,
        0.0002126193306155972,
        0.00025007705551210525,
        0.00021785705761083357,
        0.000147096056321102,
        0.0004665726762843103,
        0.0007502017776158813,
        0.0003723810115279358,
        0.00018659253268650807,
        0.0001796713689085782,
        0.000053294053492770274,
        0.0003306438225280212,
        0.00034723141307073895,
        -0.0002199068780645255,
        0.000013446157720308413,
        -0.000019130768614443943,
        0.000011578033163453337,
        0.000012199181010518477,
        0.0005752940364531958,
        0.00015279819369992104,
        0.0005276991933479888,
        0.0003786120343611417,
        0.0005872299712616504,
        0.00015260078046576268,
        0.0023204095659348457,
        0.0025265760684177983,
        -0.00022977823644442462,
        -0.0032717651204129737,
        -0.000052740775471641145,
        -0.006473484985471979,
        0.011372960699421985,
        -0.0024107976402173853,
        -0.0003470264155930549,
        0.008324008115886121,
        0.011554426660740844,
        -0.006898489283552872,
        -0.011791593141498313,
        0.0027623512594786423,
        -0.000001780193976492391,
        -0.0005058838230968643,
        -0.00017436682488696195,
        -0.00022080842356626915,
        0.00008983770089298768,
        0.000022175271493255076,
        0.00004461792344425741,
        0.00010015669981203571,
        0.00011266750731768424,
        -0.0014722876543775704,
        0.0037584997425493634,
        -0.0027764114468080366,
        -0.00005269008590065709,
        0.00019979181105108664,
        0.00001697165276071836,
        0.000024577099205708615,
        0.00008441394176484659,
        0.0000598368425591373,
        0.0011313357624525382,
        -0.0008581752679691784,
        0.000020914493462323226,
        -3.2328392771559326e-7,
        4.965505361060181e-7,
        4.016549541843647e-7,
        2.2002611487847937e-7,
        5.804671897308974e-7,
        6.058527080916887e-7,
        0.000001486399197595156,
        5.646404270049241e-7,
        2.5875398196226577e-8,
        4.7060310996214414e-7,
        7.307561586125294e-7,
        -1.5416063424287506e-8,
        0.0000012397921836940072,
        -6.50641714873045e-7,
        1.975945693111797e-7,
        7.439058805085351e-8
      ],
      [
        -0.05685523273161705,
        -0.018979977767666786,
        -0.1061266294723683,
        0.2309349756054461,
        -0.05731088076777119,
        0.08125964986041012,
        0.04687911185180087,
        0.06206147025786435,
        0.06429783111803933,
        -0.0021813067145409625,
        0.0015277517415258786,
        0.0025513843224932503,
        0.004664678026992359,
        0.003780933537553192,
        -0.0008683969407856515,
        0.0016553850784274387,
        0.000534283914519712,
        0.0011458214974256655,
        -0.11195523602154384,
        0.006318219524107048,
        -0.002533579439635259,
        0.014109441550321554,
        0.006006877981913015,
        0.015378152790064124,
        0.001642007850672317,
        0.05861154981937111,
        -0.016276655025946343,
        0.09240585719901184,
        -0.002479330580001478,
        -0.029127126077164285,
        0.02776107185381416,
        -0.05149409864080745,
        -0.0637661705129461,
        0.00826238283959743,
        0.01694292331691299,
        -0.01825493851138756,
        -0.000684861576233587,
        -0.0019440392101053913,
        0.0003725933296310933,
        0.00038392887147990296,
        -0.0004291089005413056,
        0.0002937057417167009,
        -0.0011303611018970293,
        -0.014338308449486508,
        -0.028518449848095383,
        -0.060333734353133564,
        0.024754742234521385,
        0.00008571958592982207,
        0.06977043966319164,
        -5.384014667077873e-15,
        -0.06096384354950006,
        0.04974891964610839,
        0.035326631651385235,
        -0.060522969878322834,
        -0.016653335372369737,
        0.04041632457834275,
        0.0009392631299810718,
        0.0008746620882103513,
        0.0007966553940865989,
        0.0015054670344865218,
        -0.0760132251924248,
        0.05798966338894436,
        0.060649080721873194,
        0,
        0.15602868333794043,
        0.01991645935883635,
        -0.0068514185762066455,
        -0.0010873673943587276,
        -0.0812447262018087,
        0.09547667785424273,
        -0.19420395302369933,
        -0.21963070430029047,
        -0.09345165085422884,
        -0.17828177761869515,
        -0.1822217965047205,
        -0.2926054636943024,
        -0.2787881433137033,
        -0.0031981531466500207,
        -0.010795456184843592,
        -0.003444301817076359,
        -0.011132251421780481,
        -0.015975596663985566,
        -0.011355310452368225,
        -0.010535371322866298,
        -0.0007868212651050724,
        -0.00032208543824724075,
        0.001233405512715576,
        -0.0025195095309212883,
        -0.00008150834429890828,
        -0.00015583810199385352,
        0.00009772257688301367,
        0.00015558808412138338,
        -0.00009126687642096539,
        -0.0006539329821456165,
        -0.0011025902506340028,
        -0.0007126594295403207,
        -0.0003457555588843089,
        -0.00004938351207184899,
        -0.0004886803269926992,
        -0.0002187708526851367,
        -0.0005342533358401717,
        -0.0010928870805384683,
        -0.0005300818337400208,
        -0.00040690713711685354,
        -0.00020277466399925987,
        -0.00032902272484696635,
        -0.000154182554575392,
        -0.000609665223276305,
        -0.0010350439756574628,
        -0.0005725247384117172,
        -0.00041858993086140627,
        -0.00030461996217548274,
        -0.00021667785455760388,
        -0.00009515622806296445,
        -0.0005077504763645056,
        -0.0009624943036150782,
        -0.0002616369997804657,
        -0.000352881282829049,
        -0.00005006727535258996,
        0.00020914546134803689,
        -0.0007686912067814725,
        -0.0006268448157274382,
        0.0005542707811716095,
        0.00002657307584107194,
        -0.000017231321032837404,
        0.000012321651882347137,
        0.0000350035287754131,
        -0.0009489796037312322,
        -0.00011370426457072874,
        -0.0008663353764031383,
        -0.000485738343608563,
        -0.0008790597877644142,
        -0.000198926087249022,
        -0.004732680718763201,
        -0.005083301626907271,
        0.0004933605306962782,
        0.006438724083583662,
        -0.0002337763752334842,
        0.013327889353635023,
        -0.01607382754263924,
        0.0027079078564406027,
        0.0003936380477503728,
        -0.011290508708429616,
        -0.018383800819155405,
        0.008119059720488849,
        0.014586255129213443,
        -0.005815858871958857,
        0.0003218280486926282,
        0.0011488993969234768,
        0.0007791239542462823,
        -0.0003458013411581515,
        -0.0001354005356478384,
        -0.00008187398983848076,
        -0.00007560667794796635,
        -0.00004077534368782034,
        -0.00003751384764509014,
        0.0029484870237465708,
        -0.007500921410075503,
        0.003445399176488644,
        0.00011122850553199882,
        -0.00039480379852386497,
        0.000006205736732239119,
        -0.00002251577136596793,
        -0.00009212039603512336,
        -0.00006960462466915438,
        -0.0021272028272627465,
        0.0015470034018482887,
        0.000011995613179602872,
        3.942335924683029e-7,
        -0.0000012724231097282067,
        -8.230099966951174e-7,
        3.291662439813812e-7,
        -1.481349469566897e-7,
        0.0000012689517316074598,
        -0.000003329399659501516,
        1.9496436431994017e-7,
        4.390552393487592e-7,
        8.934111148266245e-7,
        -4.654285125817035e-7,
        -7.943456508209686e-7,
        -0.0000023624170433343795,
        0.000001101215316578292,
        -5.907662197491457e-7,
        -6.347082245019801e-7
      ],
      [
        0.0035535688288189874,
        -0.06315319396155808,
        0.05841264309284629,
        -0.04521875934847063,
        -0.0045927763298021255,
        -0.04235872319118443,
        -0.10822279356192097,
        -0.04503563480999139,
        -0.020596242127029835,
        0.0007171607642629548,
        -0.0002514301561721044,
        -0.0011268739784976308,
        -0.0015818816088485727,
        -0.001069173162762799,
        0.00010440609415039161,
        -0.0005005385512011637,
        -0.000317957393964143,
        -0.00040551385988932346,
        0.08389001997163792,
        0.019104142247987784,
        -0.04892299543600178,
        -0.0039019989483138947,
        -0.001284147509287491,
        -0.0042144847308645495,
        -0.00024908111945510527,
        -0.05246728728776167,
        0.025601464682089528,
        0.03025863420591749,
        0.0653792388087519,
        0.011001143426285023,
        -0.048831536870710776,
        0.042889289595574344,
        -0.03202561725139083,
        -0.0501481571230535,
        0.0056489352432284,
        0.030060324190962617,
        0.0005379082776296751,
        0.0008384937412700484,
        -0.000016153273808059446,
        -0.00002619580468782732,
        0.00040400675236971475,
        0.00008546845896788158,
        0.0007166461865493163,
        0.0065068563970141005,
        0.009957754339766443,
        -0.00043218692649483445,
        -0.0685850222170349,
        -0.00001729542509461219,
        -0.08233879421538731,
        8.250104053570864e-17,
        0.06087133994434617,
        0.01903240318430008,
        0.06443313903229676,
        0.018884681744511727,
        0.0881368286852879,
        0.06621110378020396,
        -0.00025922191713167797,
        -0.0003205783407515116,
        -0.00026914655135612845,
        -0.0004924961447112274,
        0.03645935025579284,
        -0.02659150286073096,
        0.048537649181868224,
        0,
        -0.059743507994169026,
        -0.006051192942829689,
        0.0028372465432038507,
        0.00033988851783816996,
        0.012324599225799282,
        -0.07978313263057923,
        0.07571213399807705,
        -0.05795459755814764,
        0.015487601034679527,
        0.0714761293099683,
        0.05200852426935056,
        -0.027551268583876725,
        -0.051412735820819976,
        0.001241304350735529,
        0.003998113219071857,
        0.001443789767561781,
        0.004313643610331477,
        0.005472261832053935,
        0.004212009934134886,
        0.003804806449440497,
        0.0002695736665373004,
        0.00011463293618168146,
        0.00023063723454993035,
        0.000836238837357161,
        -0.00004069378988895381,
        0.00042766652381109763,
        0.00004007925762196602,
        0.0002008617997796891,
        0.00024746224358166655,
        0.00044236906625496524,
        0.0009291617398322188,
        0.0005967775025097554,
        0.00025981263474929685,
        0.00025803337617754545,
        0.00018860790109137,
        0.00022270782781401598,
        0.0005299431294330742,
        0.0009178931987231826,
        0.0005764466147947578,
        0.0002313391855293762,
        0.00025328791804666136,
        0.0002294442719871342,
        0.00020382182316002075,
        0.0004133248174062903,
        0.0009325278066635183,
        0.0005808637279122813,
        0.00021894278315612658,
        0.00026794831168114444,
        0.0002347643823142937,
        0.0002108723295119635,
        0.0004076121282768522,
        0.0009201790672284769,
        0.0005727422870098138,
        0.00021724740296041764,
        0.00028380841482993974,
        0.0001290287147084595,
        0.0002900945347296733,
        0.0004689234245665385,
        0.0006157618883061828,
        0.000024593795366070924,
        0.00006056392270675992,
        0.000019632928282138323,
        0.00019890257249689891,
        0.0006799541109491243,
        0.0003422388667930068,
        0.0004647011552925131,
        0.00046655877069736617,
        0.000653536593865142,
        0.0003993777492000721,
        0.0013683262710546106,
        0.001496851300419012,
        -0.00014923629497235684,
        -0.002213269692990185,
        0.00014614374943841153,
        -0.0041419237458020395,
        0.00587357931123191,
        -0.000979048418283729,
        -0.00012427957029626204,
        0.004267725618464236,
        0.0066439142872145515,
        -0.0037021255980070203,
        -0.0066511010338666035,
        0.002283884450942004,
        0.00007374183574564887,
        0.00005946139563264763,
        -0.00002385939565419404,
        0.00011867164234730243,
        0.00010496087747292642,
        0.000040728057374691695,
        0.00006584592820472737,
        0.00012980384084453251,
        0.0001422134178807089,
        -0.0009125810468971578,
        0.0022466968918768587,
        -0.001569474206027846,
        -0.000008212305927247155,
        0.0001882870846117801,
        0.000040655488005379836,
        0.000061587937031817,
        0.00009903498021558607,
        0.000037447043183764726,
        0.0009780223314052813,
        -0.0006762575318221541,
        -0.0000622143838401194,
        -8.22936444580357e-8,
        1.8904785296890968e-8,
        4.2283701638069136e-8,
        2.682111989813994e-8,
        6.182045765239368e-8,
        7.434463898866998e-8,
        1.4053144460949566e-7,
        9.355671484690195e-8,
        2.5011990037304684e-8,
        9.872789086038712e-8,
        7.518216082926589e-8,
        -4.292704525546164e-8,
        1.043270855555784e-7,
        -8.406709257174855e-8,
        1.9604965167474432e-8,
        2.774243899351822e-8
      ],
      [
        0.05379523861869442,
        -0.11538963174674663,
        -0.08509730159822733,
        0.257461648882274,
        0.0639500232160846,
        -0.000903318644483831,
        0.003937000924753624,
        -0.01772240657389485,
        -0.010677940288068398,
        0.0002535866952313777,
        -0.00043739314252725953,
        -0.0007513345140414579,
        -0.0007883518665258533,
        -0.00004321130528345179,
        0.00017581676587079693,
        -0.00015549346136089224,
        -0.00022903631736728914,
        -0.00002803860656154039,
        -0.03940005128311306,
        0.04306615875693573,
        0.09254904352486681,
        0.010263621866183556,
        0.0009912005247173464,
        0.00080703012956962,
        -0.00031828919334933505,
        0.0014947044143739463,
        0.027053996874980283,
        0.12195264875858992,
        0.07180554105013061,
        0.003507628248145645,
        -0.08155216296584378,
        0.04622972888771851,
        0.09613682697270122,
        -0.03805643501733206,
        0.0000039672310756140956,
        0.02628968795281757,
        0.0003987527169607178,
        0.0003177405306806835,
        -0.00004727686529413735,
        0.0000070756310398751385,
        0.0002606977696976736,
        0.00007049207160939956,
        0.00035727885796874774,
        -0.0010248003801189363,
        -0.0006337808757812446,
        -0.016763179183086317,
        -0.02455862163667431,
        -0.000008556408331822076,
        0.08198340110244356,
        3.2290365554742905e-16,
        -0.06959040354871483,
        -0.09758803268281747,
        0.01265168516776732,
        -0.07259224057776756,
        -0.03931526632113891,
        0.07449993189301984,
        -0.00013394428970653024,
        -0.00005739166693906269,
        -0.00002613434434255847,
        -0.0001779004962358451,
        -0.010570715094336424,
        -0.0055191314763505615,
        -0.08097247193519094,
        0,
        0.09732174958953693,
        -0.00380279278162242,
        0.0008636399400894593,
        0.0004334879418464727,
        -0.04200275706062524,
        0.02852675607072303,
        -0.2934444388568506,
        -0.06731506735738195,
        -0.003590865934510331,
        -0.03342604261033561,
        -0.17326113155934733,
        -0.17627211344157726,
        -0.26301722611688766,
        0.0008237083473968634,
        0.003800310780587115,
        0.000998016316980276,
        0.002517584023101439,
        0.002339807900898264,
        0.0015431251823132591,
        0.001477669738148523,
        0.00014222219716544332,
        0.00005812371079941682,
        0.0017806385774059603,
        0.00004066056999962671,
        0.00009820297449618219,
        0.00038063785118149207,
        0.000023012354805083106,
        0.0001857734506550762,
        -0.00004462148759404318,
        -0.00004481304653117301,
        0.0007139372192104848,
        0.0004434795942099042,
        0.00024130771536054628,
        0.00023482930645460533,
        0.00013479434171066482,
        0.00010300585568465355,
        0.00041850883197985095,
        0.0006526608424269821,
        0.00040493976431930906,
        0.00015323160423090943,
        0.00017475554922575156,
        0.00015391708633437397,
        0.00017075660263593347,
        0.0003606031107113814,
        0.0006498083562186858,
        0.0004146039625187737,
        0.00007216148210367059,
        0.00017604962921151002,
        0.00022011823371006074,
        0.00018147901119342584,
        0.0003132735799899708,
        0.0006169678808053458,
        0.00038566215118281133,
        0.00017879878472211596,
        0.00020757208340123142,
        0.00010324718800288414,
        0.0001273498246790933,
        0.00021809116480913117,
        0.0013424017583736226,
        0.00002628200306719611,
        0.00004960156159321254,
        0.000020769014508843065,
        0.00016094029184323124,
        0.0004511943668689998,
        0.00017760845162263688,
        -0.00006750066975369193,
        0.00030077058440381913,
        0.0003291510203780943,
        0.0003246227812896486,
        0.0008341766264599585,
        0.0008451726824530558,
        -0.000041931478151790394,
        -0.0007199479821119806,
        0.00019012297885919374,
        -0.0022756584693116285,
        -0.0010712076257970691,
        0.0006608205106095918,
        0.00006404065407818638,
        -0.0011500897194067817,
        0.0002046440360147851,
        0.0018773247560638676,
        0.0025527460213603122,
        0.0011166194841235315,
        0.000046467100881186855,
        0.00031826054650703646,
        -0.00004015402204709945,
        0.00044389228462040226,
        0.00008910668682368459,
        0.000039843727016427276,
        0.00007036052889003147,
        0.00009617063268947852,
        0.00019655882595911043,
        -0.000381454451397181,
        0.0011797526566605268,
        0.0005953660119842402,
        -0.00011595003358652385,
        0.00027417837207687954,
        0.00004213949544797096,
        -0.000009447012695446322,
        0.000060773260366383634,
        0.00007022027306182969,
        0.00021157291813234873,
        -0.0001305387925408971,
        -0.0001023631275404805,
        -3.249730958476296e-7,
        2.4600131216882695e-7,
        3.089102485701751e-7,
        1.9582236920762464e-7,
        3.057573464415092e-7,
        4.4873922255068176e-7,
        5.320053846639855e-7,
        4.4657962176457463e-7,
        3.183881574529768e-8,
        5.820384863648022e-7,
        3.3812630147299013e-7,
        2.196150241680246e-7,
        5.730864313275551e-7,
        -1.3239954645455178e-7,
        7.076550593699301e-8,
        2.627423809674831e-7
      ],
      [
        -0.024122454657142706,
        0.05221359442494978,
        0.06253481246818599,
        -0.09505913757556557,
        0.0839928171613243,
        -0.07231195402718928,
        0.002841679538175757,
        0.035905515109656616,
        0.027858115422939915,
        0.001295226496484698,
        -0.0010250048863325314,
        -0.0018483073750256106,
        -0.003052369847686351,
        -0.0024927402448398726,
        0.0001953504512705405,
        -0.001243305387206755,
        -0.0004320435005341746,
        -0.0007458756136647679,
        -0.05033703218129738,
        -0.06828608405726166,
        0.060554657612777237,
        -0.015535743475107206,
        -0.00356075981479959,
        -0.008254279261957813,
        -0.0006156360446289594,
        0.009125819221873391,
        0.020473970426902945,
        -0.07921716874831436,
        0.05113261067995333,
        0.018283072324569348,
        0.0018600513876322262,
        -0.0446253172685115,
        -0.020196318347688688,
        -0.04814009549488255,
        0.028535243979961104,
        0.05748829778344646,
        0.000866250306740113,
        0.0012783024512219474,
        -0.00006927824919047313,
        -0.0000012926997902503762,
        0.0005879023725952104,
        0.00010334172603146746,
        0.00047012533010931944,
        0.009199565817024823,
        0.01806535448451969,
        -0.05710061712873707,
        -0.09375071835058443,
        0.000014051836386620779,
        -0.08969682096797076,
        1.4961657523772522e-15,
        0.01979756141919725,
        0.03169419644496671,
        -0.051062637418525895,
        -0.04498029593983494,
        -0.06725237965632157,
        0.05260454834927741,
        -0.0005654190174308626,
        -0.0005517174193449701,
        -0.000494213954889626,
        -0.000925995848752634,
        0.011831882848630541,
        -0.012454939497410706,
        -0.06356586974429675,
        0,
        -0.07209932775096711,
        -0.012010062944753881,
        0.004384664100182745,
        0.00076912426974572,
        0.06603054518421389,
        -0.0031183812965831412,
        0.12824185562511303,
        0.036015084663609725,
        0.07995148262346725,
        -0.005176499251654842,
        -0.01595559871033401,
        0.07954554055893415,
        0.13537527592907894,
        0.0020489299782907966,
        0.006704034035668597,
        0.0023016341698879703,
        0.007160698341815557,
        0.009755762110447999,
        0.007357236860266102,
        0.006659990189703892,
        0.0004973069653035392,
        0.00020328689773610692,
        -0.00010023645087430228,
        0.0012007759950444176,
        0.0001700426305328183,
        0.0006583377787810007,
        0.00006342091071979504,
        0.0002896369225245498,
        0.0003851325440927613,
        0.0006921554158611029,
        0.0014731023659326381,
        0.000980420146573682,
        0.0003935864545230889,
        0.0004243322044660811,
        0.0003301538117140772,
        0.0003250298952293739,
        0.0007776147729333815,
        0.0014458624489838273,
        0.0009066295295037608,
        0.0003288194288067918,
        0.00039634144325824004,
        0.00042205622104062154,
        0.0002986453558781506,
        0.0007241872211287148,
        0.001433460065194269,
        0.0008537743903247698,
        0.00032338795625592824,
        0.00042447262975915483,
        0.00042343294202404444,
        0.0002621665371551176,
        0.0006965840914764913,
        0.0013780189188347645,
        0.0008031217176872731,
        0.00032975427213556053,
        0.0003219555692871362,
        0.00023063545070944194,
        0.000495673626702591,
        0.0007129299901358505,
        0.0004935876830094251,
        0.00002906660386371403,
        0.00007587409857675402,
        0.000027915015593311066,
        0.0002679391863193049,
        0.0009351789235043647,
        0.0004967014625151553,
        0.0007538332891657431,
        0.0006836725046220298,
        0.0008896281621709319,
        0.0005874399091692986,
        0.0028137477398171395,
        0.0030570287274411198,
        -0.00028121827278662257,
        -0.0038976703266285617,
        0.00012581813788115239,
        -0.00796121263064496,
        0.010110470844924033,
        -0.0016844060675755184,
        -0.0002157103510130426,
        0.007162144147994781,
        0.011543816935201956,
        -0.005160611713580168,
        -0.00983240202541261,
        0.0037873658536169245,
        0.00006985910177786144,
        -0.000023615828307268634,
        -0.00011305246267254377,
        0.00021990924491233484,
        0.00016138653190480058,
        0.0000664421523305847,
        0.0001069805679960401,
        0.00018495254569761332,
        0.00024130859026832313,
        -0.0017509430661397703,
        0.004483910074628704,
        -0.0023222187238099395,
        -0.00004522097203045162,
        0.00034757070505784377,
        0.00005610182851345954,
        0.00007836060262180553,
        0.00014760191952917914,
        0.0000692413169073697,
        0.0015318618168990098,
        -0.001071352893129164,
        -0.0000765826084469303,
        8.38484091162568e-8,
        1.304992046950757e-7,
        2.788376670440399e-7,
        -1.663329825751051e-7,
        4.1167041091554255e-7,
        -4.065603291480964e-7,
        6.036842424722697e-7,
        3.673392975132244e-8,
        5.05741511051624e-8,
        -1.1554852270117455e-7,
        2.533864578040012e-7,
        1.52975241050262e-7,
        4.287622654817611e-7,
        -2.3510564112631597e-7,
        9.943278026488893e-8,
        3.4882650069444064e-7
      ],
      [
        0.4898330916678531,
        -0.286965745975204,
        -0.3410121721101909,
        0.2963145014194715,
        0.5405268762964323,
        0.11644988531854836,
        -1.8507790639019233,
        2.3032537942970306,
        -0.604933021514229,
        -0.02565913036298367,
        0.0583128750538584,
        0.0012392814621584492,
        0.045614304708813704,
        0.008875825822925605,
        -0.051107726915532364,
        0.027860504131531936,
        0.0056336027785721735,
        0.022855938721038742,
        -0.37352347221757115,
        -0.12279654944041452,
        0.11292667939519632,
        -0.021107807344398488,
        0.008939582475663293,
        0.07444152959566934,
        0.0926892054808772,
        0.9559321966905325,
        -0.00043157118721557166,
        0.9415248176350879,
        -0.0653520402921965,
        -0.07947839803414526,
        -0.11929254184160372,
        -0.15631987314972084,
        0.14038870296817077,
        0.47480964309456564,
        0.4960884776191813,
        -0.1285994420731736,
        -0.11601552031267685,
        -0.1275197227046008,
        0.06409479321521158,
        0.0006191371500522851,
        0.03597583665876662,
        0.07855472260678358,
        0.013854525652663208,
        -0.0068920563665871605,
        -0.026815684107492375,
        0.3915708775852849,
        -0.15694197865391568,
        0.024358103246736644,
        0.07041271443220658,
        -2.1861909519231028e-13,
        -1.5634595912177358,
        -1.433064107981566,
        0.07047331150015415,
        -0.09471267613642612,
        0.13422677192271093,
        0.025509175343816186,
        0.004796257767205558,
        0.007672125911886468,
        0.002892462588609298,
        0.019520351006794626,
        -0.08259775833449602,
        0.008997824109883213,
        0.29616087972470256,
        0,
        -0.059342998766165694,
        -0.03934467623727421,
        -0.036020152416709854,
        -0.0003010417977792298,
        -0.014311327508127381,
        0.07712207730270414,
        -0.7024900922041171,
        -0.10866448619331,
        1.0104251144092915,
        0.22504760207137153,
        -0.7587104149918039,
        -1.530372178414723,
        -0.10150739026056223,
        0.009875376551031698,
        0.07370615758556125,
        -0.016217244010356912,
        0.05182904856465556,
        0.0006024139339894013,
        -0.03588435750003517,
        -0.03856767458716003,
        0.0007478665437643215,
        0.0007150239221089725,
        -0.19365953063921662,
        -0.46827597171737984,
        -0.023732731258858948,
        0.11965839106704129,
        0.029895688458753268,
        0.11854571023459164,
        0.10698706833061095,
        0.012543819038405856,
        -0.027869823590820117,
        0.013565888854187809,
        0.053089480491252054,
        0.03561142855305313,
        -0.13799732479881818,
        0.02142659216369279,
        -0.059418686686000644,
        -0.023693509310387953,
        0.03487826574119733,
        -0.07908971927925758,
        -0.020731002200768702,
        0.060877827635086916,
        0.015249384534551175,
        0.050296531455658954,
        -0.05414499511407198,
        -0.03570706705142385,
        -0.003079665103918588,
        0.01574668252030266,
        -0.04094363637361615,
        -0.025868376156836303,
        -0.007100121662914133,
        -0.06598058297214773,
        -0.01837076231844445,
        0.03811296265300976,
        0.018436435493538326,
        -0.039714384709812096,
        -0.08281559640887988,
        -0.023775887957473246,
        0.1823058074719328,
        0.01196789986108325,
        0.008596232941109928,
        0.007454600675326615,
        0.07010499218626616,
        0.04363192113563214,
        0.06622542559046257,
        0.039285095910429925,
        0.010490454489724818,
        -0.00027985912160899835,
        0.119315306335001,
        -0.04298375872096331,
        -0.059998847716352895,
        -0.008755506041101658,
        0.05510192316989443,
        -0.008534897788673858,
        0.0982903162951879,
        -0.010593725396189793,
        0.0009801077233591179,
        -0.0006610324195995007,
        -0.009527066062103432,
        -0.013485737461393468,
        0.02901541306936657,
        0.30359362625065267,
        0.013386006462200886,
        0.16505674004924564,
        0.420210734357278,
        0.16471584651409343,
        0.2204303513483951,
        -0.01792010574461254,
        -0.015526548026313728,
        -0.014460055844544729,
        0.011722742478160462,
        0.054356015586726515,
        0.019766827716938915,
        -0.09959421012175977,
        0.07067624372240316,
        0.03614828360238195,
        -0.12223700298202718,
        0.003402799904476238,
        -0.00034391598216292334,
        -0.0011137083626522714,
        -0.0007697923804890441,
        -0.0016292878408741974,
        0.016540772564865608,
        0.019556646441548222,
        -0.00004886785508535558,
        0.00022091065711874708,
        -0.000015844334472690456,
        -0.0000058854539676019,
        -0.00013292387673380574,
        0.00005736171432999734,
        -0.00032808516115431644,
        -0.00026136225005309635,
        -0.00017776349140865926,
        -0.000012944213576313316,
        -0.00003145863081000894,
        0.00013581666184373704,
        0.000025814242215426126,
        0.0003343364145183762,
        0.000007607750094742548,
        0.000026136294783258718
      ],
      [
        -0.03046197674603412,
        -0.06677160137535845,
        -0.04048251865638269,
        0.09671787124145613,
        -0.008351460461524534,
        -0.06442241927929675,
        0.045670246226756465,
        0.04831926644488276,
        0.06023486432191908,
        -0.00013140473036425587,
        -0.0004740593774361691,
        -0.0004100625345797444,
        -0.00038909768751608533,
        -0.0002494445126585607,
        -0.0002509879762945199,
        -0.00022388840374633958,
        -0.00002337939972912463,
        0.00004380779330701979,
        -0.05910939184671139,
        0.04813059629195471,
        -0.08240849662409966,
        0.012921651231082952,
        0.00028519633066282756,
        0.0020602452526387307,
        -0.00011998179232756872,
        0.0026397809766960465,
        0.021013133326113886,
        0.060075702348257785,
        0.06224565625697805,
        -0.0006066522327130012,
        0.013111737784721904,
        -0.022745774465904242,
        0.0620296727499133,
        -0.06873003718519571,
        0.05198591819009274,
        0.024123160757802572,
        0.0005453758656844151,
        0.00041246701449344363,
        0.00008621973788421687,
        0.000052006264863135334,
        0.00036749648608946873,
        0.0001668483784161651,
        -0.0005022372789443436,
        -0.0030251939493622666,
        -0.0026679653750459973,
        -0.07404050789454887,
        -0.018792577831072545,
        -0.00009014399887633293,
        0.020971974144656652,
        -1.67786710987349e-17,
        -0.018085963145538012,
        -0.04386938769628702,
        0.08640429305755705,
        0.04514390270449599,
        -0.0810296463015569,
        -0.0888786411763138,
        -0.00003461095500838933,
        0.0000330477949228766,
        2.649412313695007e-7,
        -0.000023166171532336178,
        -0.03292179547110227,
        0.029322597640130225,
        -0.020057289415050958,
        0,
        0.0897169297912447,
        -0.0013603899562379266,
        -0.00027068846696925005,
        0.00019021904372408207,
        0.007577103251442192,
        0.06262309884305671,
        -0.055423802997709715,
        -0.07301952058279636,
        -0.04893222199290475,
        0.033751905900585064,
        -0.12846862797806374,
        -0.06697778589090025,
        -0.1797999775039449,
        0.0001681842046632897,
        0.0009726912182430935,
        0.0001842564468677186,
        0.0004961824398147769,
        0.0000419378829999421,
        0.00024334136420682773,
        0.00026698405583080445,
        0.00003497481448682711,
        0.000013017854013473025,
        0.0008346647630683498,
        0.0002536797864545901,
        0.00014316154732006204,
        0.0004892207755286029,
        0.00005045636627068061,
        0.000284581176175465,
        0.00018942070910286593,
        0.00023864871775783382,
        0.0005724110484924526,
        0.0004298362919607252,
        0.00018468050219161715,
        0.00014648790572304381,
        0.00011515844852725428,
        0.00012608419205051833,
        0.00033214105032187404,
        0.0005339632950816237,
        0.0003773565189525441,
        0.0001481821394991231,
        0.00012485932179514116,
        0.00013297532923318254,
        0.00012794650455415303,
        0.0002536223433236777,
        0.0005510794492300846,
        0.0004232812500609768,
        0.00011572705045582439,
        0.00013351864040954064,
        0.00014616097803340459,
        0.00015567278033129118,
        0.0002575425377315753,
        0.0005405016277024766,
        0.0003969057709142716,
        0.00016386293743595002,
        0.0001454911859009117,
        0.00011910878293284105,
        0.00011203872143275396,
        0.0002201970111618769,
        0.0008961664517782473,
        0.00003543670251804128,
        0.00008748293200307243,
        0.0000281378176414233,
        0.00026960490365985224,
        0.00010226838593970877,
        0.00048579731541241027,
        0.00022108634989741318,
        0.000262754182050312,
        0.00015477276015916577,
        0.00046940068629234915,
        0.0002548203715199033,
        0.0002622334075381027,
        -0.0000049024025173995755,
        0.000023825941926588278,
        0.00007818860771505184,
        -0.0005632116613220056,
        -0.0024817003751680423,
        0.0008324404847952125,
        0.00012882895648929423,
        -0.002079463615382052,
        -0.001615010675477533,
        0.0026982647123184123,
        0.004094771114977304,
        0.0003859338970987254,
        0.00017323061661216578,
        0.0005995428927640874,
        0.00009676837778089269,
        0.0005127529719368486,
        0.00007031758852851754,
        0.00004100558089669062,
        0.00006393314600025527,
        0.00005417571143640963,
        0.00019116554813811785,
        -0.00008936484300265429,
        0.0003420082177141313,
        0.0009610953475338408,
        -0.000050329515533708495,
        0.0001903114564522411,
        0.000047223507796431984,
        0.000026617929487292644,
        0.00004574465898429488,
        0.00001912672949700105,
        0.000003957479270777108,
        0.000060721760018638956,
        -0.00010502530860761432,
        -2.3473516964972604e-8,
        2.4562682742159476e-8,
        2.1635846321929612e-8,
        1.1347549922763367e-9,
        1.1799250288079827e-8,
        2.878077691068172e-8,
        3.057341615104666e-8,
        2.0796161298277264e-8,
        7.16299779876118e-9,
        3.795218842966288e-8,
        1.8163640323993147e-8,
        5.999842206226623e-9,
        2.9276927920817515e-8,
        -9.753683127010255e-9,
        5.170024266375811e-9,
        2.3019942047105585e-8
      ],
      [
        -0.03783117010035486,
        -0.025222101633260753,
        0.01595214471964388,
        0.26363648978083626,
        0.07942110076317861,
        -0.05125737501227871,
        0.037547503901554015,
        0.021957540282382133,
        0.03658387071262954,
        0.000951636481791984,
        -0.001028430942379467,
        -0.0016855493237034082,
        -0.0026558926553994252,
        -0.001647690411202778,
        0.000447249712231892,
        -0.0006569479399549532,
        -0.00032411191178781157,
        -0.00040980263968579367,
        -0.06527310942034528,
        0.13990525516746072,
        -0.044479035686984456,
        0.005728714540279436,
        -0.0009590142850332329,
        -0.003001525865029079,
        -0.0008109699448223227,
        -0.04385064159590103,
        0.003540439939800464,
        0.07689230234149755,
        -0.014810612757232668,
        0.014086225163812865,
        -0.03415883681183272,
        -0.038900706868613126,
        -0.01690704254805009,
        -0.014699091413891247,
        -0.01870319268916534,
        -0.03137132060076592,
        0.0013517360688763535,
        0.0013752840146265544,
        0.000007850715461349214,
        0.000030004789964263247,
        0.0009940689489257191,
        0.00038466841922024414,
        0.0003119553334466872,
        0.0017712674819596983,
        0.0076120132792356215,
        0.08973239722404351,
        -0.001989807010499446,
        0.000007568104527228356,
        -0.0786744259700053,
        3.039021261249359e-15,
        -0.09163550575842132,
        -0.08337814858270647,
        -0.008235902940802611,
        0.008527811490871838,
        0.08769802083587373,
        0.04365399028776337,
        -0.0004926246560274831,
        -0.00037049967907935724,
        -0.00035337208724970206,
        -0.0007642036873902081,
        -0.005217110019909375,
        -0.017765082161100655,
        0.07822969510991515,
        0,
        0.017870628088077822,
        -0.01229889673965586,
        0.0032931938561783017,
        0.001100980703188261,
        0.005625328714656733,
        0.02406924628381729,
        -0.29726366157693224,
        -0.00608698640596189,
        -0.040190151558985414,
        -0.17048219798399436,
        -0.17337586553734693,
        -0.13306877399210293,
        -0.13174917562559268,
        0.0021304638867780876,
        0.00855981915620563,
        0.0023748936688156048,
        0.007035169250790073,
        0.008357305454184482,
        0.006029620774634757,
        0.005534586219285732,
        0.0004507636650373038,
        0.0001818912763650891,
        0.0020266600213862786,
        0.000748643336681456,
        0.0003517870837027991,
        0.0012643972210861375,
        0.00007740723635151942,
        0.0005555826962729229,
        0.000382489861240573,
        0.0006014597165567559,
        0.0019453375352462133,
        0.0012668825062289264,
        0.0006163579152540181,
        0.0006846662990870879,
        0.00028664942390115575,
        0.0003576638970038982,
        0.0010175979369874434,
        0.0017913427398044246,
        0.0011684444971422543,
        0.0003956022901171544,
        0.0005497258573807723,
        0.00045778408355998573,
        0.0003882305087464818,
        0.0009417846501158467,
        0.001729537957606497,
        0.0011646217497045027,
        0.0002787107472391347,
        0.00045394651394993306,
        0.0004297454743005924,
        0.0005671352221167837,
        0.0009255674623922526,
        0.0016470715452276499,
        0.0011734367462459,
        0.0005027867092862946,
        0.0004947619231060052,
        0.0002596160199911447,
        0.00038990689284416967,
        0.0006079115180418901,
        0.0022164084423140313,
        0.00008008932511783426,
        0.00017431823359369676,
        0.00006424656732646233,
        0.0005491380867170013,
        0.0008634729548724543,
        0.0009040348131700573,
        0.0006436586566058892,
        0.0008439521660859441,
        0.0007789705635543098,
        0.0010709153048622643,
        0.0027426638722146315,
        0.00286297755753305,
        -0.0002495042796098111,
        -0.003194182702056904,
        0.0003611820319852125,
        -0.007554419408596079,
        0.002925459386966262,
        0.0003425528501656024,
        0.000013305834483825316,
        0.0013804558310921483,
        0.005858057277842536,
        0.0008354195889454029,
        0.0002555364926839131,
        0.003744605178055359,
        0.0003117846350357382,
        0.0008691299416215166,
        0.00007158974927874385,
        0.0009529109901000299,
        0.00022384294980617647,
        0.00009071179184975637,
        0.00016457550300688062,
        0.00024062875135559485,
        0.0005628097609895248,
        -0.0015982655600322853,
        0.004218963713342569,
        0.000048141634923450694,
        -0.0001773616784009124,
        0.0005610589426991785,
        0.0001184548641537848,
        0.00006517369667337714,
        0.00016891612926552338,
        0.00010374243259214281,
        0.0009362313845131782,
        -0.0006646298716366591,
        -0.00009864967645673322,
        -6.662706609576576e-7,
        7.220960418530778e-7,
        0.0000010148505801647484,
        4.204233144790312e-8,
        0.0000010167191920800748,
        0.0000010473459312660712,
        9.101504964793325e-7,
        6.977893910631432e-7,
        -5.29111432339516e-8,
        0.0000012826795281087549,
        7.124313355842065e-7,
        7.127276297823862e-7,
        0.0000013782098349260604,
        -8.846155949183786e-7,
        8.695700421912384e-8,
        6.158231963392033e-7
      ],
      [
        0.02963023420795704,
        0.04276974429766793,
        0.050008781702542957,
        0.14182132864186064,
        -0.018692366297282964,
        -0.0417189766562157,
        0.08511265497256935,
        -0.018744693804137524,
        -0.010131806439069245,
        -0.00009969446973889558,
        -0.0004329448734676422,
        -0.00027748237798691034,
        -0.0003563817383275967,
        -0.00014755355984011836,
        -0.00015009006555557645,
        -0.0001888021305663797,
        -0.00004040369869906933,
        0.000043603747696105594,
        0.038241692209082204,
        -0.002079064029601523,
        -0.07670602089950132,
        0.01268416732898201,
        0.0003395235902318609,
        0.0005585277291693206,
        -0.00009312165583012364,
        0.01565105378318626,
        0.07348344244754224,
        -0.015187335435587309,
        0.0046998121020754005,
        -0.00011373385262393305,
        0.012857151819000781,
        -0.04737451801944052,
        0.06901622050162554,
        0.03077571384494649,
        -0.05702537747503366,
        -0.05399931418609497,
        0.0001895062729249661,
        0.00019430455303052994,
        0.00003078918079782548,
        0.000027097945584963474,
        0.00015847059142949806,
        0.00008572318010816476,
        -0.00022242551285985978,
        -0.0021375639390174258,
        -0.00147672697054124,
        0.0635761192819397,
        0.023697213920343217,
        0.000047732764802268055,
        -0.036810355102644195,
        -1.1293100532610249e-17,
        -0.08946187301174259,
        -0.09580365647023369,
        -0.06279776435126613,
        -0.0062943661459786224,
        -0.07178881566590017,
        -0.09235376177257054,
        -0.00002077706780911134,
        0.000022835943618049662,
        -0.000010369953005752255,
        -0.000037020990236050006,
        -0.011329530938747343,
        0.012178380899749748,
        -0.0007613693224838959,
        0,
        -0.031198560998096016,
        -0.0011438678097992008,
        -0.00007752269370228911,
        0.00021732311457779778,
        0.07826368752409044,
        0.027785083778600107,
        -0.051366026776112614,
        -0.04088599552400018,
        -0.005276326799972254,
        -0.10188936656734011,
        -0.05263253126307621,
        -0.01665651307397545,
        0.01242043684813879,
        0.00015129031816096808,
        0.0010340192974624726,
        0.00012241883006269464,
        0.00047457277945806253,
        0.0004012501651526944,
        0.00011378137040152292,
        0.0001758391671524266,
        0.000029008841337976237,
        0.000010208614229404338,
        0.0004241819122359897,
        -0.000053585042014162416,
        0.00010103309125830796,
        0.0001931028352469259,
        0.000014443574081224304,
        0.00010637861844290839,
        0.00006943330632509301,
        0.0000978065515808028,
        0.00022025305611782413,
        0.00015723197631401962,
        0.00007782085742031863,
        0.00007469627382200862,
        0.0000267592149053758,
        0.00004097670997011484,
        0.00010749867929947215,
        0.0002048707631193284,
        0.00012788316917674268,
        0.000058412807532586755,
        0.00004958857885391491,
        0.00005236993162139664,
        0.000044499445111420414,
        0.00011922157607641864,
        0.0002169085589188703,
        0.00016072525269479954,
        0.000046145906977359494,
        0.000035457405111395245,
        0.00005880766800808706,
        0.0000764975788220197,
        0.00011580547681899738,
        0.00021575666095088154,
        0.0001530456020842149,
        0.00007232979395630672,
        0.00004483134956283666,
        0.000048395816306205526,
        0.00005019970112552661,
        0.00005910442355451983,
        0.0004000314119430552,
        0.000012397962430762432,
        0.000027853393556313815,
        0.000014695195154751101,
        0.00009864428309395882,
        0.00011047460864539956,
        0.0001062244568274333,
        0.00006979147323242853,
        0.00008410221934482533,
        0.0000653673406872515,
        0.00016394270185104604,
        0.000266028137798659,
        0.00026487459314496436,
        -0.00000936284997973144,
        -0.00007650800632362867,
        0.00010623269681827494,
        -0.0007067687127123763,
        -0.00126548224171522,
        0.0004457584226017987,
        0.00006747206941354728,
        -0.0011030673587466206,
        -0.0007335695898732301,
        0.0016476386202663076,
        0.0026864072445841715,
        0.00016123657914906455,
        0.000051389863767120125,
        0.00019362713030945456,
        0.000025894396681342677,
        0.00019216518234084194,
        0.00002805382612511246,
        0.000016001653048237718,
        0.00002436452991605389,
        0.000022199332939337553,
        0.00008645648665232109,
        -0.00014270850509388348,
        0.00031709252481758055,
        0.0006310639175040339,
        -0.000032860615220679916,
        0.00008596299518930166,
        0.000020294982777039588,
        0.000007043440242420473,
        0.000018377715837399587,
        0.000011334275594978549,
        -0.00015661315334670645,
        0.00010274988716120271,
        0.00002324492911801445,
        -1.0617895161815992e-8,
        1.0626882804866807e-8,
        1.3647698676998859e-8,
        1.277491058287676e-8,
        9.348357832216983e-9,
        -4.599843248951483e-9,
        6.334461994508636e-9,
        9.508785408334292e-9,
        -1.2300892933925517e-8,
        1.6139301759507365e-8,
        7.121567198485534e-9,
        3.8898541616840414e-8,
        2.5623704052367633e-8,
        5.611367850593325e-9,
        -4.681112166685402e-9,
        1.580893393009259e-8
      ],
      [
        0.005648562290326152,
        -0.013413899417689631,
        0.042129376965890655,
        0.022469335226615546,
        0.08152000524168483,
        0.0477002139255508,
        -0.10929435888441491,
        -0.05601758290408727,
        -0.02923996368200342,
        0.0010430041107723834,
        -0.0006309241313134842,
        -0.0016218448706182282,
        -0.0025119693686801456,
        -0.001919094488783003,
        0.00028662650065659,
        -0.000884723195467103,
        -0.00036298776424733485,
        -0.0005836785345968242,
        -0.0544154521633518,
        0.07363377116708542,
        0.07381444568578599,
        -0.004713476707452748,
        -0.002095401952108264,
        -0.005333540057000069,
        -0.00047014231165125043,
        0.018746115952499618,
        -0.036992271481669003,
        -0.0018434316085985875,
        -0.025756239635482205,
        0.01573137828761259,
        0.05538693080579281,
        0.030960389249451315,
        -0.021735281012979054,
        0.03837033788574937,
        -0.031349243599232864,
        -0.03789148957372451,
        0.0008261429877839197,
        0.0008893968978452998,
        -0.000045127506943274844,
        0.0000031155217831389744,
        0.0005602391411643947,
        0.0001583659324441502,
        0.00057811211181534,
        0.007327330971294435,
        0.013006605012208449,
        0.0135481181290643,
        0.08795440166084677,
        -0.00004122320923517268,
        -0.008539720353117031,
        1.626696166844498e-15,
        -0.030941527029248697,
        0.024989084702553864,
        0.06353453947920792,
        0.03190057681122279,
        0.01368165736960764,
        0.029506265498476666,
        -0.0004496165081562117,
        -0.00044974654172740035,
        -0.0004000418065887273,
        -0.0007620261982471287,
        -0.0613524542939661,
        0.05915529234062415,
        0.06817068446247113,
        0,
        0.02806886867452499,
        -0.010032023016584214,
        0.003950746984270602,
        0.0006629149210650789,
        -0.009863944859042077,
        0.034297740624722205,
        0.030796194767372498,
        -0.0681035275503994,
        0.019482349364600058,
        -0.07168410717217281,
        -0.06910244231011803,
        0.055014146248749604,
        -0.09641061285667027,
        0.0018139751362036666,
        0.006144870323033473,
        0.002024631242145404,
        0.006282614592319225,
        0.008279672696406105,
        0.006256446785343951,
        0.005631233521638165,
        0.00041219240207545076,
        0.00017052731257451612,
        0.0010729943528520684,
        0.0010160786467538813,
        0.00005753929613025499,
        0.00041891484928503953,
        0.000001977043340373626,
        0.00011712939420523056,
        0.0001300296260690184,
        0.0004269009600917055,
        0.0014123481542610275,
        0.0008858321360377106,
        0.0003929866155845018,
        0.00044608756265092397,
        0.0002698452179695499,
        0.00030342875805604964,
        0.0008144328133014731,
        0.0013567169889102777,
        0.0008427074916580905,
        0.00037021678127629895,
        0.0003596730391463219,
        0.00033353650929268707,
        0.0002932906591949519,
        0.0007052153967587887,
        0.0013824440517481392,
        0.0008466199270419341,
        0.0002971643910479796,
        0.00036021522476549267,
        0.0003501451742452603,
        0.0003749192616893933,
        0.0006562230289179466,
        0.0013752031635123332,
        0.0008446583538152835,
        0.00032672325962738194,
        0.00041983426307346525,
        0.00023564786415609438,
        0.0003929977766553802,
        0.0005795077348157245,
        0.0009522315049198217,
        0.00002373738206802679,
        0.00007022485800922368,
        0.000019638495588917395,
        0.00015685243136650937,
        0.0008432348985887294,
        0.0005494953638447542,
        0.00047023149567456665,
        0.0006542871103419449,
        0.0010268050047374405,
        0.00039641902917070634,
        0.002315732577597955,
        0.002490171948125997,
        -0.00024002753417500907,
        -0.0032473522953271293,
        0.000147243347336977,
        -0.006542321108902172,
        0.007257207363401188,
        -0.0010684968333155706,
        -0.00016346438901191263,
        0.0050498470121015954,
        0.00874923206585576,
        -0.003911937661602938,
        -0.007490083968554678,
        0.003531909126375852,
        0.00011466504051161913,
        0.00032073964439959554,
        0.000007692592308479758,
        0.0003617595770948794,
        0.00017189391020120683,
        0.00006068774219497315,
        0.00010327938655966158,
        0.0002180740524698139,
        0.00020931699510085133,
        -0.00145023338568003,
        0.003726062384894552,
        -0.0017701365772243667,
        -0.00007011995687152875,
        0.0003858068313059273,
        0.0000585689867687801,
        0.00006682703121791183,
        0.00015004074362242006,
        0.00008321371240450562,
        0.0011832024072537968,
        -0.000925082562084085,
        0.000034624533533946914,
        -4.818609281498794e-7,
        5.282864057252324e-7,
        3.013122503159424e-7,
        -2.3324733591072623e-8,
        6.901100476724674e-8,
        4.208557191343636e-7,
        5.626397793164847e-7,
        7.677984664860062e-8,
        3.3543356749461303e-7,
        7.20195056046575e-7,
        5.093399186919445e-7,
        1.8069479852666889e-7,
        2.5171451675712246e-7,
        -2.911203903307279e-7,
        2.7528130569413104e-7,
        3.0803791430789627e-7
      ],
      [
        0.04762023156609288,
        0.02300901374749951,
        -0.0005603275652224583,
        0.006401015880552163,
        -0.020700207701444286,
        0.01164304404649544,
        0.02609917019539524,
        0.0032580844563685854,
        -0.02533189235635311,
        -0.000802268309261817,
        0.0005472649804251274,
        0.0006429674394205404,
        0.0015424649135678372,
        0.0013309823564016706,
        -0.0006789746913805508,
        0.00042453347679496586,
        0.00006766457661909601,
        0.000324255091711193,
        0.05566011505053836,
        -0.03616843108501534,
        0.04802534669517575,
        0.0017725433582868708,
        0.0014284848476169513,
        0.003416036447447918,
        0.0004675012313672487,
        0.0010103575699895568,
        -0.003986732241601018,
        -0.03903370375249007,
        -0.07434135022831484,
        -0.009703584591500478,
        -0.06251955035634071,
        0.029683632826277055,
        -0.009478464532175018,
        0.007982759871496879,
        -0.032093324547079,
        -0.019271541040392526,
        -0.0009085665904021161,
        -0.000971757875562005,
        0.00002946555066006235,
        -0.00006589020486362221,
        -0.0005913259987680175,
        -0.00019280585028355415,
        -0.0003098891734764202,
        -0.0029039096899621695,
        -0.0077074599196698245,
        0.07886231958230508,
        -0.07241710137041323,
        0.00007884144870014072,
        0.053967791940786394,
        -2.483854116110611e-16,
        -0.05064249638870717,
        0.08566726104786662,
        0.06184032479471883,
        -0.0783918355295955,
        0.028859797965844144,
        0.017183852497719615,
        0.0003513286274608085,
        0.0002559295791117746,
        0.00023139361423869272,
        0.0005138150184524752,
        -0.047424325997333955,
        0.05178602689764328,
        -0.0540710004068344,
        0,
        -0.009796998014556815,
        0.007966658503239066,
        -0.0023691186597701403,
        -0.0006409846155135344,
        0.0418329300764699,
        0.05610279430235174,
        0.15303889372131335,
        -0.04596029510122118,
        -0.03408530168970392,
        0.05030632519008864,
        0.050978629742035285,
        0.12051994387911825,
        0.024498722639304794,
        -0.0012596196756372445,
        -0.004847119927019905,
        -0.0013975057554844038,
        -0.004256797639918131,
        -0.005572695276034138,
        -0.0040464697297968345,
        -0.0037016424088382373,
        -0.00029737147903655873,
        -0.00011817407737038921,
        -0.0010213285010758333,
        -0.0009961075612920202,
        -0.0000989175829024844,
        -0.0005582312903204995,
        -0.00003554079925813301,
        -0.0002620152454849761,
        -0.0002558238155480078,
        -0.0005266651536856531,
        -0.0012824029664649016,
        -0.0008276756966482743,
        -0.0003907372621521429,
        -0.00039332528209899654,
        -0.00018138491920863443,
        -0.00031695550300509396,
        -0.0007180320583877622,
        -0.0012327669724513809,
        -0.0007807269720382351,
        -0.00032313193416188434,
        -0.0003324554022458833,
        -0.0003138740893040166,
        -0.0002633055467395825,
        -0.0005810843689448151,
        -0.0012756858441603756,
        -0.0008184523661618074,
        -0.00029694649834565145,
        -0.0003408944597099726,
        -0.0002960334515477631,
        -0.0003418114345569535,
        -0.0005473696978123317,
        -0.0012569392636521844,
        -0.0008191459362614567,
        -0.0002706464631494094,
        -0.0003901764044530115,
        -0.00021153829334915648,
        -0.0003845781027005902,
        -0.0006040140095937933,
        -0.001008107794443968,
        -0.000026968744711997798,
        -0.00009686019262335365,
        -0.000027515320627108796,
        -0.00025946955470264717,
        -0.000646468977605476,
        -0.0006527712318336472,
        -0.0005080943847329198,
        -0.0005724719890928894,
        -0.0007812502289003078,
        -0.0005611558122503474,
        -0.0018174435148547593,
        -0.0019492651031881587,
        0.00017099481348106113,
        0.00208128680205472,
        -0.00012937733065709864,
        0.004922275524714922,
        -0.003899629470499867,
        0.00042126786462529456,
        0.00010137710801242198,
        -0.002462239661501913,
        -0.005227710785351565,
        0.0010785962420443763,
        0.0023482535075235503,
        -0.0023377742274162754,
        -0.00016882658419729485,
        -0.000519407992090094,
        -0.000034901129495626926,
        -0.0005234370584471263,
        -0.00014150364863439946,
        -0.000060432816786997595,
        -0.00009478503623731588,
        -0.00016638744735977291,
        -0.00021763929160198664,
        0.0010362833602853125,
        -0.0028583445888624897,
        0.0005582991785146915,
        0.00006052236613056144,
        -0.0003474621321719363,
        -0.00006182323805079387,
        -0.00007155299363332956,
        -0.00013035599564912363,
        -0.00005880300201579529,
        -0.0006091667268675199,
        0.00046406645571769796,
        -0.000026611515832003776,
        3.7656168987377787e-7,
        -2.27367761893181e-7,
        -3.4034646018371183e-7,
        -6.059380558789627e-8,
        -1.0469076881434335e-7,
        -2.3104194344899484e-7,
        -8.160145702880518e-7,
        -1.4013790114826318e-7,
        -2.2719296886096114e-7,
        -6.200320151365712e-7,
        -2.7951129244132817e-7,
        9.371159194284852e-8,
        -2.555306909436856e-7,
        5.595548448817832e-7,
        -1.8805409919891728e-7,
        -4.2956330565918376e-7
      ],
      [
        0.0031157580740417967,
        -0.02911433916541661,
        -0.16388967356133147,
        0.2738772295147714,
        -0.06550937005322999,
        -0.043495297441068635,
        0.03215843831346768,
        0.031505061382211125,
        0.009837363630768068,
        -0.0012138745114092823,
        0.0005357553039976873,
        0.0010645938072592954,
        0.002191705625045385,
        0.002006748151687603,
        -0.0004940430488414915,
        0.0006308320742157499,
        0.00012786692324594595,
        0.0006954794747995301,
        -0.16859913064809745,
        0.07749518326175563,
        -0.010778679967328314,
        0.02346434703105661,
        0.0042819655788904525,
        0.009832690678703309,
        0.0005383710804020984,
        0.12705844299163838,
        -0.008483917678774907,
        0.07661954182187002,
        0.07197492883300156,
        -0.015470709878325033,
        0.06005562784348617,
        0.06147116128312787,
        0.0027403400555942492,
        -0.06178778683394057,
        0.06478645439778272,
        0.03448831980079064,
        -0.00027094632548149125,
        -0.0011837218859684063,
        0.0002132162442391258,
        0.00015436646362135747,
        -0.00019576935514963446,
        0.00014338815611746348,
        -0.0008137339702344812,
        -0.010751736014954095,
        -0.01888607017714603,
        -0.02864797770390182,
        0.06938440859221981,
        -0.0001202816421078666,
        -0.024435461110788138,
        2.7988451973290097e-16,
        -0.09757320350650193,
        -0.05732065308618565,
        0.06612293686690913,
        0.067460281046748,
        -0.047404554576461456,
        0.050460544957739224,
        0.0004993373437038563,
        0.0005114582028121487,
        0.00042699201451947786,
        0.0007967431305810339,
        0.010928954536537605,
        -0.03243399532828039,
        0.10779578832592045,
        0,
        0.07480866888058745,
        0.009251898780525115,
        -0.0035355563118412664,
        -0.00040654118445454795,
        -0.0037048041621549174,
        0.007372284145181381,
        -0.27174707770572715,
        -0.22414449736323339,
        -0.13398630555635213,
        -0.11491451019715063,
        -0.281797259421039,
        -0.14376737764397798,
        -0.2311871345691982,
        -0.0014266467221241259,
        -0.004169415859143011,
        -0.0014797510542088781,
        -0.005119782171529667,
        -0.00825824686213242,
        -0.005758762219182254,
        -0.005096075068917089,
        -0.00038379991520112505,
        -0.00015227033443061295,
        0.0016050613320797657,
        -0.0018634515947495863,
        0.0001866840618521601,
        -0.00019304544997686765,
        0.00001854279411170897,
        0.00006312966363129704,
        -0.00032697279403932336,
        -0.0005919362397679549,
        -0.0005960076881448067,
        -0.0003654521570042705,
        -0.00004322491453861824,
        -0.00018968599089828875,
        -0.000362221418570909,
        -8.753641369844655e-7,
        -0.00041163098735775097,
        -0.0005091598017506988,
        -0.0003957276195649863,
        -0.000021141186524934986,
        -0.00023989582482518282,
        -0.00020207264394566705,
        -0.00004605014645490837,
        -0.0002583292241158575,
        -0.000500753547587283,
        -0.00018562545938831905,
        -0.00021774312569139496,
        -0.00013716439618358003,
        -0.00003801686786147173,
        -0.00010782915785083685,
        -0.00039397731298401907,
        -0.00043804877434152804,
        -0.0002563509257870127,
        -0.00006592294427538627,
        -0.0001243198297517647,
        0.0001324761431179693,
        -0.0003802821434323477,
        -0.0001572623643647257,
        0.0005274887024745815,
        -0.000014876890688594595,
        -0.000023216757261458817,
        0.0000023179816775880035,
        -0.00007758035195946643,
        -0.00044550028941012405,
        -0.000028653357035913748,
        -0.0006389877241025037,
        -0.00022829028122970662,
        -0.0003275393392824156,
        -0.00015883216609390667,
        -0.0022824188466570926,
        -0.0024975471166659305,
        0.0002502934794179052,
        0.003293358531247122,
        0.000037654893191437264,
        0.006335459439939981,
        -0.011248198710429168,
        0.002316352303395541,
        0.00032806331170450283,
        -0.00823137021167336,
        -0.011645233996062074,
        0.006913666250577239,
        0.011793896943638681,
        -0.0026245963369642827,
        0.0002107001567329062,
        0.001235532851362269,
        0.0004499786413623947,
        0.0004573845870270039,
        -0.00010552234585865967,
        -0.00004391626818932897,
        -0.00007714883285940807,
        -0.00008387387729421083,
        -0.00023059198080386015,
        0.0014374049749957874,
        -0.0037826230548147245,
        0.0027799194307268496,
        -0.00005258431327675047,
        -0.00008481799714636546,
        -0.0000035732937515945088,
        -0.000029118114037736615,
        -0.00005388685916056875,
        -0.000024768745122833193,
        -0.0012017775298559935,
        0.0009128106867963477,
        -0.00011523792992514765,
        0.0000013087460050753705,
        -0.0000016431427164030212,
        -0.0000014459904374748671,
        -1.0344942264561805e-7,
        -0.000001373813664884546,
        -0.0000016323219608029314,
        -0.000003242182005055448,
        -0.000001814499616208247,
        -5.3609536839211054e-8,
        -0.0000027944507386028388,
        -0.000001983918624463348,
        -4.37389032945185e-7,
        -0.000003130636216662128,
        0.0000010235947955338314,
        -4.815741150976179e-7,
        -0.0000010019579682698352
      ],
      [
        -0.018592614176844456,
        -0.1328327553086979,
        -0.09425077280295112,
        0.10779247976105295,
        -0.000572079376688512,
        0.07623983026059522,
        0.0077142387747424785,
        0.06485878269366274,
        0.0697993232968787,
        -0.00046720052317270484,
        0.00048467483991414067,
        0.0009736194094148088,
        0.001357251786621092,
        0.0012199974617023565,
        0.0003713823944749192,
        0.0007685194307065726,
        0.000221783505654897,
        0.0003939137552187719,
        -0.066329985951331,
        0.011589838956595754,
        -0.05666928748562489,
        0.02217776765374142,
        0.0023242385996655713,
        0.004863933323147513,
        0.0001873496224369304,
        0.012104458258875328,
        0.010913138545030761,
        0.06644815961805595,
        0.07265857009129867,
        -0.007873856932153768,
        -0.081184742315053,
        -0.046026717882673276,
        0.01653881305835626,
        -0.08234032787437776,
        0.03169517880652883,
        0.04641831535748439,
        -0.0000869665098109269,
        -0.00027976495970868405,
        0.00005407868850626802,
        0.00004778187292877232,
        -0.000059315470699127784,
        0.00003910450767254696,
        -0.0001531448850402045,
        -0.006054962078330892,
        -0.010554717022097482,
        -0.017404075063206355,
        -0.054766443673943656,
        -0.00005901613175382367,
        -0.05037322621571238,
        -1.35498827243974e-16,
        0.021401354415338684,
        0.030175165270450728,
        -0.02797485717060137,
        -0.055465064113693174,
        -0.014560954455589834,
        -0.06923734043242265,
        0.00021475337254002114,
        0.00026230792994418837,
        0.000259881146205961,
        0.00039016531929796767,
        -0.031413475133612916,
        0.023170208383906127,
        -0.023940573201486452,
        0,
        0.09982029652203632,
        0.00385815036854063,
        -0.0018268565766435129,
        -0.00011398621245253416,
        0.013452578042560493,
        -0.038165991683837934,
        -0.2247636397456249,
        -0.02064106942533977,
        -0.05529915495367493,
        -0.06725899334888377,
        -0.1046001793085553,
        -0.0323033914547474,
        -0.09552447619216996,
        -0.0006511292698727791,
        -0.0013798632369339617,
        -0.0007320430651198646,
        -0.00245458355638544,
        -0.0037994763463823607,
        -0.00302223600457189,
        -0.0026989338249581146,
        -0.00018382899297306413,
        -0.00007677176017165296,
        0.0005154303071036728,
        -0.0004296091751098264,
        0.00011530970144763478,
        0.00007778096182861338,
        0.000021071574685983912,
        0.00011258674998616778,
        -0.000021630920627118418,
        -0.00009618912035198394,
        -0.00026743557926207733,
        -0.00014034514075250156,
        -0.00004109646694640491,
        -0.00008323688193627173,
        -0.00009156407169948071,
        -0.000051538158679917195,
        -0.0001717307284413516,
        -0.0002687459717320156,
        -0.00016344788704913735,
        -0.00003729258714937438,
        -0.00008477417887439235,
        -0.00009280112271976727,
        -0.000053878082988478694,
        -0.00013792190295621365,
        -0.00025809425040325824,
        -0.0001011889332339437,
        -0.00007703663891423749,
        -0.00007487057411233586,
        -0.0000548377263034758,
        -0.000051349311073202434,
        -0.00014847461192615024,
        -0.0002533000422994527,
        -0.00012616847799065507,
        -0.000038553147867549485,
        -0.00007650784041856915,
        -0.00001454280056567927,
        -0.0001236962534476495,
        -0.0001300253580689078,
        0.0002909287470354732,
        0.000009220134255149176,
        0.000015182881821427644,
        0.000009924299557613974,
        0.0000696040900410789,
        -0.0001163849100925278,
        -0.00008527856345126121,
        -0.00014041913936676877,
        -0.000129967754644833,
        -0.00028855563395188677,
        0.00009413317377542682,
        -0.0009641991854600874,
        -0.0010855795013469136,
        0.00010222051450829948,
        0.0017117901222549726,
        0.00003719266248642889,
        0.0028570622305327128,
        -0.006469040486273284,
        0.001423843231766237,
        0.00015332374643950398,
        -0.004888031554753952,
        -0.0063238286892715176,
        0.004252620156517199,
        0.007485550913269658,
        -0.0012481120079166142,
        0.000054145836936582664,
        0.00045675762018519033,
        0.00009538651750854754,
        0.0003361799640552824,
        -0.00002914819828818257,
        2.0563220693151205e-8,
        -0.0000032071968471263105,
        -0.00005909338685060691,
        0.000023189774066776556,
        0.0006775871096220627,
        -0.001571005280640357,
        0.0017629908732909665,
        -0.000027115950266068528,
        -0.0000040665865955389865,
        0.000006722070829453764,
        -0.0000201108759799247,
        -0.00003499677628178406,
        -0.000014885900301859128,
        -0.0007437715249267871,
        0.0005229686378924173,
        0.000014887375231447205,
        1.8158325127060585e-7,
        -2.0848424686215259e-7,
        -2.2799665914470087e-7,
        -1.0044964224739985e-7,
        -2.1870028147120666e-7,
        -3.1589191704918416e-7,
        -4.638465455840793e-7,
        -2.8332916402347183e-7,
        -4.574513028125418e-8,
        -3.6572123002507195e-7,
        -3.038092334167927e-7,
        -4.432374278688839e-8,
        -4.554776640400173e-7,
        1.981512306835139e-7,
        -5.772512662748595e-8,
        -1.662534856786613e-7
      ],
      [
        -0.06115841028605976,
        -0.02678033393845176,
        0.07497424888273325,
        0.038726186531142244,
        0.07181901308656781,
        -0.013490723815163603,
        0.010691808085281805,
        0.015840205095265427,
        -0.016519778873313944,
        0.001074396431744085,
        -0.0006853300566286618,
        -0.0013499115424779474,
        -0.002296447896314297,
        -0.0018252828591284738,
        0.00024257904952531165,
        -0.0009005848081406017,
        -0.00030886618273664665,
        -0.0005636824025445071,
        0.00929684091249508,
        -0.057652610091211795,
        0.02486316378784998,
        0.013727663833325283,
        -0.002802917055071002,
        -0.006170675477720186,
        -0.00026927398996565686,
        0.0016536002481328984,
        0.07312450081332962,
        -0.03441963835896029,
        0.005955923178109033,
        0.01466688702024785,
        0.006727343986371689,
        0.037203091642203555,
        0.055047110323268506,
        0.03293490197465333,
        -0.04247693835858284,
        -0.042398831171362866,
        0.0008255055267319491,
        0.0009218789371607652,
        0.000010871386754009721,
        0.000003912855833848717,
        0.0005011186182138479,
        0.0001538714182440444,
        0.0004981740318676409,
        0.0069719902438552086,
        0.013788989764527837,
        -0.048444783510716204,
        -0.020513159933269402,
        0.00006477116195696445,
        0.09118846675909267,
        1.5783566679261049e-15,
        0.005605374560140271,
        -0.022960823163729882,
        0.044865194174413606,
        0.024824945527869676,
        0.06506101236768944,
        -0.02955748844784698,
        -0.0004513827770505139,
        -0.00040216857770034053,
        -0.0003784702479997337,
        -0.0007094663384701332,
        -0.002885419322822666,
        0.014161890547027347,
        0.021604920067311323,
        0,
        -0.031110675025191107,
        -0.009467189609409279,
        0.0035679431513454944,
        0.0006576766177326731,
        -0.03909533325877801,
        -0.020458425706920334,
        0.07541564865051636,
        -0.0709271015553982,
        0.05919378717105682,
        0.08250355161554093,
        -0.05746721163446381,
        0.028889523576166497,
        0.022162460085587383,
        0.0017434414805217319,
        0.005833956369721906,
        0.0020304588784894,
        0.005999064969869583,
        0.007819697492026037,
        0.00582411530682308,
        0.005352233813802673,
        0.0004043453178954863,
        0.00016629132736517528,
        0.00021446315060661203,
        0.0007726615050089059,
        0.000277642530863122,
        0.000658869221147984,
        0.00007000527261427963,
        0.0002650246532614518,
        0.00028581943740441166,
        0.000636175641918024,
        0.0013797915513183913,
        0.00087093630482866,
        0.0003755068477140205,
        0.0003682587068484067,
        0.0002877602932724712,
        0.0003482657034834163,
        0.0007720572239499267,
        0.001348079221149771,
        0.0008180846993677387,
        0.00031038439661887297,
        0.0003823845804407271,
        0.00035591135173805783,
        0.00029939889235204857,
        0.0006885911241778748,
        0.001367563008521038,
        0.000840787930937728,
        0.00032350947848867504,
        0.0003765033499775686,
        0.00039587462771352927,
        0.00027167555234119755,
        0.0006295562409127434,
        0.001351116785970258,
        0.0007745776398268856,
        0.00028496002643999875,
        0.00037241642345073734,
        0.00025449749890815,
        0.00043924283717129963,
        0.0005854404003486599,
        0.0005732238524387838,
        0.000041374988951377327,
        0.00007435386020815725,
        0.00004009006160721082,
        0.00025858832242003053,
        0.0008072744797714739,
        0.0005198529438646401,
        0.0006408756654089838,
        0.0005922830436674328,
        0.0008565251450208381,
        0.0005098191351665365,
        0.0022326257982697695,
        0.0024221367657676156,
        -0.000205788253303071,
        -0.0030312101459460416,
        0.00010047569833953925,
        -0.006323716514686777,
        0.007750614303717571,
        -0.0012870010958571701,
        -0.000167578313542419,
        0.005477762611842191,
        0.008861950440595498,
        -0.003906940373247473,
        -0.007439062439948191,
        0.0030514959783304882,
        0.00009408045545062987,
        0.00028591298386427026,
        -0.000004070633996819774,
        0.00033760253059725884,
        0.00016009101390115525,
        0.00006217046940089894,
        0.0000971654296111389,
        0.00020350058517803733,
        0.0002377947675786595,
        -0.0013844337263118568,
        0.0035013686306859405,
        -0.0017556970209491216,
        -0.00006549870370029734,
        0.00034939327348112504,
        0.00006648727458914626,
        0.00006456438397293568,
        0.00014397901483916885,
        0.00007941463086623381,
        0.001140883475453839,
        -0.0008089208397946783,
        -0.00006235662061297469,
        -3.081261884647281e-7,
        -3.2140732832857587e-9,
        2.056474462357331e-7,
        -1.4605529904144487e-8,
        2.6092363810780167e-7,
        -9.865223749948735e-8,
        6.6387523419308e-7,
        2.431138394601179e-7,
        6.747123226686618e-8,
        3.565124175781372e-7,
        2.690131112866517e-7,
        2.9656373846555224e-7,
        5.626660094033054e-7,
        -1.285115449947448e-7,
        -5.251729575761054e-8,
        2.983254937879919e-7
      ],
      [
        0.016066551594960746,
        0.09193604898492246,
        0.14586580860266077,
        -0.12654103987773468,
        -0.0015891790356683786,
        0.08477118248605897,
        0.011575317505483783,
        0.0009428032422744492,
        0.05216468323882219,
        0.0005258673515201353,
        -0.00032673063177047335,
        -0.000692591870917218,
        -0.0010852744272889904,
        -0.001001410890305663,
        -0.0002895213112551922,
        -0.0004264466802433463,
        -0.00011513014651326996,
        -0.00041124188442030735,
        0.052081030042246984,
        -0.05328300556350228,
        -0.06952879540721169,
        -0.04161445406207913,
        -0.0023278241036343984,
        -0.006065440063377539,
        0.0000014437877731647958,
        -0.08044454957742049,
        -0.03175264058055807,
        -0.050549346646999234,
        -0.07014102612313207,
        0.008614437543556463,
        -0.06919381923812583,
        0.0731178463830668,
        0.025848846135188758,
        0.04106820921484243,
        -0.05717690151616992,
        0.06059773797318726,
        -0.0003230522107605007,
        0.00009245809562127068,
        -0.0000622556815849182,
        -0.00012479101425469523,
        -0.00023409308419609364,
        -0.00015312676135044703,
        0.0005340184970314233,
        0.007524478205456647,
        0.01131341067223774,
        0.015451762829456879,
        0.027531248424549563,
        0.000014653047036170838,
        -0.04484625348597637,
        -1.8322870779972874e-16,
        0.05466381865490716,
        0.06602947534911305,
        -0.03427894779527118,
        -0.03712553801796287,
        0.01271209383550614,
        0.07557534007562206,
        -0.0001943436692944356,
        -0.00024140751470352228,
        -0.000261315660068207,
        -0.00038345238778965797,
        0.02886760959108544,
        -0.023681284129016135,
        0.04468707281360269,
        0,
        -0.132252641665314,
        -0.003198046495026204,
        0.002191686241326434,
        0.00007221739182889622,
        -0.0015076435520603628,
        -0.09483254810061292,
        0.3391825156858084,
        0.03960114202134566,
        -0.021330448232416463,
        0.14125261354959137,
        0.10603581949606332,
        0.24215837868124113,
        0.28985213271848015,
        0.0006618805708788016,
        0.0012069115528402802,
        0.0008359779479163708,
        0.0024146876650902828,
        0.004178002226644358,
        0.0029915040522661587,
        0.0026692328729577565,
        0.0001857399498110726,
        0.0000713083762798487,
        -0.0014517609684635752,
        0.0005801279142283468,
        -0.00027948476254978073,
        -0.00038012409136404276,
        -0.00006633245209508786,
        -0.00031817509940913497,
        -0.000022039240360387257,
        0.00015519511047666515,
