{
  "featureNames": [
    "bias",
    "move.c2c",
    "move.c2s",
    "move.s2s",
    "move.cycle",
    "move.flipDeck",
    "source.pounce",
    "source.deck",
    "source.solitaire",
    "source.stackHeight",
    "source.bottomValue",
    "source.exposesCard",
    "source.exposedValue",
    "source.exposedCenterPlayable",
    "source.exposedCanPlaySoon",
    "source.exposedMatchesPounceParity",
    "source.exposedPounceConnectorCloseness",
    "source.exposedOwnSolitaireDestinationCount",
    "dest.center",
    "dest.solitaire",
    "card.value",
    "card.isRed",
    "card.stackParity",
    "card.matchesPounceParity",
    "card.pounceConnectorCloseness",
    "card.isAce",
    "card.isFace",
    "dest.isEmpty",
    "dest.topValue",
    "dest.bottomValue",
    "dest.stackHeight",
    "dest.centerHeight",
    "move.cardCount",
    "own.pounceCount",
    "own.deckCount",
    "own.flippedCount",
    "own.playedDeckCardThisCycle",
    "own.wasteCanPlaySoon",
    "own.wasteOwnSolitaireDestinationCount",
    "own.wasteOwnSolitaireConnectorForPounce",
    "own.wasteMatchesPounceParity",
    "own.wastePounceConnectorCloseness",
    "cycle.resetsWaste",
    "cycle.stockFractionAfter",
    "cycle.cardsAdvanced",
    "own.emptyStackCount",
    "own.currentPoints",
    "own.pointDifferential",
    "board.ticksSinceMove",
    "board.ticksSinceNonWaitMove",
    "move.immediatePointDelta",
    "move.immediatePointDifferentialDelta",
    "move.clearsPounce",
    "center.ownCanFollowAfter",
    "center.opponentsCanFollowAfter",
    "center.opponentsCanPlaySameNow",
    "center.opponentPounceCanFollowAfter",
    "center.opponentDeckCanFollowAfter",
    "center.opponentStackCanFollowAfter",
    "center.opponentPounceCanPlaySameNow",
    "player.index",
    "player.botIndex",
    "board.playerCount",
    "board.isHeadsUp",
    "card.canPlaySoon",
    "card.centerPlayableDestinationCount",
    "card.ownSolitaireDestinationCount",
    "card.ownSolitaireConnectorForPounce",
    "center.ownCanFollowSoonAfter",
    "center.opponentsCanFollowSoonAfter",
    "solitaire.isTuck",
    "solitaire.deckMoveHelpful",
    "solitaire.destTopCanPlaySoon",
    "solitaire.makesPouncePlayable",
    "solitaire.exposesCenterPlayable",
    "solitaire.exposesCanPlaySoon",
    "solitaire.movesFullStack",
    "solitaire.postTopConnectorCount",
    "solitaire.postTopConnectorCloseness",
    "solitaire.postTopConnectsPounce",
    "solitaire.postTopConnectsStackRoot",
    "solitaire.deckStockFraction",
    "solitaire.sourceCenterLowerDistance",
    "solitaire.destTopCenterLowerDistance",
    "solitaire.sourceCenterAboveCount",
    "solitaire.destTopCenterAboveCount",
    "own.pounceCenterPlayable",
    "own.deckCenterPlayable",
    "own.stackCenterPlayableCount",
    "own.stackTopCanPlaySoonCount",
    "own.stackNextCenterPlayableCount",
    "own.stackNextCanPlaySoonCount",
    "own.stackNextPounceConnectorCloseness",
    "own.stackBottomPounceConnectorCloseness",
    "own.stack0BottomPresent",
    "own.stack0BottomValue",
    "own.stack0BottomSuitHearts",
    "own.stack0BottomSuitSpades",
    "own.stack0BottomSuitDiamonds",
    "own.stack0BottomSuitClubs",
    "own.stack0BottomStackParity",
    "own.stack1BottomPresent",
    "own.stack1BottomValue",
    "own.stack1BottomSuitHearts",
    "own.stack1BottomSuitSpades",
    "own.stack1BottomSuitDiamonds",
    "own.stack1BottomSuitClubs",
    "own.stack1BottomStackParity",
    "own.stack2BottomPresent",
    "own.stack2BottomValue",
    "own.stack2BottomSuitHearts",
    "own.stack2BottomSuitSpades",
    "own.stack2BottomSuitDiamonds",
    "own.stack2BottomSuitClubs",
    "own.stack2BottomStackParity",
    "own.stack3BottomPresent",
    "own.stack3BottomValue",
    "own.stack3BottomSuitHearts",
    "own.stack3BottomSuitSpades",
    "own.stack3BottomSuitDiamonds",
    "own.stack3BottomSuitClubs",
    "own.stack3BottomStackParity",
    "own.pounceCanPlaySoon",
    "opponent.pounceCenterPlayableCount",
    "opponent.deckCenterPlayableCount",
    "opponent.stackCenterPlayableCount",
    "opponent.pounceCanPlaySoonCount",
    "own.stockFraction",
    "own.wasteFraction",
    "own.pounceValue",
    "own.pounceStackParity",
    "opponent.minPounceCount",
    "opponent.maxPouncePressure",
    "center.ownPounceCanFollowAfter",
    "center.ownDeckCanFollowAfter",
    "center.ownStackCanFollowAfter",
    "center.opponentFollowPressureAfter",
    "center.opponentPounceFollowPressureAfter",
    "center.opponentSameNowPressure",
    "cycle.ownPounceCount",
    "cycle.ownCurrentPoints",
    "cycle.ownPointDifferential",
    "cycle.opponentMinPounceCount",
    "cycle.opponentMaxPouncePressure",
    "move.wait",
    "move.premove",
    "card.centerDistance",
    "own.wasteCenterDistance",
    "own.handHoldingCard",
    "own.handCenterDistance",
    "own.handCanPlaySoon",
    "opponent.handVisibleCount",
    "opponent.handCenterPlayableCount",
    "opponent.handCanPlaySoonCount",
    "opponent.handMinCenterDistance",
    "opponent.handMaxPouncePressure",
    "center.opponentHandCanFollowAfter",
    "center.opponentHandCanPlaySameNow",
    "premove.centerDistance",
    "stuck.noVisibleCenterMoves",
    "stuck.ownVisibleCenterPlayableCount",
    "stuck.opponentVisibleCenterPlayableCount",
    "stuck.ownClosestCenterDistance",
    "stuck.opponentClosestCenterDistance",
    "stuck.closestCenterDistanceAdvantage",
    "stuck.moveCycleLike",
    "stuck.movePremove",
    "stuck.moveSolitaire"
  ],
  "inputSize": 168,
  "hiddenLayerSizes": [
    192
  ],
  "layerWeights": [
    [
      [
        0.007611273139761962,
        -0.015425208229494164,
        -0.01885560189987039,
        0.09472164556492757,
        0.0056759805716129885,
        -0.011372350476829603,
        -0.06414608366532208,
        -0.018634935989917695,
        -0.01744914064295552,
        0.00019888378364168834,
        -0.00008547204537995515,
        -0.0005558453754448059,
        -0.0005501935491024118,
        -0.00033194524719016915,
        -0.0001258922825515658,
        -0.00021571987008629778,
        -0.00010918851478835556,
        -0.00011431590931296544,
        -0.07935370649004468,
        0.04483730793300439,
        0.0536048702102019,
        -0.006722119094768888,
        -0.0000922699058579322,
        -0.00024718147108633554,
        0.00009063137481789546,
        0.006651754216122541,
        0.02095168683586279,
        0.04140700670187935,
        -0.0014055121156205774,
        0.0030677733990628012,
        -0.0397153654861413,
        0.031087001628992496,
        0.10700890408364996,
        0.004084787118915443,
        -0.05656301124547835,
        -0.06360467052449337,
        0.00027491906663063286,
        0.0001510123706121104,
        -0.000011024997559207693,
        -0.00003474015132791671,
        0.00018726765168288842,
        0.0000745107401898314,
        0.00012344217684287246,
        0.001419515896099444,
        0.0021945996777836116,
        0.06759989910306452,
        -0.0026165069362647213,
        0.0000178385710480356,
        -0.04231943803757774,
        0,
        0.0239127847589163,
        0.002449693040685959,
        -0.02889882017320308,
        0.02612732026198593,
        -0.06878137679151161,
        0.013707754471555676,
        -0.00008806858481824822,
        -0.0000697364401480149,
        -0.00005305067084941695,
        -0.00012851326044171745,
        -0.0496856443327212,
        0.04191480451579069,
        -0.02766695805037709,
        0,
        0.07985916334039858,
        -0.0018044912862861162,
        0.0007162872494981427,
        0.00013287568075100956,
        0.004120282620207541,
        -0.054822849779259344,
        -0.055388180670664186,
        -0.10677775319867863,
        0.0063429127923682604,
        -0.09985507958690966,
        -0.08326571173836775,
        -0.14393905722254383,
        -0.06853180666162785,
        0.000445142894497556,
        0.0014708950022223836,
        0.0006309757974772271,
        0.0014287417609398707,
        0.0014214959264601222,
        0.0013128891603943582,
        0.0012095766859241972,
        0.00008291324227744752,
        0.00003688367507822186,
        0.000531402974648236,
        0.00019347310672191093,
        0.000043612184007605534,
        0.00015258462557937285,
        0.00000495256888756598,
        0.00004878590742499995,
        -0.000013309527212466923,
        0.0000961591509649386,
        0.00046955317411283325,
        0.00028909144814098266,
        0.00017363405783734847,
        0.00011326435232387365,
        0.00007503896149051135,
        0.00010761580246109068,
        0.000256749125510077,
        0.00044739614163968113,
        0.00027032476610898735,
        0.00013126766230049826,
        0.00010512842487714353,
        0.00010892807951943936,
        0.00010207197494259221,
        0.00028226690846881784,
        0.0004378511815124177,
        0.00027534376574388654,
        0.00009476385317159773,
        0.00011143517829157617,
        0.00011611041009254546,
        0.00011554173995669078,
        0.0001906821245872491,
        0.0004346084458200707,
        0.0002637310679053215,
        0.00011435018182762025,
        0.00012666066255338424,
        0.00009805154140302621,
        0.00009554606003603227,
        0.00020861781137242443,
        0.00038457704738795016,
        0.0000063789200072422085,
        0.00002326446038194102,
        0.000006730226958289373,
        0.000051636598078281885,
        0.0002487904205813239,
        0.0001900572545601386,
        0.0001017130453163339,
        0.00021770181103942827,
        0.0003142102305206186,
        0.0001350238983392618,
        0.0003765868541457789,
        0.00044987454581261625,
        -0.00004158352055006666,
        -0.0005450155930011303,
        0.00001069733910515906,
        -0.001136809592322606,
        0.0010443760808064439,
        -0.000082139748957445,
        0.0000028395734856285803,
        0.0007224264491919575,
        0.0014193960682733874,
        -0.0004691177513694926,
        -0.0012218665949228606,
        0.000760771663863916,
        0.00006501234115824184,
        0.00019698590910884376,
        0.000015698470863529158,
        0.00019122410487055423,
        0.000047396973150467576,
        0.00001836591136029234,
        0.00002861040771742643,
        0.00005861786961064221,
        0.000056983389626821813,
        -0.00021027232716581862,
        0.0006100733831922917,
        -0.00028999670185630045,
        -0.00002249343563277259,
        0.00012718388704507016,
        0.000017486960138980442,
        0.00001925116438039275,
        0.00004594062374290712,
        0.000026689459362513124,
        0.00038815489020631777,
        -0.00022826918202712728,
        -0.00010346675379850074
      ],
      [
        -0.03605628532961544,
        -0.13092202683901796,
        -0.11660294036710511,
        0.2877073005602472,
        0.04167329277924404,
        0.03784387032789937,
        -0.03654458926581427,
        0.005526126864789081,
        -0.004003720702395622,
        -0.0006168777292191425,
        0.00043401108427452946,
        0.0007260750961235919,
        0.0013158832702791644,
        0.0014533207480855802,
        0.00032707618019311296,
        0.0007554893101670099,
        0.0001094034950051207,
        0.000529397204460742,
        -0.0936139219494153,
        0.18033528040822566,
        0.11427099764389853,
        0.005288509877287438,
        0.004093925155852254,
        0.0077927931467786345,
        0.00007721071481092051,
        0.09705142976335376,
        0.056224022148384005,
        0.13269159482148443,
        0.009865138301065435,
        -0.009363361519722042,
        -0.045230969331966873,
        -0.04396247555924795,
        -0.03527602006930997,
        0.013446418698687351,
        0.011199301528999022,
        0.003989472876477112,
        0.00021819997540688097,
        -0.00040919281147908766,
        0.00006307314900989424,
        0.00006094760132683504,
        -0.000051737580041363197,
        0.000053079361795442974,
        -0.00025181293209274833,
        -0.008870934490010335,
        -0.01518386614286044,
        0.13099142957450605,
        0.10878731029988692,
        -0.000009613897115202801,
        0.029709330072015053,
        0,
        -0.08022120846481037,
        -0.06436864231860814,
        -0.043321189228895614,
        0.010721455766876425,
        0.046450779070089016,
        -0.000978794210799982,
        0.0002591470861291926,
        0.0003297170120296017,
        0.0003212213746129285,
        0.0004672362733373682,
        -0.022038148888707844,
        -0.024429149660138025,
        0.005982453493961972,
        0,
        0.17713851229379785,
        0.0039029258667695062,
        -0.002156461732433102,
        -0.00002682719440075435,
        0.051849233383003096,
        -0.057589809057798556,
        -0.39037242588796567,
        -0.21096321868278245,
        -0.1451722011015323,
        -0.08363609033114067,
        -0.1781163939216523,
        -0.31173540448742787,
        -0.41195955909412396,
        -0.0005763011147531829,
        -0.0006075016096519746,
        -0.0005597785254510746,
        -0.002344102104085148,
        -0.0045425941899783825,
        -0.0032956281262345394,
        -0.0028814547658023593,
        -0.00018530302388996178,
        -0.00007504958844648726,
        0.002323441377839879,
        -0.0009634959029784361,
        0.00036145467456230064,
        0.00031213085482969833,
        0.000026365732652282154,
        0.00019178716238649516,
        -0.00024211076629072575,
        -0.00037991050542485183,
        0.00016015558690678824,
        0.00012596839212073252,
        0.0001572878650767853,
        0.00004174756700515274,
        -0.00009063105583249842,
        0.00005175121065736686,
        0.000132308488860992,
        0.00015041654976038094,
        0.00008583728792857498,
        0.00008218333841509035,
        -0.000165408008299611,
        0.00008109447774787973,
        0.0001525467418970458,
        0.00007888773078787312,
        0.00021226605430574468,
        0.00024476567954919483,
        0.000019095345724484427,
        -0.00006396229135824563,
        0.00013941021146558218,
        0.00011772278847394297,
        0.000029831036434272187,
        0.00024382098977995478,
        0.00018924774237982046,
        0.0000957068060885749,
        0.0001392156457970095,
        0.00011886865873078899,
        -0.00010997012083640233,
        0.00007663291676087372,
        0.0012566401631543315,
        0.000017292395726550866,
        0.00003460509103927532,
        0.000026951744706677564,
        0.000143134160563183,
        -0.0000770681636396415,
        0.0001713161569647122,
        -0.0004657678834538696,
        0.00016452934785137738,
        -0.00010278554668763215,
        0.0002134530016804367,
        -0.0011029965835082473,
        -0.0012354600869027327,
        0.00010372966589257613,
        0.00196975661611987,
        0.00014980898584561022,
        0.0031673460447053884,
        -0.009692215948262774,
        0.0023835864926653543,
        0.0002949159947623576,
        -0.007423339322301733,
        -0.008819241866665339,
        0.006853459881016136,
        0.011109180716241162,
        -0.0011510576578496788,
        0.00014330855248488635,
        0.0012650483108977858,
        0.0002344642997198248,
        0.0009497942652556138,
        0.000008613085231947397,
        0.000020910834917602274,
        0.000022288183393429668,
        -0.000005957392556803744,
        0.0000803000964146373,
        0.0007934449103675955,
        -0.0018274475726282723,
        0.002607792218107917,
        -0.00012697688744075958,
        0.00023011659608682377,
        0.00004404486758203511,
        -0.00002855526746341035,
        0.000008307506230002892,
        0.00003686277369341413,
        -0.000760991382050236,
        0.0005715212656659419,
        -0.0001346966743877747
      ],
      [
        -0.016842756918726706,
        0.0838265766460222,
        0.061517154146957416,
        -0.17209744918225228,
        0.02959844918885495,
        0.04114304531395593,
        -0.0010458282305952635,
        -0.020359414017533814,
        -0.047002935927567706,
        0.001273338444646713,
        -0.0005239717988813282,
        -0.0009722846477332043,
        -0.002181211083055585,
        -0.0020884618448839937,
        0.0004058341014331645,
        -0.0008133492995643857,
        -0.00011678100860688646,
        -0.0006968428351642846,
        0.04797939019105071,
        -0.052453700123309674,
        -0.0711510749362432,
        -0.004669158013081811,
        -0.004410966639238726,
        -0.009509214994604559,
        -0.00023376832746882197,
        -0.108863797180705,
        0.02171630872065118,
        -0.04992189961165477,
        -0.004682884445131222,
        0.01598265562403865,
        -0.042011584112263585,
        0.028971124995343853,
        0.03929255688199578,
        0.05035126143386475,
        0.026242235294229786,
        0.056367073730295085,
        0.00045507310349188234,
        0.0007034167774551352,
        -0.00005146949801902231,
        -0.000057900087587175303,
        0.00035595444787007557,
        0.000030013492683313586,
        0.0006864913388744513,
        0.010095454085732149,
        0.01872272485102034,
        -0.008566573176808598,
        0.018087863171369897,
        0.000008125552716268546,
        -0.023017280834602485,
        0,
        -0.034579801200225364,
        0.06424064685404333,
        -0.01773297450981532,
        -0.046376921220148234,
        0.027096698300581097,
        -0.026415387985480026,
        -0.0005032217301855057,
        -0.0004596582582471272,
        -0.0004353046991053253,
        -0.0007815583799882512,
        -0.03318327205611881,
        0.03348781464773525,
        0.01929856851439055,
        0,
        -0.10306272657939551,
        -0.009311647401449795,
        0.0037470946078373025,
        0.0005262551353578569,
        0.033684309799444326,
        -0.05348248286973834,
        0.32591077215121433,
        0.06272168227021496,
        0.13137184760362242,
        0.11231020043702833,
        0.09944110383803585,
        0.16243327305795324,
        0.2457821795765982,
        0.0015901867436951156,
        0.004715372866002725,
        0.0018305907699695705,
        0.005587007568592067,
        0.008493118852935095,
        0.0059220822578674,
        0.005410711339867711,
        0.00040064762994193516,
        0.0001544250094319128,
        -0.0007620802224385768,
        0.0007616311230880158,
        0.00010887306171072942,
        0.00021849876270034103,
        0.000008390477305953324,
        -0.000013963421308986742,
        0.0001400589095638221,
        0.00039283056622167804,
        0.0009190272354519203,
        0.0005971675166050745,
        0.00020663298903022653,
        0.00021074092187281239,
        0.00032692343174880735,
        0.00017472989280006463,
        0.0004894294833210837,
        0.000858521020878573,
        0.0005461389184430251,
        0.00013679077302720428,
        0.0002862699359476724,
        0.00029514998448199595,
        0.00014031032742168622,
        0.00044502706364145064,
        0.0008272946751623893,
        0.00042386437306370165,
        0.0002124824425432073,
        0.000249922615513497,
        0.00021775900185827364,
        0.00014713061524740918,
        0.00046631334426550325,
        0.0007499185504132095,
        0.0003722498041242242,
        0.0001865385268407875,
        0.0001795939182180622,
        0.000053287215287187254,
        0.000330498890067169,
        0.00034713910806089953,
        -0.00022001743224759582,
        0.000013430010247487158,
        -0.00001917947070367971,
        0.00001157196616671873,
        0.000012094465782609058,
        0.0005749853334680681,
        0.00015269898527358296,
        0.0005274776161100341,
        0.00037849418200140716,
        0.0005869899206256156,
        0.0001524189312923791,
        0.0023194444013601993,
        0.0025279368737712977,
        -0.00023041675148532446,
        -0.003276952326690435,
        -0.00005248167954301386,
        -0.006472901682170606,
        0.011369407369539546,
        -0.0024115610184581525,
        -0.0003488407227784186,
        0.008318632474782832,
        0.011549196899288298,
        -0.006899847741917256,
        -0.011791418088633331,
        0.002767693098854259,
        -0.0000018764479424991637,
        -0.0005059303406949689,
        -0.00017439844766306624,
        -0.0002208550794559165,
        0.00008974528466608178,
        0.00002213978682505437,
        0.000044537114441366306,
        0.00010010005977081903,
        0.00011248887686265503,
        -0.0014715513350833632,
        0.0037597380176175197,
        -0.002776416862650678,
        -0.0000527455604781601,
        0.0001997437375241153,
        0.000016949373373469495,
        0.000024526853286782085,
        0.00008438065712725585,
        0.00005985380384047307,
        0.0011273543516025393,
        -0.0008581202879985924,
        0.000024758722481435568
      ],
      [
        -0.056854751621133764,
        -0.018965666672275595,
        -0.1061435455600534,
        0.23091544735235622,
        -0.0572899425065727,
        0.08125892007171828,
        0.046878446660930356,
        0.06204911343097775,
        0.064288401465974,
        -0.0021835313139723744,
        0.0015162391043384129,
        0.002563190428827389,
        0.004670509262138383,
        0.003784931673464422,
        -0.0008657933362873244,
        0.0016693666956665927,
        0.0005427076182627322,
        0.0011459090779220296,
        -0.11194092492615264,
        0.00628177518333203,
        -0.0025474317248026152,
        0.014079509472094987,
        0.005992833538906505,
        0.015363204748702878,
        0.0016431310649904747,
        0.058609318818483504,
        -0.016289343181052122,
        0.09240395937028703,
        -0.0024968608265231594,
        -0.029154327077404743,
        0.027753755306490432,
        -0.051488912818046344,
        -0.06376500837068341,
        0.008262625026683878,
        0.01694322229124751,
        -0.018254744914584117,
        -0.0006846049463414506,
        -0.0019433857315775233,
        0.0003726437702863176,
        0.00038412144750185693,
        -0.00042940516901912004,
        0.00029392947372044293,
        -0.0011303419287575138,
        -0.014329235966902951,
        -0.028498203519943404,
        -0.06033363080021615,
        0.024754621590040417,
        0.00008578836284562858,
        0.0697704428585527,
        0,
        -0.06095931220040196,
        0.04975345099520649,
        0.03532663502365876,
        -0.06052225182145351,
        -0.01665232360200211,
        0.040416450369608954,
        0.0009389644776614537,
        0.0008750578218926739,
        0.0007986303941405011,
        0.0015057631758855913,
        -0.07601318523685498,
        0.05798970334451421,
        0.060649401462195385,
        0,
        0.15601620983359252,
        0.019915762144016743,
        -0.006861110003371982,
        -0.0010875130704940254,
        -0.0812431041157286,
        0.09547791108956791,
        -0.19420994742386133,
        -0.21962891820925987,
        -0.0934793625134017,
        -0.1783009619745641,
        -0.18222260180738592,
        -0.2926057593569223,
        -0.2788070338402167,
        -0.0032003131173787345,
        -0.010797165978682079,
        -0.0034482860295925923,
        -0.011142039444813947,
        -0.015983343992834062,
        -0.011367275517677675,
        -0.010547974105299363,
        -0.0007880673008333708,
        -0.00032293930978683497,
        0.001233353675085367,
        -0.002518739857658853,
        -0.00008155841419902974,
        -0.00015576095473174035,
        0.000097737939871327,
        0.00015563442813022965,
        -0.00009087086786930965,
        -0.0006534478788000001,
        -0.0011020689630500335,
        -0.0007122237494088134,
        -0.0003455721916157967,
        -0.000049390800103477876,
        -0.00048843642174437,
        -0.00021866954958638018,
        -0.0005337087145926547,
        -0.0010925073236309048,
        -0.0005299259952105082,
        -0.0004069745037526647,
        -0.00020236799234624208,
        -0.00032920479766981447,
        -0.00015396002986218707,
        -0.0006093611120018497,
        -0.001034792332114381,
        -0.0005720203998983727,
        -0.0004179687752766592,
        -0.00030482689373005655,
        -0.00021657798964442267,
        -0.00009541867346323692,
        -0.0005072555434226717,
        -0.0009621367613861365,
        -0.0002618622902883481,
        -0.00035279559336773617,
        -0.000050104275394154374,
        0.0002091145274400375,
        -0.00076835142006428,
        -0.0006261243412035615,
        0.0005541907319837079,
        0.00002656691398402341,
        -0.00001713281693267814,
        0.000012345045515521217,
        0.00003515707529390162,
        -0.0009486513943305697,
        -0.00011355136348810069,
        -0.0008660023687123368,
        -0.00048601804155121706,
        -0.0008787032681613604,
        -0.00019879111379543206,
        -0.004730737262199128,
        -0.005086021422952129,
        0.0004946317008704664,
        0.006448986486213358,
        -0.0002342887681155193,
        0.013326696734353466,
        -0.016066800950920074,
        0.0027094311678024286,
        0.0003972380072901534,
        -0.011279863252939707,
        -0.01837344088405394,
        0.008121784028287926,
        0.014585936704774831,
        -0.005826707823250997,
        0.0003216515828320378,
        0.001149011234954266,
        0.000779174916353416,
        -0.00034568643140165365,
        -0.00013528354962314933,
        -0.00008180784938341397,
        -0.00007546663445573571,
        -0.00004065730570469741,
        -0.00003726319344440611,
        0.0029470732918617116,
        -0.0075033754652356855,
        0.003445414437014321,
        0.00011121799736843726,
        -0.0003947175391852416,
        0.000006252215926190884,
        -0.000022494443951690668,
        -0.00009209221234777754,
        -0.00006959776839608585,
        -0.0021193201849540053,
        0.0015468953908470172,
        0.000004264090255441852
      ],
      [
        0.003553527302719798,
        -0.06315662656157273,
        0.05841673831024693,
        -0.045213937593332275,
        -0.004597900458745343,
        -0.04235854763748454,
        -0.10822257027867598,
        -0.04503264296440266,
        -0.020593894887498212,
        0.0007177089638734086,
        -0.0002485949730415907,
        -0.001129748910854464,
        -0.001583305638441569,
        -0.00107016102883718,
        0.00010374704863605256,
        -0.0005039143750402956,
        -0.000319990437837056,
        -0.00040553368386646294,
        0.08388658737162327,
        0.019113059220526776,
        -0.048919592806582375,
        -0.0038944902589846636,
        -0.0012805229618760715,
        -0.004210694162093585,
        -0.0002492996651986834,
        -0.052466705621938205,
        0.02560456119947529,
        0.030259132239042526,
        0.06538352949016793,
        0.011007792895471437,
        -0.04882975586020034,
        0.042888018099154476,
        -0.032025891780143444,
        -0.05014818532228433,
        0.005648914499015004,
        0.030060312249877572,
        0.0005378781196482684,
        0.0008384762141721438,
        -0.000016161434871713316,
        -0.000026202000471063537,
        0.0004039804859093702,
        0.00008545457248349614,
        0.0007166439084079748,
        0.006504636555418153,
        0.009952794643086854,
        -0.0004321911882513048,
        -0.06858501448246111,
        -0.000017296310063242675,
        -0.0823387945010353,
        0,
        0.06087029481784561,
        0.019031358057799513,
        0.06443313014309401,
        0.018884507948308968,
        0.08813658683506118,
        0.06621107540838732,
        -0.0002591462879430921,
        -0.0003206750732481057,
        -0.0002696197001555598,
        -0.0004925686966646142,
        0.03645933288558007,
        -0.02659152023094373,
        0.0485376214978021,
        0,
        -0.05974042570699757,
        -0.00605099298779882,
        0.0028396495243481973,
        0.00033997129431933654,
        0.012324205474938713,
        -0.0797834201685314,
        0.07571369153427203,
        -0.057955090259488654,
        0.015494386338362507,
        0.07148091589863513,
        0.05200870098232931,
        -0.027551219596221047,
        -0.05140806657273106,
        0.0012418053994132099,
        0.003998454228421319,
        0.001444749635472415,
        0.004316014328135815,
        0.005474050134112673,
        0.004214942710610189,
        0.0038079119336035367,
        0.0002698760520721785,
        0.00011483752857518099,
        0.00023063792142874253,
        0.0008362317568493238,
        -0.000040698412368957946,
        0.0004276377075952038,
        0.00004007679563461673,
        0.00020085330819830672,
        0.0002474430463997508,
        0.00044234343952966244,
        0.00092912344236385,
        0.0005967599642661596,
        0.00025978494906922305,
        0.0002580350129041822,
        0.00018861203677160272,
        0.0002226914436188515,
        0.0005299205868146546,
        0.0009178534839792268,
        0.0005764166019472902,
        0.00023131385191284737,
        0.00025328383048781305,
        0.00022944616442222593,
        0.00020380963715635028,
        0.0004133125173762893,
        0.0009324900362459228,
        0.0005808354222397936,
        0.0002189428382029848,
        0.000267930051179227,
        0.00023475097012814897,
        0.0002108661767355721,
        0.0004076000199427557,
        0.0009201457924875211,
        0.0005727255407479696,
        0.00021724020694205407,
        0.0002837965405151367,
        0.00012901489927934386,
        0.00029009414575099967,
        0.00046890282997772505,
        0.0006157396478855909,
        0.000024594726333470523,
        0.00006055629001497382,
        0.000019631320439020298,
        0.000198890494620004,
        0.0006799292883112089,
        0.0003422221633317326,
        0.0004646767296322284,
        0.0004665312624808972,
        0.0006535106017184747,
        0.0003993609207515066,
        0.0013678625047696138,
        0.0014975101106442141,
        -0.00014954575026154685,
        -0.002215777443377355,
        0.00014626936352446694,
        -0.004141641770354976,
        0.005871855891747923,
        -0.0009794194621736004,
        -0.00012515956855134135,
        0.004265118391395394,
        0.006641377826692184,
        -0.0037027809172282163,
        -0.006651023038025614,
        0.0022865491141659837,
        0.00007373094671876408,
        0.00005945375867142434,
        -0.000023862043995805205,
        0.00011866408756752955,
        0.00010495202035574696,
        0.00004072443288994705,
        0.00006583842315376294,
        0.00012979676941604526,
        0.0001422008971501305,
        -0.0009122169813283584,
        0.002247295708928757,
        -0.0015694782731241978,
        -0.000008215348505160684,
        0.0001882829373536065,
        0.00004065220473116519,
        0.00006158335405614937,
        0.00009903184034369766,
        0.000037448486287543936,
        0.0009760963013965915,
        -0.0006762307108427366,
        -0.00006033112695373226
      ],
      [
        0.05379503673883086,
        -0.11539140269140444,
        -0.08509528731734424,
        0.25746402187020934,
        0.06394740871887891,
        -0.0009032284717357918,
        0.003937067748254787,
        -0.01772090043900816,
        -0.01067685414756792,
        0.000253846220699899,
        -0.00043603579837897023,
        -0.0007528346394681219,
        -0.0007891049176703839,
        -0.00004372486797159211,
        0.00017547004137628865,
        -0.0001572652401144103,
        -0.0002300917992609761,
        -0.000028047582787622347,
        -0.03940182222777088,
        0.043070546025754074,
        0.09255065954973127,
        0.010267311660223618,
        0.000993013977924605,
        0.0008088494277367696,
        -0.0003184271210651908,
        0.0014950058572511108,
        0.027055548413787347,
        0.12195291465964825,
        0.07180760103007652,
        0.003510896412616806,
        -0.08155127528782359,
        0.04622906750078665,
        0.09613666841733436,
        -0.03805654813145878,
        0.0000038438548037329895,
        0.026289651458724386,
        0.0003986102262485715,
        0.0003176404877019085,
        -0.00004729392461814141,
        0.000007066066277460839,
        0.00026068223007969963,
        0.00007047657107598967,
        0.00035727855188260574,
        -0.0010259337199210593,
        -0.000636311703425528,
        -0.01676319448701629,
        -0.024558606625815913,
        -0.00000856816684913028,
        0.08198339690848194,
        0,
        -0.06959097547316029,
        -0.09758860460726293,
        0.012651682941964485,
        -0.07259232936275947,
        -0.03931539055696622,
        0.07449991723729946,
        -0.00013390533464037357,
        -0.000057441439442016997,
        -0.000026377407278793104,
        -0.00017793724998286443,
        -0.01057083179601873,
        -0.0055192481780328715,
        -0.08097260652176663,
        0,
        0.09732318381226121,
        -0.0038026875205420534,
        0.0008648096129224771,
        0.0004335302170170549,
        -0.04200295774715111,
        0.028526608033640058,
        -0.2934437047319953,
        -0.06731532748054543,
        -0.0035874474484443356,
        -0.03342366893428413,
        -0.17326104593099736,
        -0.1762720927744547,
        -0.2630149104196588,
        0.0008239323643818227,
        0.003800395190975727,
        0.0009984471803511107,
        0.0025187000482770863,
        0.0023407074050270497,
        0.0015445613949188874,
        0.0014791884185179473,
        0.00014237238633407382,
        0.00005822469074909084,
        0.0017806532451126469,
        0.00004061346516924841,
        0.00009817894670547997,
        0.00038053977800430843,
        0.00002299859698764135,
        0.00018572029829756252,
        -0.00004468425024815062,
        -0.00004495539108970176,
        0.0007137590187536485,
        0.0004433661349862159,
        0.0002411420979238886,
        0.000234809558462108,
        0.00013481884843991266,
        0.00010298851392772444,
        0.00041841636762469155,
        0.0006524762064944182,
        0.0004047867478765936,
        0.00015313614640357484,
        0.00017479326987056152,
        0.00015382672719569987,
        0.0001707200630245682,
        0.0003605239545953977,
        0.0006496090002042744,
        0.0004144751609911865,
        0.00007216544960453799,
        0.00017596150672332295,
        0.00022000525788815224,
        0.0001814767859882425,
        0.0003131603591203231,
        0.000616783769474859,
        0.0003855438238516424,
        0.00017869432871536287,
        0.00020759503444154473,
        0.00010311844935503011,
        0.00012737595696290027,
        0.00021802787098942317,
        0.001342303299335967,
        0.00002627926297871052,
        0.00004958700290803014,
        0.000020764940433154005,
        0.00016089852696852335,
        0.0004510438769260982,
        0.00017755706170198766,
        -0.00006762828037700739,
        0.000300651662835563,
        0.00032905470249152465,
        0.00032450842248125234,
        0.0008339386512111423,
        0.0008455109345698149,
        -0.00004208972485668355,
        -0.0007212377753432676,
        0.00019018739751493219,
        -0.002275517616595933,
        -0.0010720882080010742,
        0.0006606324019128981,
        0.00006359233977798426,
        -0.0011514205584363607,
        0.00020335109346769764,
        0.0018769881017696413,
        0.002552788796088116,
        0.0011179182143072302,
        0.00004642485334020666,
        0.000318223105008285,
        -0.000040177216157914544,
        0.0004438550373888421,
        0.00008906081711553863,
        0.00003982980649197606,
        0.00007032407806294197,
        0.00009613322027007148,
        0.00019647478314718559,
        -0.00038126751198412417,
        0.0011800601175248966,
        0.0005953647560744496,
        -0.00011601797008787659,
        0.00027415694736246274,
        0.0000421310966788649,
        -0.000009472932179235214,
        0.00006075056504722767,
        0.00007022349722646261,
        0.00021059102856594075,
        -0.0001305253715085027,
        -0.00010146922625337812
      ],
      [
        -0.024122557832813973,
        0.05220559485569242,
        0.06254432137125347,
        -0.09504786838422984,
        0.08398086692129658,
        -0.07231154640071713,
        0.0028421675413646177,
        0.035912470407158,
        0.027863644473664552,
        0.001296515693993171,
        -0.00101834088555972,
        -0.0018549898329555496,
        -0.003055669320754352,
        -0.002495050475119188,
        0.00019383248316281315,
        -0.0012511687346425757,
        -0.0004367855034477291,
        -0.0007459236248982235,
        -0.050345031750554735,
        -0.06826530596285842,
        0.060562623369044034,
        -0.015518339535774691,
        -0.0035523292485658987,
        -0.00824550550306056,
        -0.0006161654037030111,
        0.009127168494291928,
        0.02048125681578924,
        -0.07921601030591524,
        0.051142638122070615,
        0.01829858230724393,
        0.001864204483500529,
        -0.04462826195310604,
        -0.02019695744168753,
        -0.04814016948392878,
        0.028535195608017476,
        0.05748824154185133,
        0.0008661829905491359,
        0.001278199191845162,
        -0.00006930278644148593,
        -0.0000013062459719218453,
        0.0005878741203590185,
        0.00010329597809810422,
        0.0004701188162254026,
        0.009194389245742418,
        0.018053785540967256,
        -0.05710064042504245,
        -0.09375067915504413,
        0.000014039590430564338,
        -0.0896968220160948,
        0,
        0.019795095248941883,
        0.031691730274711345,
        -0.051062641451484106,
        -0.04498070073161229,
        -0.06725294477076779,
        0.05260448160054502,
        -0.0005652418971993544,
        -0.0005519432084504438,
        -0.0004953198493450999,
        -0.0009261642774813548,
        0.011831862038817713,
        -0.012454960307223534,
        -0.0635659385280776,
        0,
        -0.07209212960093443,
        -0.012009601408667761,
        0.004390238794960584,
        0.0007693022614935082,
        0.06602962785023139,
        -0.0031190556358722224,
        0.1282454063042834,
        0.03601399430966979,
        0.0799672538118458,
        -0.00516533494718328,
        -0.015955191005569826,
        0.07954566782412495,
        0.1353861785615896,
        0.0020501444459003846,
        0.006704936345934088,
        0.002303906370044145,
        0.00716634414170005,
        0.009759971034146943,
        0.007364077073467091,
        0.006667223077801081,
        0.0004980133076523929,
        0.00020376361835605102,
        -0.00010022678870545671,
        0.001200713679935169,
        0.00017006428841890686,
        0.0006583003084768989,
        0.00006340599343704275,
        0.00028964214743165077,
        0.0003850592415579039,
        0.0006920052593170651,
        0.0014729809405064282,
        0.000980340576403706,
        0.0003935323945837719,
        0.0004243029363573725,
        0.0003301657375790506,
        0.0003249798719862159,
        0.0007774917005278979,
        0.0014457869487523327,
        0.000906565410018611,
        0.0003287798972437317,
        0.0003962406220749043,
        0.00042213735789167696,
        0.00029862907154199646,
        0.0007242343074526977,
        0.0014334261852954069,
        0.000853705262945967,
        0.0003233287999215434,
        0.0004244717979591228,
        0.0004234346237204603,
        0.0002621909636942565,
        0.0006965706568288762,
        0.0013779302069278044,
        0.0008031426597480779,
        0.00032976131689674656,
        0.00032195157108300007,
        0.00023063385935122408,
        0.0004955834595967993,
        0.0007128133824319627,
        0.0004935869628876154,
        0.00002906101957774296,
        0.00007585357451117725,
        0.000027909430314129574,
        0.00026788642949837713,
        0.0009351283708830149,
        0.0004966488394652373,
        0.0007537554131357211,
        0.0006836844656446841,
        0.0008895523815087576,
        0.0005874102312427804,
        0.002812661936684436,
        0.0030585615413003227,
        -0.00028193721313428416,
        -0.00390348929620651,
        0.0001261226880199446,
        -0.007960537419239203,
        0.010106448752367629,
        -0.0016852702895978273,
        -0.00021776212639850465,
        0.007156063351969784,
        0.011537899966210517,
        -0.0051621446271107475,
        -0.009832208199143636,
        0.0037935829584377348,
        0.00006987756451420456,
        -0.00002361453271420785,
        -0.00011305397093265652,
        0.00021991008011617062,
        0.00016135824642577137,
        0.00006642262731107523,
        0.00010694401975655923,
        0.00018494120977568114,
        0.00024125523147281404,
        -0.0017501081104056126,
        0.004485307292585554,
        -0.0023222264807087824,
        -0.000045251079072687055,
        0.00034757636815850227,
        0.000056089716146391095,
        0.00007834611637647066,
        0.00014759717992481283,
        0.0000692510635483383,
        0.001527360439879427,
        -0.0010712885213444278,
        -0.00007220597650299773
      ],
      [
        0.4898807752551534,
        -0.2868717520355414,
        -0.34099250518292173,
        0.2962274034748445,
        0.5405430303724449,
        0.11644901407551711,
        -1.850758182165691,
        2.3032865678179206,
        -0.6049571548618656,
        -0.02565738545394208,
        0.058280777343042545,
        0.0014198315344925063,
        0.04572400528794538,
        0.008946927229612758,
        -0.05100888962007117,
        0.02798364217097939,
        0.005708234390973468,
        0.022858746236115345,
        -0.3734294782779085,
        -0.1228639804577723,
        0.11292128397048024,
        -0.02115713533376524,
        0.008904531602875243,
        0.07446900388284398,
        0.09273137544683804,
        0.9559425408223364,
        -0.0005412456866571203,
        0.9415387514931273,
        -0.06537543503520114,
        -0.07955859329841691,
        -0.11931281029918965,
        -0.1562774522245264,
        0.14039101806589002,
        0.47485412143266387,
        0.49608469756360574,
        -0.12855565894839927,
        -0.1159681641817351,
        -0.12746457028116556,
        0.06411185547107481,
        0.0006320550934103897,
        0.03609520762662339,
        0.07859304811364523,
        0.013854436672621219,
        -0.0068867922518692755,
        -0.026799844025487938,
        0.3915757759688916,
        -0.15696231012050438,
        0.02434643675344501,
        0.07041246355935973,
        0,
        -1.563416232139359,
        -1.4330207489031892,
        0.0704754443246914,
        -0.09470534576849034,
        0.1342351585399766,
        0.025511577891130583,
        0.004790719025186685,
        0.0076755194560722655,
        0.002910308422057206,
        0.019523657245755166,
        -0.08260357694678491,
        0.008992005497594286,
        0.2961926687829027,
        0,
        -0.0592812834005988,
        -0.03933205766430154,
        -0.03602576076058791,
        -0.0003018096321606864,
        -0.01429854424321661,
        0.07713160773932042,
        -0.7024925546661159,
        -0.10866435362206228,
        1.0104472533033795,
        0.224928784470326,
        -0.7586993786767627,
        -1.5303416796976705,
        -0.10162448457064746,
        0.009857031185090745,
        0.07367595513328237,
        -0.016244993134345853,
        0.05176276600263026,
        0.0006026323592558736,
        -0.035914921342633827,
        -0.03862698131891966,
        0.0007432204841930001,
        0.000710660679239019,
        -0.19365342827657836,
        -0.4682606752965276,
        -0.023706366687731555,
        0.11973768648887369,
        0.029895592591735503,
        0.11854662101596722,
        0.10701775763807786,
        0.012567930676674862,
        -0.02782890359097956,
        0.013577195471597095,
        0.05310306619210698,
        0.03557710241842943,
        -0.1379672898497727,
        0.021458217648256603,
        -0.0593833759432377,
        -0.02364874604073788,
        0.034903415495921734,
        -0.07907218045745469,
        -0.020681441929789796,
        0.06080565195360556,
        0.015299224392900828,
        0.05035829179759608,
        -0.054099530194260226,
        -0.035656487462735184,
        -0.0030852317511432074,
        0.01579372932963175,
        -0.04097360734534395,
        -0.025834420427401215,
        -0.007068716356567756,
        -0.06594059034667564,
        -0.018385041604717205,
        0.03805881082134922,
        0.018529996197297404,
        -0.039763192102825785,
        -0.08276620526249265,
        -0.023827934170876353,
        0.1822995753416134,
        0.01196876396006405,
        0.008608947125174633,
        0.007458273650223533,
        0.07011670721812296,
        0.0436232972181347,
        0.06628173309526024,
        0.03930389675229339,
        0.01048191161210057,
        -0.0002550113215720394,
        0.11934004510453623,
        -0.04296266597008703,
        -0.06001984290312644,
        -0.008744534880223679,
        0.05517891761662948,
        -0.008553746947518323,
        0.09829593728833275,
        -0.01059127963186861,
        0.000983170038063032,
        -0.0006573170297687698,
        -0.009520704405938133,
        -0.01347607285317603,
        0.029018291914200408,
        0.30359658523783284,
        0.013364100488475686,
        0.16506659248420527,
        0.4202243489341799,
        0.1647200508393414,
        0.2204445360695122,
        -0.01791037230477146,
        -0.015531621608858619,
        -0.014451051691124742,
        0.01173787247101607,
        0.054371074721706825,
        0.019771828098752418,
        -0.09961634685896086,
        0.07067767128822564,
        0.03611762980549208,
        -0.12221586013736051,
        0.0034098674501345304,
        -0.0003405413590140346,
        -0.001118741544596047,
        -0.0007782001855817079,
        -0.0016236611318333988,
        0.016542728335305,
        0.01951828900487554
      ],
      [
        -0.03046198773476469,
        -0.06677208544972776,
        -0.040481939257828906,
        0.09671854595442309,
        -0.008352185230395272,
        -0.06442239478162667,
        0.04567027895241995,
        0.048319689523280654,
        0.060235190347487914,
        -0.00013132792632662693,
        -0.0004736631460062911,
        -0.00041046863199149705,
        -0.0003892993532895828,
        -0.0002495836635854134,
        -0.0002510805177849634,
        -0.00022436629532534663,
        -0.000023666340788902747,
        0.0000438050860368859,
        -0.05910987592108069,
        0.048131850403475444,
        -0.08240801933418206,
        0.012922707431491608,
        0.00028571026174448324,
        0.002060782029699936,
        -0.00012001263710181715,
        0.002639864590039251,
        0.021013568713387422,
        0.060075773783828355,
        0.06224625765468605,
        -0.0006057173140581769,
        0.013111989161329704,
        -0.022745954179852795,
        0.06202963325837758,
        -0.06873004290140237,
        0.05198591158791671,
        0.02412315919780234,
        0.0005453673765602142,
        0.0004124609344350827,
        0.00008621952640609459,
        0.00005200755501930979,
        0.00036749731130288884,
        0.0001668503746151523,
        -0.0005022375913123685,
        -0.003025507733317331,
        -0.0026686671364977944,
        -0.07404050808124957,
        -0.018792577714851606,
        -0.00009014426640142041,
        0.020971973823033657,
        0,
        -0.01808611032245396,
        -0.04386953487320297,
        0.08640429342307165,
        0.04514387815208972,
        -0.08102968047818493,
        -0.08887864518768797,
        -0.00003460026522405423,
        0.00003303403465483892,
        1.9812321714574925e-7,
        -0.000023176361582006113,
        -0.032921802163172774,
        0.029322590948059734,
        -0.020057296740871335,
        0,
        0.08971735923654228,
        -0.0013603606333141005,
        -0.00027034971593415747,
        0.00019023132908746546,
        0.007577047813678462,
        0.06262305821099254,
        -0.055423581461776436,
        -0.0730195896691904,
        -0.048931264623879325,
        0.033752576881114285,
        -0.1284686030338766,
        -0.06697777879599098,
        -0.1797993233179471,
        0.0001682531846625848,
        0.0009727341619019436,
        0.00018438945252718662,
        0.0004965121132535873,
        0.00004218992787533096,
        0.00024375480231343473,
        0.00026742059417666846,
        0.00003501732134806203,
        0.000013046622718709295,
        0.0008346645539513608,
        0.00025367944126540625,
        0.00014316129089084065,
        0.0004892151461692457,
        0.0000504553420585361,
        0.00028457758755049735,
        0.00018941902800319874,
        0.00023864277194806207,
        0.0005723991220527333,
        0.000429828927118049,
        0.00018467073624207623,
        0.00014648356940770988,
        0.0001151593513934818,
        0.00012608546500944638,
        0.0003321313735526352,
        0.0005339533840452896,
        0.0003773492854382747,
        0.00014817849038085688,
        0.00012485945501703014,
        0.0001329711229883966,
        0.00012794431565898222,
        0.0002536215672584335,
        0.0005510701858924697,
        0.0004232745078845382,
        0.00011573062521086801,
        0.00013351445050663246,
        0.00014615483802591405,
        0.0001556702721490315,
        0.00025753929070945,
        0.000540489520396637,
        0.00039689443331836905,
        0.00016385489039931746,
        0.00014549123329711953,
        0.00011910300491201645,
        0.00011204039178816378,
        0.00022019501361950547,
        0.0008961622543361754,
        0.000035436443733094476,
        0.00008748298576940533,
        0.000028137703014337728,
        0.00026960237294878473,
        0.00010226011830036678,
        0.0004857945943211858,
        0.0002210788839238599,
        0.00026274834222905156,
        0.0001547680804250603,
        0.0004693938515461831,
        0.00025475480245414615,
        0.00026232649084178167,
        -0.000004946109686284674,
        0.000023470891358040442,
        0.00007820615864691749,
        -0.0005631722756295054,
        -0.002481944594036392,
        0.0008323882621941246,
        0.00012870469906906085,
        -0.002079832626368664,
        -0.001615369540709427,
        0.002698172165158286,
        0.0040947829074561,
        0.000386309659942095,
        0.00017322904212022433,
        0.000599540337780307,
        0.00009676673026345503,
        0.000512750410973417,
        0.00007031513331118729,
        0.00004100515217422361,
        0.00006393172130588942,
        0.00005417266099248682,
        0.00019116048131171851,
        -0.00008931315191274129,
        0.00034209291357277164,
        0.0009610949087605496,
        -0.000050334349560257174,
        0.00019031119311506474,
        0.00004722334191469295,
        0.000026615978595216124,
        0.00004574333147752027,
        0.000019127352882302967,
        0.0000036852089513426937,
        0.000060725669141714916,
        -0.0001047636015327605
      ],
      [
        -0.0378315869660431,
        -0.02523006814854925,
        0.015961435972930926,
        0.2636475227594648,
        0.07940925637481953,
        -0.051256964620391525,
        0.03754786354168211,
        0.02196441871990885,
        0.036589183684923705,
        0.0009528953357244538,
        -0.001021991052399925,
        -0.0016921925013448705,
        -0.002659202112475854,
        -0.0016499941044786168,
        0.00044575910801195235,
        -0.0006648275439986128,
        -0.0003288163125730023,
        -0.0004098399716003252,
        -0.06528107593563376,
        0.13992557939937622,
        -0.04447142239937346,
        0.005745887250867903,
        -0.0009507331703575242,
        -0.002993108366482773,
        -0.0008115283808960546,
        -0.04384926857605447,
        0.0035474740436968527,
        0.07689348461142743,
        -0.014800972171557208,
        0.014101380051969297,
        -0.03415474701471495,
        -0.03890371203049069,
        -0.016907693306783853,
        -0.01469928643694022,
        -0.018703394634800065,
        -0.0313713833507353,
        0.001351347651031576,
        0.0013750024777936982,
        0.000007790861227755838,
        0.000029917769231823192,
        0.0009939101870822698,
        0.00038462806836836677,
        0.00031195757982695866,
        0.0017661404097566744,
        0.00760054760643958,
        0.08973235114424086,
        -0.0019898381973863797,
        0.0000075260804619784255,
        -0.07867443453702834,
        0,
        -0.09163804561411855,
        -0.0833806884384037,
        -0.008235921958248005,
        0.008527407279792678,
        0.08769746030120551,
        0.04365392585778867,
        -0.0004924529271766508,
        -0.0003707247977081783,
        -0.00035446646169713794,
        -0.0007643719432546543,
        -0.005217309811065589,
        -0.01776528195225687,
        0.07822941719945634,
        0,
        0.017877425384213382,
        -0.01229841559775654,
        0.003298636772440817,
        0.0011011712503649594,
        0.0056244090706889524,
        0.02406858478667987,
        -0.2972601484223963,
        -0.006088118834083899,
        -0.040174716665916724,
        -0.17047122893012714,
        -0.1733754706555083,
        -0.13306863911000666,
        -0.13173847403949504,
        0.0021315703194255153,
        0.00856052071058801,
        0.0023770176100008037,
        0.007040481786527402,
        0.008361418099874611,
        0.006036294174129831,
        0.00554170075434063,
        0.00045145510847420447,
        0.0001823571247448945,
        0.0020266043071677136,
        0.0007486748903727636,
        0.00035173868332782714,
        0.00126415687126229,
        0.00007733369764445708,
        0.0005554147240435526,
        0.0003824253779050194,
        0.0006012229915933526,
        0.0019449571285181128,
        0.0012666391782633637,
        0.0006161479018649428,
        0.0006845226503240868,
        0.00028668049657790633,
        0.00035760607975112324,
        0.0010171839053526729,
        0.0017909600185164766,
        0.0011681240262397068,
        0.00039541196717895685,
        0.0005498305478440334,
        0.00045769415760943914,
        0.0003880233458840173,
        0.0009415599542060004,
        0.0017292469202294784,
        0.0011643608618072201,
        0.00027868517432100975,
        0.00045389802719727665,
        0.0004294937587836322,
        0.0005671699599275065,
        0.0009254187170080129,
        0.0016466425670782433,
        0.0011731200047849603,
        0.000502491092749778,
        0.0004947963829679808,
        0.0002592988060652061,
        0.0003900562852952424,
        0.0006078634825624485,
        0.002216109216550142,
        0.00008007518902149574,
        0.00017428241770882803,
        0.00006424299090250522,
        0.0005490357752928643,
        0.0008631815152404684,
        0.0009039093871138012,
        0.000643407753326025,
        0.0008436916422561358,
        0.000778812433178618,
        0.0010706350082736685,
        0.002741595498990636,
        0.00286449829177167,
        -0.0002502236864822091,
        -0.003200032188251841,
        0.00036146258343837005,
        -0.007553781900936856,
        0.0029214826633918623,
        0.00034169464126194597,
        0.000011269919677647917,
        0.001374428130685443,
        0.0058522004571052305,
        0.0008338856697801109,
        0.00025572982600584695,
        0.0037506576176596484,
        0.0003117064463123148,
        0.0008690368047662829,
        0.00007152814481795344,
        0.0009528182579990475,
        0.00022375736095972814,
        0.00009069231982398258,
        0.00016451364935612378,
        0.00024051959213067592,
        0.0005626430372857181,
        -0.0015974250039282605,
        0.004220364077954846,
        0.00004813348390101013,
        -0.0001775459050644661,
        0.0005610226490279876,
        0.00011843879973452587,
        0.00006512240741936373,
        0.00016887385620879326,
        0.0001037514487894261,
        0.0009317914012901601,
        -0.000664566139291971,
        -0.00009448786562569786
      ],
      [
        0.02963023345798867,
        0.04276846755943659,
        0.050010321184203704,
        0.14182313399446328,
        -0.01869428558070697,
        -0.041718910919047565,
        0.08511274299448371,
        -0.018743567892240225,
        -0.010130922219472809,
        -0.00009948772686615008,
        -0.00043188009539497983,
        -0.0002785505329652289,
        -0.0003569079652280406,
        -0.00014792081309605607,
        -0.0001503305954165123,
        -0.00019006540125157602,
        -0.00004116373770833302,
        0.00004359639234999517,
        0.038240415470850865,
        -0.0020757191953381135,
        -0.07670473927683735,
        0.01268698847929792,
        0.00034088317276527257,
        0.0005599547601608137,
        -0.00009320264228752721,
        0.015651273960798275,
        0.07348460280372651,
        -0.015187147101875216,
        0.0047014248540141294,
        -0.00011124083667182614,
        0.01285781973225701,
        -0.047374990599527524,
        0.06901611940938077,
        0.030775713835017468,
        -0.05702537922728264,
        -0.053999312934947606,
        0.00018950685634538982,
        0.00019430529980126593,
        0.000030789578777602335,
        0.000027096564377864975,
        0.00015847901845967267,
        0.00008572810040649856,
        -0.00022242611089565734,
        -0.0021383951143906805,
        -0.001478584753811886,
        0.06357611884508153,
        0.023697213193985767,
        0.00004773156293231437,
        -0.036810355143659726,
        0,
        -0.08946225922567205,
        -0.09580404268416315,
        -0.06279776834247461,
        -0.00629443139016536,
        -0.07178890597376568,
        -0.09235377239778007,
        -0.000020748593702375946,
        0.00002279958350164328,
        -0.000010546625731955913,
        -0.00003704852459415794,
        -0.011329530773340292,
        0.012178381065156799,
        -0.0007613698224628101,
        0,
        -0.031197396200822906,
        -0.001143790482866231,
        -0.00007661933753569549,
        0.00021735467485995119,
        0.0782635398418241,
        0.027784976621043372,
        -0.05136543711370494,
        -0.040886181004043294,
        -0.005273775382279373,
        -0.10188757989115595,
        -0.052632463968881035,
        -0.016656488356286577,
        0.012422179386120516,
        0.00015147509330568193,
        0.0010341408294527784,
        0.00012277348006712653,
        0.000475453525018865,
        0.0004019198423891054,
        0.00011488268635757974,
        0.00017700093512250986,
        0.000029122009509451508,
        0.000010285006982127555,
        0.000424181685881248,
        -0.00005358832010425864,
        0.00010103392019341737,
        0.00019310849036841929,
        0.000014442832272733131,
        0.0001063776542498074,
        0.00006943448038718552,
        0.00009780430248324853,
        0.0002202532219039111,
        0.00015723329302515235,
        0.00007781617484481274,
        0.00007469300714931616,
        0.00002676507889789691,
        0.00004097896101187898,
        0.00010749933860272826,
        0.00020487029789373058,
        0.0001278799481011854,
        0.000058415020285192155,
        0.000049597949285471464,
        0.000052359803098872226,
        0.000044497525224185085,
        0.00011922132490880978,
        0.0002169088626337602,
        0.00016072488069214494,
        0.00004614350631573375,
        0.000035461464208858024,
        0.00005880188383317411,
        0.0000765020082759855,
        0.00011580371836824194,
        0.00021575540423468526,
        0.00015304790505665732,
        0.00007232445344298071,
        0.000044838314193601556,
        0.000048386938658145894,
        0.00005020569793995106,
        0.000059093440774662766,
        0.0004000215120363699,
        0.000012397944627108395,
        0.0000278544746862888,
        0.000014695549241390544,
        0.00009864681195461317,
        0.00011047199013743152,
        0.00010622632536702993,
        0.00006979120211269234,
        0.00008410247249819078,
        0.0000653674832460244,
        0.00016394173494663973,
        0.0002658543495461828,
        0.00026512101458811614,
        -0.000009478874557504894,
        -0.0000774460842146372,
        0.0001062800458713559,
        -0.0007066640763812007,
        -0.0012661276869569628,
        0.00044561955046449453,
        0.000067142476331614,
        -0.0011040440766381335,
        -0.000734519487267964,
        0.0016473932631457444,
        0.0026864373019601633,
        0.00016223822140526702,
        0.00005139084872096079,
        0.00019362676995541604,
        0.000025893746818805976,
        0.0001921648726125805,
        0.000028054626704304943,
        0.000016002832938865975,
        0.0000243649325524982,
        0.000022199078688838505,
        0.00008645987639286295,
        -0.00014257174982404612,
        0.0003173161164759367,
        0.0006310624544373585,
        -0.00003286761367341363,
        0.00008596296373856827,
        0.000020295602695259268,
        0.000007043280279174722,
        0.000018376988224771368,
        0.00001133370794559608,
        -0.00015733402934942485,
        0.00010276019206807948,
        0.00002394366602126825
      ],
      [
        0.005648349720298723,
        -0.013420705608740788,
        0.042137224905226874,
        0.022478854963000394,
        0.08151002321771608,
        0.04770055830516852,
        -0.10929389942141245,
        -0.05601194736193345,
        -0.029235334973059822,
        0.0010440768326697328,
        -0.0006253331692160346,
        -0.0016275635978837957,
        -0.002514811945580283,
        -0.0019210585542225832,
        0.0002852998178593882,
        -0.0008914407266579536,
        -0.00036702179909821114,
        -0.000583716775887393,
        -0.05442225835440296,
        0.07365113884280648,
        0.073821056729859,
        -0.004698772666495838,
        -0.0020883936009838313,
        -0.005326225544825638,
        -0.0004706258478426789,
        0.01874726265656345,
        -0.036986094709404435,
        -0.0018424352449803157,
        -0.02574790666410531,
        0.01574433939870964,
        0.05539039478435592,
        0.03095787502621037,
        -0.021735810220267153,
        0.03837026364515678,
        -0.031349324874981876,
        -0.03789157173485626,
        0.0008259304176427322,
        0.0008892137818521183,
        -0.000045169216769478236,
        0.000003100807394513574,
        0.00056019879976251,
        0.00015837066880879398,
        0.0005781124491889523,
        0.007323010444593771,
        0.012996943160079943,
        0.013548113603328502,
        0.08795439280638483,
        -0.0000412635600637418,
        -0.008539724917370805,
        0,
        -0.03094359385335422,
        0.024987017878448342,
        0.06353451193654053,
        0.03190023289405451,
        0.013681178312803986,
        0.02950620895180055,
        -0.00044946651377189887,
        -0.00044993892176474563,
        -0.0004009787273695143,
        -0.000762170255762267,
        -0.061352516631364436,
        0.05915523000322582,
        0.06817054274911949,
        0,
        0.028074665607160543,
        -0.010031629058301808,
        0.003955430419698833,
        0.000663086310410229,
        -0.009864724844607906,
        0.034297169756441745,
        0.03079928528633228,
        -0.06810451057223264,
        0.019495419483942893,
        -0.07167462118926249,
        -0.06910210332391517,
        0.05501421812028503,
        -0.09640136543611694,
        0.0018149350194547394,
        0.006145459917714312,
        0.002026515886681863,
        0.006287183880534131,
        0.008283084699479037,
        0.0062621690417505,
        0.005637324028808451,
        0.0004127799915775441,
        0.00017092091811580362,
        0.0010730043862676,
        0.0010160385243987722,
        0.00005753138225082118,
        0.0004187729699252129,
        0.000001949962432873987,
        0.00011704866185503648,
        0.00012998843471642276,
        0.0004268127840352972,
        0.0014121383253503704,
        0.0008857135320471117,
        0.0003928544629138307,
        0.0004460439635500153,
        0.0002698602879623157,
        0.00030337961092420624,
        0.00081429319682191,
        0.0013565060096351162,
        0.0008425505855342871,
        0.0003701584628722827,
        0.00035968032324502685,
        0.0003334100564713354,
        0.0002932571670464535,
        0.0007050813147650621,
        0.001382221990989019,
        0.0008464486621892791,
        0.00029714644912475863,
        0.00036012479334890715,
        0.0003500409046827284,
        0.0003749098438326116,
        0.0006561649071547212,
        0.00137501385529074,
        0.0008445261666183323,
        0.00032658599323813974,
        0.00041986934647202757,
        0.00023555649464313208,
        0.00039300202093742897,
        0.0005794087207089418,
        0.000952091076989833,
        0.000023730677513159617,
        0.00007019608511536756,
        0.000019631453766756624,
        0.000156813135770835,
        0.0008431303746432046,
        0.0005493873177628497,
        0.0004701261016448427,
        0.0006541938187438636,
        0.00102669129778998,
        0.00039631192750074027,
        0.0023148113608767794,
        0.002491476876141963,
        -0.00024063933775112257,
        -0.0032523174366492743,
        0.00014749249338986235,
        -0.006541763943755587,
        0.007253857017678988,
        -0.0010692211412827496,
        -0.00016518177815917152,
        0.0050447651528716,
        0.008744296631974631,
        -0.003913236301379207,
        -0.007489921739124697,
        0.0035371005620048793,
        0.00011460704178449514,
        0.00032070785261913604,
        0.000007675707915253912,
        0.0003617280959464007,
        0.00017185025295025043,
        0.00006066486773069944,
        0.00010324270390969304,
        0.00021802663903340612,
        0.00020922416976298849,
        -0.0014495154586549504,
        0.0037272442368350973,
        -0.001770143844844106,
        -0.00007018563880596568,
        0.0003857965405630419,
        0.0000585530755844385,
        0.00006679286804521251,
        0.00015002135090584216,
        0.00008322848286062704,
        0.0011794654311382447,
        -0.0009250286940060463,
        0.00003821637174780045
      ],
      [
        0.047620450119527,
        0.023014477290106066,
        -0.0005666815942086319,
        0.006393354666428798,
        -0.02069207020347988,
        0.01164276417820976,
        0.026098839799256462,
        0.003253471491760177,
        -0.025335633006669814,
        -0.0008031403252822424,
        0.0005427492071907446,
        0.000647526174716491,
        0.001544720565652761,
        0.0013325461070932112,
        -0.0006779374957242174,
        0.0004299046935733689,
        0.0000708940157479167,
        0.0003242866809344322,
        0.05566557859314493,
        -0.036182446328124875,
        0.04802000915991961,
        0.001760698339971411,
        0.0014228138062170857,
        0.0034101243715643596,
        0.0004678561857235236,
        0.0010094304208548444,
        -0.003991658397026085,
        -0.039034495962110546,
        -0.07434808116329863,
        -0.009714058059178673,
        -0.0625223604428084,
        0.02968565581179388,
        -0.00947801537656995,
        0.007982833856008618,
        -0.03209326909641838,
        -0.01927144695416256,
        -0.0009083506151304105,
        -0.0009715606114694224,
        0.000029516688913290448,
        -0.0000658747523744798,
        -0.0005911948384636148,
        -0.00019277197787597998,
        -0.00030988774596195465,
        -0.002900384532317948,
        -0.007699583083563541,
        0.07886233259952782,
        -0.07241708000423311,
        0.0000788747320993197,
        0.05396779560513892,
        0,
        -0.05064081042241035,
        0.08566894701416346,
        0.06184034471018199,
        -0.07839155918840958,
        0.028860182407409514,
        0.017183897596595436,
        0.0003512085878326535,
        0.0002560839648922632,
        0.00023214532429326488,
        0.0005139305956693374,
        -0.047424183251349276,
        0.051786169643627956,
        -0.054070854704544986,
        0,
        -0.009801735286513314,
        0.007966342140460844,
        -0.0023728905661333337,
        -0.0006411175286761745,
        0.04183355608563369,
        0.05610325237600536,
        0.1530364189111879,
        -0.04595951880137412,
        -0.03409595370221321,
        0.05029871924749143,
        0.050978343976441624,
        0.12051986239238108,
        0.024491304856636264,
        -0.0012603938266533743,
        -0.004847592494008688,
        -0.0013990136214144372,
        -0.004260484443163444,
        -0.005575492141528575,
        -0.00405110655845415,
        -0.0037065338500632543,
        -0.00029784673727102233,
        -0.00011849463287454309,
        -0.0010213103235947334,
        -0.00099605436867914,
        -0.00009892015514708123,
        -0.0005580831557127318,
        -0.000035522734019859823,
        -0.0002619183833287212,
        -0.00025576859390021885,
        -0.0005265130762284441,
        -0.0012822121935215489,
        -0.000827530685654617,
        -0.0003906696272095128,
        -0.0003932802767572527,
        -0.00018136276517064946,
        -0.0003168995243841003,
        -0.0007179082844755299,
        -0.0012325566878372445,
        -0.0007805544613728074,
        -0.0003230598174142789,
        -0.0003324133698276637,
        -0.00031383812623202704,
        -0.00026324537436326066,
        -0.0005809639117479688,
        -0.0012754696421009052,
        -0.0008182629995965615,
        -0.00029683805690574114,
        -0.00034084335265460036,
        -0.00029600607527339074,
        -0.000341782157267138,
        -0.0005472590610060194,
        -0.001256734378423654,
        -0.0008190490053213773,
        -0.00027057286069783745,
        -0.00039016157021542385,
        -0.0002114685597998953,
        -0.0003845313877104807,
        -0.0006039438244850489,
        -0.0010080048835928387,
        -0.00002696324482190995,
        -0.00009682884676954408,
        -0.000027505240578464497,
        -0.00025941355354387453,
        -0.000646388149865991,
        -0.0006526335061390119,
        -0.0005079627763386219,
        -0.0005723445691582976,
        -0.0007811575626563388,
        -0.0005610194344610165,
        -0.0018167048532870273,
        -0.0019503153388903155,
        0.0001714872187935612,
        0.0020852775284507558,
        -0.00012957464039818972,
        0.004921828240161171,
        -0.0038968927528220533,
        0.000421856326861105,
        0.0001027746550203343,
        -0.0024580980909795023,
        -0.005223685054598889,
        0.001079641176863658,
        0.00234812119696264,
        -0.002341985298980961,
        -0.00016877768362932516,
        -0.0005193988203531264,
        -0.00003489606757536478,
        -0.0005234275529118617,
        -0.00014145854513630487,
        -0.00006040672039412178,
        -0.00009474367035630173,
        -0.00016636735883799507,
        -0.00021756359132141755,
        0.0010357001475127232,
        -0.002859295774934226,
        0.0005583046630991262,
        0.00006055077442130912,
        -0.00034745195198600416,
        -0.00006180394656617525,
        -0.0000715238064409875,
        -0.00013033862733768166,
        -0.00005881482089669538,
        -0.0006061156262170613,
        0.00046402313065312145,
        -0.000029570262983176204
      ],
      [
        0.0031166862510047665,
        -0.02910687542498863,
        -0.1638982779805701,
        0.2738673558384963,
        -0.06549826452477626,
        -0.043495678268423446,
        0.032158202910039686,
        0.031498577174490866,
        0.009832878809203777,
        -0.0012149886589435984,
        0.000530084886713998,
        0.0010708697341034106,
        0.002194846638224488,
        0.0020089386323256402,
        -0.0004926378662937878,
        0.0006382692940500258,
        0.00013232286573428882,
        0.0006955156714565491,
        -0.16859166690766947,
        0.07747670516624194,
        -0.010785487516716144,
        0.02344880921069263,
        0.0042743154769915425,
        0.0098250727736176,
        0.0005390415953585845,
        0.12705721297969563,
        -0.008490415688895149,
        0.0766184842583976,
        0.07196622152022099,
        -0.015484472523268568,
        0.06005188685617861,
        0.06147391254089697,
        0.0027410109266876315,
        -0.0617872419816773,
        0.06478697052642056,
        0.03448851464609463,
        -0.0002703057838789807,
        -0.0011831847762491534,
        0.00021333240715070686,
        0.00015450299213767537,
        -0.0001956971873507124,
        0.00014350170530827257,
        -0.0008137282290572308,
        -0.010746925687720482,
        -0.01887532233473115,
        -0.028647892725157408,
        0.06938432696749128,
        -0.00012024474736209258,
        -0.024435445280282644,
        0,
        -0.0975707568086067,
        -0.05731820638829039,
        0.06612290631547037,
        0.06746065430974324,
        -0.047404031068281116,
        0.05046060728740104,
        0.0004991766061740893,
        0.0005116658458479131,
        0.000428015578127145,
        0.0007969002059670173,
        0.010929442499458007,
        -0.032433507365359986,
        0.10779640711056244,
        0,
        0.0748026440544957,
        0.009251489937653118,
        -0.0035404491973182904,
        -0.0004066385588946996,
        -0.0037039577071616347,
        0.007372913826135503,
        -0.2717500819378951,
        -0.2241434161439836,
        -0.13400073549857575,
        -0.11492425818971243,
        -0.28179759167637497,
        -0.1437675045898116,
        -0.23119672264986793,
        -0.0014275951861156507,
        -0.004169743601303507,
        -0.0014815499900351539,
        -0.005124446174202294,
        -0.008262177052706427,
        -0.005764797822598526,
        -0.0051024317611652915,
        -0.00038443045501387164,
        -0.00015269950956659894,
        0.0016050285754752405,
        -0.001863214280552578,
        0.00018673988627682407,
        -0.0001926773254510678,
        0.00001862593928309833,
        0.00006338372147961627,
        -0.00032665675139677654,
        -0.0005913171897358493,
        -0.0005951674738384989,
        -0.0003649243008628835,
        -0.00004265107448531796,
        -0.0001894965136698531,
        -0.00036232537662843274,
        -6.945090548888888e-7,
        -0.00041095043377368785,
        -0.0005083113057389611,
        -0.00039507778203225853,
        -0.000020694267731446963,
        -0.00023996112174251775,
        -0.0002017646674358104,
        -0.00004589124882918046,
        -0.0002579503984239685,
        -0.000499882228067774,
        -0.00018500305099494345,
        -0.00021757500483048865,
        -0.00013699565278741866,
        -0.00003752366238052574,
        -0.00010778790806934146,
        -0.0003935171390951574,
        -0.0004372360113048751,
        -0.0002558325686044373,
        -0.00006534837611878351,
        -0.00012436020214759368,
        0.0001328791754545365,
        -0.00038040660849303565,
        -0.00015702825128342896,
        0.0005279980527809034,
        -0.000014863081760434443,
        -0.00002316268717488539,
        0.0000023410473261589682,
        -0.00007736050126126591,
        -0.0004448584203381731,
        -0.000028367049144895372,
        -0.000638372162097066,
        -0.00022785322103965793,
        -0.0003270803802082749,
        -0.00015832384671434228,
        -0.0022814152989657356,
        -0.002498967601151437,
        0.00025095760810928336,
        0.0032987789832744125,
        0.00003739250392831544,
        0.006334849695304801,
        -0.011244464164651255,
        0.0023171558073384257,
        0.0003299713008888573,
        -0.008225718345873257,
        -0.011639738424488363,
        0.00691507415915386,
        0.011793706866011852,
        -0.00263005560989711,
        0.00021087229258465173,
        0.0012356684455219074,
        0.00045006356944406856,
        0.0004575190936301232,
        -0.00010530521537138896,
        -0.00004384136034077026,
        -0.00007697523648160336,
        -0.00008367166627692975,
        -0.0002301812279096948,
        0.0014366346892256746,
        -0.003783928155940353,
        0.0027799216273312207,
        -0.00005230914537720622,
        -0.00008474668793117557,
        -0.0000035332583493401474,
        -0.00002898607076335996,
        -0.000053784433790707584,
        -0.000024798363027348697,
        -0.0011976048335061785,
        0.0009127491815353974,
        -0.00011904577928078543
      ],
      [
        -0.018592471749689202,
        -0.13283004772874313,
        -0.09425393820930128,
        0.10778872336782791,
        -0.0005680373077950259,
        0.07623969189220706,
        0.007714124986644066,
        0.06485642662724166,
        0.06979751491047916,
        -0.00046762520079885773,
        0.00048247451740834825,
        0.0009758989347817392,
        0.0013583877955867997,
        0.0012207880132652827,
        0.00037190733143395725,
        0.0007711990715960792,
        0.00022339201768741435,
        0.00039392859075208363,
        -0.06632727837137622,
        0.011582917157020547,
        -0.0566719014697324,
        0.022171920677704366,
        0.0023213967474604476,
        0.004861028317584455,
        0.00018753337932162333,
        0.012103997359156404,
        0.010910715224759065,
        0.06644776780436304,
        0.07265525622994431,
        -0.007879027816591206,
        -0.0811861358898369,
        -0.04602571576569787,
        0.0165390388117331,
        -0.08234023975077279,
        0.031695268363615595,
        0.04641834395257598,
        -0.00008688139584487418,
        -0.00027969324514061025,
        0.00005409794599530071,
        0.000047804126633322696,
        -0.000059285878198537754,
        0.000039109187054184446,
        -0.00015314323723328757,
        -0.006053211792000351,
        -0.010550804500315768,
        -0.017404055697241603,
        -0.05476646289446747,
        -0.00005901078839593337,
        -0.050373223408352846,
        0,
        0.021402222051787934,
        0.030176032906899977,
        -0.027974850313934197,
        -0.05546492731024507,
        -0.014560763763696692,
        -0.06923731801701138,
        0.0002146935783732318,
        0.00026238440064571046,
        0.0002602541917248759,
        0.00039022291486998426,
        -0.03141340760102423,
        0.023170275916494815,
        -0.02394047825004962,
        0,
        0.09981794131463906,
        0.003857990596160171,
        -0.0018287052241305985,
        -0.00011404788033828034,
        0.013452888428573308,
        -0.038165764322097506,
        -0.22476479922020076,
        -0.02064068131739726,
        -0.055304468763023716,
        -0.06726273187333282,
        -0.10460030658295451,
        -0.03230342385510242,
        -0.09552812673546048,
        -0.000651513998876087,
        -0.0013800958009312701,
        -0.0007327769925345597,
        -0.0024564207982906354,
        -0.0038008866433741125,
        -0.0030245018698624618,
        -0.0027013389924626574,
        -0.0001840647124918049,
        -0.00007693147124830988,
        0.0005154304910153826,
        -0.00042958872670424995,
        0.00011532325880187031,
        0.00007784816405011833,
        0.000021083312968787026,
        0.00011261185102526444,
        -0.000021588526062055493,
        -0.00009608375402750207,
        -0.0002673092976450825,
        -0.0001402671586126202,
        -0.000040989116393916806,
        -0.00008320978183498229,
        -0.00009158469968915184,
        -0.00005152569972702884,
        -0.00017161953764524402,
        -0.0002686235341322497,
        -0.00016335391536468708,
        -0.00003723067722960487,
        -0.00008477253705922232,
        -0.00009275760935293796,
        -0.00005386271049048167,
        -0.0001378694104513306,
        -0.00025796633452015305,
        -0.0001011046795504997,
        -0.00007703382736185807,
        -0.00007482057422873369,
        -0.00005477271365491826,
        -0.000051339219274636376,
        -0.00014841343997830305,
        -0.0002531844326373047,
        -0.0001260947637890626,
        -0.00003849620405799412,
        -0.00007650446959542549,
        -0.000014488000271492284,
        -0.00012369575871238754,
        -0.00012999984967899679,
        0.0002909933332527153,
        0.000009225161837169373,
        0.000015193844064915015,
        0.000009927738672937751,
        0.00006963963194616364,
        -0.0001162789258441501,
        -0.00008524212054438388,
        -0.00014033101413671645,
        -0.00012990895978318512,
        -0.00028848038917834415,
        0.0000942059546889487,
        -0.0009638336350868934,
        -0.0010860987480965606,
        0.0001024641437745832,
        0.001713769312436384,
        0.00003709361970160077,
        0.0028568412292604636,
        -0.006467681989923618,
        0.0014241362246968086,
        0.0001540183297298001,
        -0.004885974744530256,
        -0.006321827891466425,
        0.004253137124086126,
        0.007485486891971094,
        -0.0012501667822199382,
        0.0000541787203180945,
        0.0004567740977878582,
        0.00009539883753484955,
        0.0003361963341787828,
        -0.00002911504611668074,
        3.028878665494001e-8,
        -0.000003181007093031372,
        -0.00005906830715988816,
        0.000023256413767597532,
        0.0006773001454119149,
        -0.0015714757412169688,
        0.0017629936888970776,
        -0.00002707307906392072,
        -0.000004054109639834276,
        0.000006729507401154434,
        -0.000020091595081972663,
        -0.000034982600450896684,
        -0.000014891005368923795,
        -0.0007422526506818253,
        0.0005229473336975226,
        0.000013442860607555639
      ],
      [
        -0.061158554902966684,
        -0.026786358764784475,
        0.0749814218680927,
        0.038734595275830404,
        0.07181001268925781,
        -0.013490413352617227,
        0.010692213558956904,
        0.0158454286041755,
        -0.016515704477369903,
        0.001075347182385456,
        -0.000680386747067092,
        -0.0013549623806909106,
        -0.002298938004174021,
        -0.0018270109621456327,
        0.00024142919564625032,
        -0.0009065355213500664,
        -0.000312452875476619,
        -0.0005637172952710605,
        0.009290816086162362,
        -0.05763702836116418,
        0.024869081551873062,
        0.013740774579945485,
        -0.0027966280302984584,
        -0.006164057027676093,
        -0.00026968157017250087,
        0.0016546372069584485,
        0.07312990532721467,
        -0.03441875176496206,
        0.005963389501834514,
        0.01467849268659158,
        0.006730468025499302,
        0.03720086385497136,
        0.05504661276053503,
        0.032934856807818345,
        -0.04247699999931117,
        -0.04239888372093426,
        0.0008253761050875317,
        0.0009217786866040321,
        0.000010853723839025239,
        0.00000389885999317806,
        0.0005010887391981958,
        0.0001538444850603868,
        0.0004981678206678748,
        0.006968095139321853,
        0.013780282855281394,
        -0.04844479313151099,
        -0.02051317261523097,
        0.00006475408401813895,
        0.09118846409001076,
        0,
        0.005603542428735467,
        -0.022962655295134683,
        0.04486517420861544,
        0.02482463800094105,
        0.065060587461779,
        -0.029557539712500712,
        -0.0004512469433282534,
        -0.0004023388714183554,
        -0.00037930282982272126,
        -0.0007095958583243078,
        -0.0028855096826281568,
        0.014161800187221858,
        0.021604823656040047,
        0,
        -0.031105216799361804,
        -0.009466822864748082,
        0.0035721479882278584,
        0.0006578168149190723,
        -0.039096027777851594,
        -0.020458932692233346,
        0.07541839233854275,
        -0.07092797274218962,
        0.05920573885851263,
        0.0825118759107735,
        -0.05746689926200814,
        0.028889621564318936,
        0.022170587538585546,
        0.001744311365583968,
        0.005834544516697472,
        0.002032104669676159,
        0.006003198801562154,
        0.007822825645861285,
        0.005829227482386124,
        0.005357614079083476,
        0.00040487376157997317,
        0.00016664739146078557,
        0.00021446763057653915,
        0.0007725345830132368,
        0.00027764600875319705,
        0.0006588251779673614,
        0.00007000634388788077,
        0.00026499280346469335,
        0.00028578873208156186,
        0.000636100348413935,
        0.0013796427119467404,
        0.0008707746291896178,
        0.00037540517284148737,
        0.0003682436578905182,
        0.0002877842760374264,
        0.00034820960517723237,
        0.0007720207801967576,
        0.001347939703390178,
        0.0008179794745599778,
        0.0003103184026881851,
        0.000382406629051752,
        0.00035584276269470073,
        0.00029937190895547555,
        0.0006885290886108036,
        0.0013674349541846667,
        0.000840686742450414,
        0.0003233775121945103,
        0.00037645607003681885,
        0.00039587964303956655,
        0.0002717217289137035,
        0.0006294601908557616,
        0.0013509932129893815,
        0.000774525839557147,
        0.0002848806821159527,
        0.0003724274604859309,
        0.0002544885897666585,
        0.00043919648062076724,
        0.0005852846661779069,
        0.0005731572716473608,
        0.00004136739822761808,
        0.00007434512237218603,
        0.00004008821803606405,
        0.00025855925819000714,
        0.0008071991284330527,
        0.000519783678296145,
        0.0006407750197338622,
        0.0005921843878181421,
        0.0008564825513749258,
        0.0005097086099671152,
        0.002231802200354732,
        0.002423294209992064,
        -0.0002063330052733697,
        -0.003035606592456856,
        0.00010070642002544136,
        -0.006323219292959629,
        0.007747593120141834,
        -0.001287654929640399,
        -0.0001691260627871092,
        0.00547318423694334,
        0.008857496250742012,
        -0.003908098433919994,
        -0.007438915965133874,
        0.0030561386102700545,
        0.00009405902783223116,
        0.00028591860526384026,
        -0.000004068123550377494,
        0.0003376082188182878,
        0.00016006861081771095,
        0.00006216109846953913,
        0.00009714102360794397,
        0.00020347941865385535,
        0.00023775687262951478,
        -0.0013837908623421315,
        0.0035024060281064603,
        -0.001755703116393159,
        -0.00006551322595189267,
        0.0003493751850702181,
        0.00006648134887806689,
        0.00006454928561631293,
        0.00014396479839320464,
        0.00007941551277689234,
        0.0011374975848849674,
        -0.0008088731759834255,
        -0.00005905576026515493
      ],
      [
        0.016066320147760462,
        0.09193397085663498,
        0.14586812796243587,
        -0.12653816503403692,
        -0.0015922789276695654,
        0.08477128656937348,
        0.011575347641930658,
        0.0009445546778580668,
        0.0521660620646814,
        0.0005261914476524675,
        -0.0003250412738005936,
        -0.0006943350388622672,
        -0.0010861446675673933,
        -0.001002001620722184,
        -0.000289917425128626,
        -0.00042849740867934494,
        -0.00011635834327623619,
        -0.0004112532747598582,
        0.052078951913959504,
        -0.05327781136002944,
        -0.06952685436758274,
        -0.04161000688661435,
        -0.0023257744019453,
        -0.0060632818244403764,
        0.0000013003234002428535,
        -0.08044420244422609,
        -0.03175082413394654,
        -0.0505490591214419,
        -0.07013853991416122,
        0.008618343444967315,
        -0.06919275820931224,
        0.0731170829121234,
        0.025848660271229323,
        0.04106806080518062,
        -0.057177051888753876,
        0.06059769487430606,
        -0.0003232092960842717,
        0.00009232838791424698,
        -0.00006230279129785454,
        -0.00012482156801040418,
        -0.00023420492020287447,
        -0.00015320709972488537,
        0.0005340163747035803,
        0.0075231338686469786,
        0.011310408611939708,
        0.015451733024756832,
        0.027531286090963475,
        0.000014640533203823674,
        -0.044846257339892594,
        0,
        0.05466311838547748,
        0.06602877507968337,
        -0.03427895269932479,
        -0.03712564270190649,
        0.012711948079196232,
        0.07557532285435205,
        -0.0001942970798780139,
        -0.00024146551774029506,
        -0.0002616014658778454,
        -0.00038349718622673136,
        0.028867507838192898,
        -0.023681385881908677,
        0.04468691851546916,
        0,
        -0.13225089400546844,
        -0.0031979304372635317,
        0.0021930585859951646,
        0.00007226132120168965,
        -0.0015078811603291007,
        -0.0948327220802873,
        0.33918335110037495,
        0.03960082649263302,
        -0.02132644374085716,
        0.14125547550909015,
        0.10603593018233529,
        0.24215840811047626,
        0.28985492901232424,
        0.0006621700057627354,
        0.0012070887354632227,
        0.000836552741007696,
        0.002416055384171598,
        0.0041790574611633,
        0.0029932006619433917,
        0.002671036357797915,
        0.00018591875111858362,
        0.00007142940583655018,
        -0.0014517579720437354,
        0.0005800968474494347,
        -0.00027950923305698164,
        -0.0003802390821657367,
        -0.00006634794655013215,
        -0.0003182104405298304,
        -0.000022119880184874716,
        0.00015503551384823746,
        0.00000722744984946971,
        -0.00003807778644523793,
        -0.000029942649211726047,
        0.00001250803254510737,
        0.000028292043394849647,
        -0.000003629976878765089,
        0.00003551113442565038,
        0.000022881523462893654,
        -0.000011287615627682295,
        -0.000043995876634602875,
        0.00014264743292088816,
        -0.000024577843117213356,
        -0.00005119218970618332,
        -0.000013009179575532157,
        0.000001050771177511765,
        -0.00011760609611392255,
        -0.00003683939795071328,
        0.00004342414404200712,
        0.00002224413281383227,
        -0.00002777810772761848,
        0.00006316482367948954,
        0.0000010199189389620916,
        -0.00006312312280995474,
        -0.000014104206915084476,
        0.00001490792680984285,
        -0.00011190862047645239,
        0.0001121248195206504,
        0.000007632906499765543,
        -0.0011125059739168427,
        -0.0000328346855729726,
        -0.00007442829862300878,
        -0.000027810449208759325,
        -0.00025710311950781836,
        0.0005356861915608808,
        -0.0005223728281672683,
        0.0002754101996411284,
        0.00005266557222520071,
        0.0003155587122923474,
        -0.00032743246130699977,
        0.0009000344738266428,
        0.0009597984621007448,
        -0.00010145606997701382,
        -0.0017800962407004347,
        -0.00002701643618161588,
        -0.0027085884151065473,
        0.00744385754776447,
        -0.0017545685352144053,
        -0.00024708275878365584,
        0.005660026896726,
        0.006995250739374173,
        -0.005581409205334467,
        -0.009076107474193641,
        0.0013554084877304563,
        -0.00010555344801690248,
        -0.0007414409102101036,
        -0.00015190685096861918,
        -0.0005569482169273775,
        -0.000008496659811409348,
        -0.000019849785773004504,
        -0.00002959606976532776,
        0.00002961148252214244,
        -0.00013054377371553592,
        -0.0006348937421715788,
        0.0015390331698436862,
        -0.0021335016164203548,
        0.00002701128886156595,
        -0.00012608881946623814,
        -0.00002993252490705337,
        0.000009539853694730316,
        0.000013353691363425172,
        0.000003813837668695169,
        0.0007013193733178786,
        -0.0005176882553499583,
        0.000018388390155119106
      ],
      [
        0.003896738889772343,
        0.0049661823758449675,
        0.010096274947289834,
        -0.015346121293716134,
        -0.02097324468695435,
        -0.03076543631935784,
        0.03790699435825723,
        -0.012599991041970241,
        0.024826761537090434,
        -0.0005790944528976399,
        0.000007656762006054856,
        0.0007421859610136465,
        0.0010998784738316175,
        0.0008333059235118877,
        -0.00010824289789456896,
        0.0004390099294573044,
        0.00019468613228145268,
        0.00030596873543801994,
        0.07186891029582702,
        0.026601508725738555,
        0.05533453814220184,
        -0.01277931540094003,
        0.0011817465355881188,
        0.0029226327424992193,
        0.00000782466103261867,
        0.00049317281563202,
        -0.0028375924535139737,
        0.030334502344135216,
        -0.05584154734868443,
        -0.007965884960623764,
        -0.0037011769683459677,
        -0.07905619132599266,
        -0.0592115228306091,
        0.03717421670106506,
        -0.02396105253244446,
        0.015335409424956236,
        -0.00045924561388761186,
        -0.00032607456513198346,
        -0.000023026476133497446,
        -0.00003446842328665707,
        -0.0003052796688430775,
        -0.00008741291579550786,
        -0.0003723911307725244,
        -0.0044752626452599,
        -0.007212742057119097,
        -0.04934644753994661,
        0.047970901840294046,
        0.000020502774189498724,
        -0.016369167939116778,
        0,
        -0.04276207209123586,
        -0.02379486134762616,
        0.06632862435366497,
        -0.0006305765500882873,
        -0.07000803675141459,
        -0.061074701710980894,
        0.000214727887537977,
        0.00022420854514089121,
        0.00018350188672952987,
        0.0003385519302153965,
        0.04695960124255983,
        -0.058199509597942865,
        0.049219081313499904,
        0,
        -0.031182846510618,
        0.0041711214904584645,
        -0.0019811621545127544,
        -0.0002493500711227898,
        -0.03772676529945055,
        0.06186824730989342,
        -0.07043669163275468,
        0.07944850620677794,
        -0.08866011394592437,
        -0.01214744417097559,
        -0.06616401401306268,
        -0.05868381909082455,
        0.06830702514279256,
        -0.0008785554678796255,
        -0.0028036507576539417,
        -0.001037796604436289,
        -0.0030287571039911295,
        -0.0038950143069856175,
        -0.0030223838775738443,
        -0.0027449294416959685,
        -0.00018478980246835835,
        -0.00007896975365308386,
        0.000032867239048181886,
        -0.0003573444377977546,
        -0.00012118655476974773,
        -0.00022319511867396942,
        -0.000021257281750562934,
        -0.00005927566684465571,
        -0.00007821036976871436,
        -0.000274432797039879,
        -0.0006554538514168122,
        -0.00042165978959226495,
        -0.0001552018671585355,
        -0.00020542725002626436,
        -0.00012272819473202655,
        -0.0001720965394999671,
        -0.00037862975438820594,
        -0.000648838009162428,
        -0.0003863321415582307,
        -0.0001433722113216951,
        -0.00015247239428820304,
        -0.0001830413013545032,
        -0.00016995210219800637,
        -0.0003656049777285804,
        -0.0006554456996560985,
        -0.0004057865039798299,
        -0.0001777812382377609,
        -0.00017383886313692147,
        -0.00016483975855538939,
        -0.00013898583972600436,
        -0.0002719797135017805,
        -0.0006488978547809471,
        -0.0003868003584666797,
        -0.00015202636207622036,
        -0.00013329275641127758,
        -0.00015327169632450434,
        -0.00021030703996892294,
        -0.0003142540331647771,
        -0.00012640845860541707,
        -0.000015311589270663745,
        -0.00003131030052747686,
        -0.000015894938052718863,
        -0.00010255681897736542,
        -0.00025348284477330797,
        -0.00040312134016598787,
        -0.00031320511776236767,
        -0.0003106165094486236,
        -0.0004884372467274203,
        -0.0001821808497295247,
        -0.0009888872758840588,
        -0.0011008329809726342,
        0.0001165500932069081,
        0.001495175399697509,
        0.000016223830655494262,
        0.0029352085990408793,
        -0.004212944314910411,
        0.0007563842498322529,
        0.00009775449993396338,
        -0.0030679324855429763,
        -0.004627711976658123,
        0.0026088141775442515,
        0.0048528259359596196,
        -0.0016249704995555253,
        -0.00008977564922446115,
        0.00006277647202737233,
        0.000008892901794175224,
        0.000047527855525494436,
        -0.00008016282966053728,
        -0.000026569941482144628,
        -0.00004256844580656421,
        -0.00010492056259106253,
        -0.0000867802449059857,
        0.0006663808321503499,
        -0.001597347976776012,
        0.001144860378210772,
        0.000008691253611594384,
        -0.0001443771380379854,
        -0.000025089725617348373,
        -0.00004807079333881735,
        -0.00007108959007602753,
        -0.000023018796737209308,
        -0.0006756250786791738,
        0.0004899458768338029,
        0.000019504969917095883
      ],
      [
        0.5582436940197022,
        -0.0033613084877771073,
        -0.1977052671462124,
        0.12412829069694654,
        0.4695538424119643,
        0.08937035536822127,
        -1.4822079487019169,
        1.1444596754544598,
        0.48211711360224213,
        -0.008432318973379253,
        -0.009417867991954206,
        -0.002011136122222148,
        0.005820457101948342,
        -0.0026092217306880722,
        0.011773906984710853,
        0.00758266692869456,
        -0.004290189292762899,
        0.0033587587224986767,
        -0.006901335681628165,
        -0.09053754525870242,
        0.6091702418756554,
        0.05497989449936822,
        0.013347310181697554,
